{"learner":{"attributes":{"scikit_learn":"{\"_estimator_type\": \"regressor\"}"},"feature_names":["feature_1","feature_2","feature_3","feature_4","feature_5"],"feature_types":["float","float","float","float","float"],"gradient_booster":{"model":{"gbtree_model_param":{"num_parallel_tree":"1","num_trees":"55"},"iteration_indptr":[0,1,2,3,4,5,6,7,8,9,10,11,12,13,14,15,16,17,18,19,20,21,22,23,24,25,26,27,28,29,30,31,32,33,34,35,36,37,38,39,40,41,42,43,44,45,46,47,48,49,50,51,52,53,54,55],"tree_info":[0,0,0,0,0,0,0,0,0,0,0,0,0,0,0,0,0,0,0,0,0,0,0,0,0,0,0,0,0,0,0,0,0,0,0,0,0,0,0,0,0,0,0,0,0,0,0,0,0,0,0,0,0,0,0],"trees":[{"base_weights":[-3.9950553E-2,-1.1358811E-1,-3.1849366E-2,-1.532227E-1,-2.631579E-2,-6.67675E-2,-1.892E-2,-3.1545742E-3,-1.7406593E-1,-2.857143E-1,-8.166969E-3,-1.5894869E-1,-5.805155E-2,-5.0546296E-2,-9.410289E-4,-1.0185185E-1,2.0588236E-1,-3.644068E-1,-1.635774E-1,-4.090909E-1,4.1666666E-1,6.375228E-2,-7.9422385E-2,-3.9344262E-2,-2.3232323E-1,7.909604E-2,-6.4034544E-2,-4.6133123E-2,-3.0718955E-1,9.96337E-2,-1.0359495E-2,-2.1875E-1,2.2807017E-1,-4.4444445E-1,2.6595744E-1,-2.5531915E-1,-7.6E-1,-1.7335945E-1,8.547009E-3,-2.195122E-1,-6.923077E-1,1.6666667E-1,-2.5E-1,2.1367522E-2,3.0487806E-1,-1.0114504E-1,2.9032257E-1,-3.8E-1,2.734375E-2,-1.9093078E-1,-4.5454547E-1,-0E0,2.7722773E-1,-6.5618426E-2,3.7931034E-1,-3.127572E-2,-7.795414E-2,-4.4615385E-1,-2.0224719E-1,-4.6783626E-2,1.2050209E-1,9.052334E-2,-1.5501081E-2,1.2E-1,-2.7941176E-1,5.277778E-1,-2.7272728E-1,-0E0,-2E-1,5.833333E-1,1.5492958E-1,-5.555556E-1,2E-2,-0E0,-8.2608694E-1,-1.5281813E-1,-2.826087E-1,2E-1,-2.6548672E-2,-4.7826087E-1,1.0526316E-1,-7.7272725E-1,-2E-1,-1.6666667E-1,1.25E-1,3.0172413E-2,-2E-1,4.6031746E-1,-2E-1,-1.4018692E-1,7.2164945E-2,9.090909E-2,7E-1,-1.1111111E-1,-6.666667E-1,3.9583334E-1,-5.7416268E-2,-3.75E-1,-1.4705883E-1,-4.7368422E-1,1.25E-1,-1.1678832E-1,1.3559322E-1,3.9506173E-1,-1.904762E-1,-6.005495E-2,-1.632184E-1,-0E0,6.4705884E-1,-7.151819E-2,1.3157895E-2,-1.765835E-1,-5.572354E-2,-6.4102566E-1,-1.4814815E-1,1.02564104E-1,-4.3137255E-1,-6.25E-1,1.2820513E-2,1.2919897E-1,-1.7142858E-1,9.82906E-2,-2.0833333E-1,-2.3418596E-2,2.4358416E-2,-1.6666667E-1,7.5E-1,-7.692308E-1,-2.2580644E-1,-1.25E-1,5.714286E-1,-4E-1,1.6666667E-1,-1.25E-1,2.5E-1,2.5E-1,8.4615386E-1,3.5714287E-2,5.625E-1,-2.3214285E-1,-3.75E-1,1.3333334E-1,-2.0833333E-1,-1.25E-1,1.25E-1,-3.3333334E-1,-2.1428572E-1,-1.7068273E-1,-3.508772E-2,-1.8378378E-1,-4.1304347E-1,-2E-1,1.6666667E-1,-0E0,-6.4705884E-1,4.2857143E-1,-6.666667E-1,-8.5E-1,-0E0,3.3333334E-1,-1.6666667E-1,-2.112676E-2,1.10497236E-1,5.254237E-1,-4E-1,-5.3333336E-1,6.666667E-1,-1.670823E-1,2.5E-1,5E-1,-8.3333336E-2,5E-1,-3.6363637E-1,7.777778E-1,-0E0,-5.4545456E-1,1.764706E-1,-7.619048E-1,-0E0,-2.0833333E-1,5.5813956E-1,-6.956522E-1,2.1390375E-2,-4E-2,-5.1785713E-1,-3.015873E-1,-1.1151079E-1,-0E0,-5.217391E-1,-9.803922E-3,-4.1666666E-1,2.244898E-1,-2.857143E-1,-1.875E-1,4.4871795E-1,1.875E-1,-3.888889E-1,-1.4489795E-1,-5.423539E-2,2.5E-2,-2.0505618E-1,-3E-1,1.875E-1,2.2727273E-1,1.4285715E-1,-3.6900368E-2,-1.2229102E-1,5.100182E-2,-3.7037037E-2,-7.2727275E-1,-1.6438356E-1,-1.9245283E-1,-3.803023E-2,-3.888889E-1,-8.181818E-1,2.3529412E-1,-7.2727275E-1,3.030303E-1,-2.1428572E-1,-6.666667E-1,-9.090909E-2,2.5E-1,-8.4615386E-1,4.6357617E-2,-2.0833333E-1,1.2337098E-1,7.2727275E-1,2.6666668E-1,-4.7619048E-1,2.238806E-2,1.9933555E-1,3.0959751E-2,-3.0249976E-2,3.9012346E-2,-8.3636366E-2,1.875E-1,-4E-1,2.1428572E-1,-0E0,-2.2727273E-1,-0E0,-3.75E-1,-6.557377E-2,2.1428572E-1,3.6363637E-1,-0E0,-6.1538464E-1,1.6666667E-1,-1.25E-1,6.25E-1,-4E-1,3.3333334E-1,2.2727273E-1,1.15384616E-1,-2E-1,2.2222222E-1,1.25E-1,-5E-2,-2.1153846E-1,2.5E-2,2.0833333E-1,-1.25E-1,-0E0,-8.932039E-2,-2.132653E-1,-2.2222222E-1,8.6330935E-2,-2.6035503E-1,5.882353E-1,-2.2077923E-1,-6.451613E-1,1.6666667E-1,-3.488372E-1,-6E-1,3.3333334E-1,1.6666667E-1,-4E-1,-0E0,-7.8571427E-1,-2.5E-1,6.363636E-1,-0E0,-2E-1,-2.3333333E-1,-5E-1,-1.25E-1,1.25E-1,1.25E-1,-0E0,-1.0738255E-1,7.3529415E-2,8E-1,4.7904193E-2,4.347826E-1,7.8571427E-1,1.25E-1,-1.875E-1,-6.4285713E-1,1.25E-1,2E-1,-0E0,-1.3239437E-1,-4.2553192E-1,-3.0769232E-1,6.875E-1,-1.6666667E-1,6.25E-1,1.1111111E-1,-6.315789E-1,-2.5E-1,7.777778E-1,1.6666667E-1,-2.0833333E-1,2.1428572E-1,3.3333334E-1,1.25E-1,-7E-1,6.25E-1,-2E-1,-0E0,-8.4210527E-1,-1.25E-1,3.3333334E-1,5.952381E-1,-1.25E-1,-2.2916667E-1,-4.1666666E-1,5.652174E-1,-5.4545455E-2,-1.6666667E-1,4.347826E-2,-5.882353E-1,1.6666667E-1,-1.6216215E-1,-4.814815E-1,4E-2,-1.9553073E-1,-1.875E-1,6E-1,-5.441176E-1,1.25E-1,7.5E-1,-7.368421E-2,-6E-1,-0E0,3.3333334E-1,-7.4074075E-2,-4.6666667E-1,1.4285715E-1,4.5454547E-2,5.964912E-1,-9.090909E-2,-1.875E-1,1.986755E-2,-2.1764706E-1,-1.7872341E-1,-5E-2,4.7058824E-1,-9.375E-2,-3.298969E-1,-5.5214725E-2,4E-1,-2.0833333E-1,-1.6666667E-1,6E-1,-7.854545E-2,7.265774E-2,-1.390059E-1,6.603774E-2,-2.8947368E-1,5.900621E-2,-2.2916667E-1,-2.092415E-2,-2.25E-1,1.25E-1,-1.8736383E-1,3.773585E-2,-1.2173913E-1,-6.388889E-1,-6.276403E-2,6.582279E-2,1.875E-1,-6.666667E-1,-2.236842E-1,-2.5E-1,-5E-1,5.833333E-1,-2.2222222E-1,-0E0,-1.6666667E-1,8.125E-1,-7.5E-1,3.3333334E-1,2E-1,-3.3333334E-1,1.25E-1,-0E0,-0E0,-2.2916667E-1,1.827957E-1,-1.6949153E-1,1.4299901E-1,-1.3793103E-2,-0E0,2.2222222E-1,-1.4285715E-1,5.555556E-1,1.6666667E-1,-6.315789E-1,-1.0062893E-1,1.0245901E-1,2.2614841E-1,-2.1052632E-1,5.2808046E-2,-2.3E-1,-4.1681856E-2,1.5586946E-2,1.5019763E-1,2.3124648E-2,2.580645E-1,-1.2653062E-1,-1.4583333E-1,6.25E-2,1.25E-1,-1.25E-1,7.5E-2,-1.22727275E-1,2.1428572E-1,-4.5454547E-2,-1E-1,1.388889E-1,1.6666667E-1,-8.3333336E-2,-1.875E-1,1.25E-1,-0E0,1.7857143E-1,-1.875E-1,1.25E-1,-0E0,1.25E-1,7.4324325E-2,-7.8125E-2,-4.1666668E-2,1.6666667E-1,-1E-1,6.818182E-2,1.6666667E-1,-3.90625E-2,-1.746507E-2,-1.8333334E-1,-8.183453E-2,-4.1963015E-2,-1.0869565E-1,-0E0,5.859375E-3,1.875E-1,-1.6666667E-1,-5.263158E-2,-6.25E-2,1.9642857E-1,-7.638889E-2,2.0833333E-1,-2.1527778E-1,-8.3333336E-2,1.5E-1,-8.3333336E-2,-1.7105263E-1,-2E-2,-1.875E-1,-0E0,-3.125E-2,1.0526316E-1,-1.875E-1,1.25E-1,-1.25E-1,8.3333336E-2,-2.2727273E-1,-6.25E-2,-1.6666667E-1,1.25E-1,2E-1,-1.25E-1,-0E0,-1.875E-1,1.1494253E-2,-7.936508E-2,-2.586207E-2,5.0632913E-2,8.3333336E-2,2.1153846E-1,4.5652173E-2,-6.1320756E-2,4.411765E-2,1.4166667E-1,2.2916667E-1,-0E0,-2.2222222E-1,-4.1666668E-2,-4.1401275E-2,2.9761905E-2,4.1666668E-2,-1.25E-1,8.3333336E-2,-1.875E-1,2.3214285E-1,-1.6666667E-1,-1.25E-1,1.7391305E-1,5.2083332E-2,-1.4285715E-1,-1.9117647E-1,8.3333336E-2,1.25E-1,-1.6666667E-1,2.1428572E-1,8.3333336E-2,1.875E-1,-1.6666667E-1,1.25E-1,-0E0,-6.25E-2,-2.1428572E-1,-1.25E-1,2.1428572E-1,-1.4285715E-1,1.25E-1,-1.25E-1,1.25E-1,-8.3333336E-2,-2.2058824E-1,1.25E-1,-0E0,1.7741935E-1,6.25E-2,-0E0,-2.0833333E-1,-8.3333336E-2,1.6666667E-1,-2.3584906E-2,2.1428572E-1,1.6666667E-1,-1.1904762E-2,-1.6489361E-1,5E-2,1.6666667E-1,-6.25E-2,-7.258064E-2,1.0714286E-1,-3.3333335E-2,-2.1153846E-1,-1.1363637E-2,1.5384616E-1,1.388889E-1,-5.8479533E-2,-0E0,1.875E-1,-1.5865384E-1,-5.882353E-2,2.1428572E-1,-0E0,-1.6666667E-1,2.9761905E-3,-2.0833333E-1,-8.928572E-2,2E-1,-1.25E-1,1.7857143E-1,5.9322033E-2,-1.6666667E-1,1.5384616E-1,1.25E-1,-1.4285715E-1,-5E-2,1.6666667E-1,1.3636364E-1,-1.04166664E-1,1.744186E-1,6.666667E-2,-1.875E-1,6.25E-2,2.1875E-1,-6.9444445E-3,-2.6960785E-2,-9.489051E-2,-5.5555556E-2,7.5E-2,3.0534351E-2,-1.3328424E-2,-4.1666668E-2,1.875E-1,-6.7307696E-2,1.5384616E-1,-2.1428572E-1,-7.712766E-2,4.1666668E-2,-3.6637932E-2,-1.25E-1,1.875E-1,1.875E-1,-0E0,-1.1424731E-2,-5.4807693E-2,5.5059522E-2,7.022472E-4,-2.835821E-2,-6.967213E-2,6.140351E-2,-3.5E-2,6.25E-2,-1.2962963E-1,1.7502917E-3,2.9509284E-2,-9.2307694E-2,1.5625E-2,2.4229076E-2,-1.2486428E-2,-3.75E-2,-1.08333334E-1,4.375E-2,-8.928572E-2,-4.4258375E-2,1.0227273E-1,-0E0,-1.9166666E-1,-9.146341E-3,-6.868132E-2,1.497006E-3,9.677419E-2,1.25E-1,-1.9642857E-1,-1.6666667E-1,1.25E-1,1.25E-1,-2E-1,2.2222222E-1,-6.25E-2,-1.25E-1,1.25E-1,2E-1,-1.25E-1,-0E0,2.1666667E-1,1.25E-1,-2.037037E-1,-0E0,1.25E-1,-0E0,-1.3636364E-1,-1.4285715E-1,6.0344826E-2,6.521739E-2,-1.0810811E-1,4.1610286E-2,1.9516729E-2,1.3461539E-1,-1.6917294E-2,1.25E-1,-1.25E-1,1.6666667E-1,-1.5E-1,1.875E-1,-1.25E-1,-2.25E-1,-7.5E-2,-4.1353382E-2,5.5555556E-2,-8.3333336E-2,3.5714287E-2,4.811321E-2,1.7105263E-1,-1.3636364E-1,5.5555556E-2,1.0775862E-2,9.558824E-2,1.4285715E-1,-7.180851E-2,2.892562E-2,-1.1611166E-2,-1.05E-2,1.7552182E-2,4.387755E-2,-1.388889E-1,1.2952449E-2,-2.1917809E-2,1.375E-1,-6.25E-2,-1.7857144E-2,-1.1111111E-1],"categories":[],"categories_nodes":[],"categories_segments":[],"categories_sizes":[],"default_left":[0,0,0,0,0,0,0,0,0,0,0,0,0,0,0,0,0,0,0,0,0,0,0,0,0,0,0,0,0,0,0,0,0,0,0,0,0,0,0,0,0,0,0,0,0,0,0,0,0,0,0,0,0,0,0,0,0,0,0,0,0,0,0,0,0,0,0,0,0,0,0,0,0,0,0,0,0,0,0,0,0,0,0,0,0,0,0,0,0,0,0,0,0,0,0,0,0,0,0,0,0,0,0,0,0,0,0,0,0,0,0,0,0,0,0,0,0,0,0,0,0,0,0,0,0,0,0,0,0,0,0,0,0,0,0,0,0,0,0,0,0,0,0,0,0,0,0,0,0,0,0,0,0,0,0,0,0,0,0,0,0,0,0,0,0,0,0,0,0,0,0,0,0,0,0,0,0,0,0,0,0,0,0,0,0,0,0,0,0,0,0,0,0,0,0,0,0,0,0,0,0,0,0,0,0,0,0,0,0,0,0,0,0,0,0,0,0,0,0,0,0,0,0,0,0,0,0,0,0,0,0,0,0,0,0,0,0,0,0,0,0,0,0,0,0,0,0,0,0,0,0,0,0,0,0,0,0,0,0,0,0,0,0,0,0,0,0,0,0,0,0,0,0,0,0,0,0,0,0,0,0,0,0,0,0,0,0,0,0,0,0,0,0,0,0,0,0,0,0,0,0,0,0,0,0,0,0,0,0,0,0,0,0,0,0,0,0,0,0,0,0,0,0,0,0,0,0,0,0,0,0,0,0,0,0,0,0,0,0,0,0,0,0,0,0,0,0,0,0,0,0,0,0,0,0,0,0,0,0,0,0,0,0,0,0,0,0,0,0,0,0,0,0,0,0,0,0,0,0,0,0,0,0,0,0,0,0,0,0,0,0,0,0,0,0,0,0,0,0,0,0,0,0,0,0,0,0,0,0,0,0,0,0,0,0,0,0,0,0,0,0,0,0,0,0,0,0,0,0,0,0,0,0,0,0,0,0,0,0,0,0,0,0,0,0,0,0,0,0,0,0,0,0,0,0,0,0,0,0,0,0,0,0,0,0,0,0,0,0,0,0,0,0,0,0,0,0,0,0,0,0,0,0,0,0,0,0,0,0,0,0,0,0,0,0,0,0,0,0,0,0,0,0,0,0,0,0,0,0,0,0,0,0,0,0,0,0,0,0,0,0,0,0,0,0,0,0,0,0,0,0,0,0,0,0,0,0,0,0,0,0,0,0,0,0,0,0,0,0,0,0,0,0,0,0,0,0,0,0,0,0,0,0,0,0,0,0,0,0,0,0,0,0,0,0,0,0,0,0,0,0,0,0,0,0,0,0,0,0,0,0,0,0,0,0,0,0,0,0,0,0,0,0,0,0,0,0,0,0,0,0,0,0,0,0,0,0,0,0,0,0,0,0,0,0,0,0,0,0,0,0,0,0,0,0,0,0,0,0,0,0,0,0,0,0,0,0,0,0,0,0,0,0,0,0,0,0,0,0,0,0,0,0,0,0,0,0,0,0,0,0,0,0,0,0,0,0,0,0,0,0,0,0,0,0,0,0,0,0],"id":0,"left_children":[1,3,5,7,9,11,13,15,17,19,21,23,25,27,29,31,33,35,37,39,41,43,45,47,49,51,53,55,57,59,61,63,65,67,69,71,73,75,77,79,81,-1,83,85,87,89,91,93,95,97,99,101,103,105,107,109,111,113,115,117,119,121,123,125,127,129,131,133,-1,135,137,139,141,143,145,147,149,-1,151,153,155,157,159,-1,-1,161,-1,163,165,167,169,171,173,175,177,179,181,183,185,187,-1,189,191,193,195,197,199,201,203,205,207,209,211,213,215,217,219,221,223,225,227,229,-1,231,233,235,237,239,241,-1,243,245,-1,-1,247,249,251,253,255,-1,257,259,-1,-1,-1,261,-1,263,265,267,269,271,273,275,277,279,281,283,285,287,-1,289,291,293,295,297,299,301,303,305,307,309,311,313,-1,315,317,319,321,-1,323,325,327,329,331,333,335,337,339,341,343,345,347,-1,349,-1,351,353,355,357,359,361,-1,-1,363,365,367,369,371,373,375,377,379,381,383,385,387,389,-1,391,393,395,397,399,-1,401,403,405,407,409,411,413,415,417,419,-1,421,-1,-1,-1,423,425,427,-1,429,431,433,-1,-1,435,437,439,-1,441,-1,-1,443,445,-1,447,-1,-1,-1,449,451,453,455,457,459,461,463,465,467,469,471,-1,473,475,477,479,481,-1,-1,-1,483,-1,-1,-1,-1,485,487,489,491,493,495,-1,-1,497,-1,-1,-1,499,501,503,505,-1,507,509,511,513,515,517,-1,-1,519,-1,521,523,525,527,529,-1,531,533,-1,-1,535,537,539,-1,541,543,545,547,549,551,553,-1,555,557,-1,559,561,563,565,567,569,571,573,575,577,579,-1,581,583,585,587,589,591,593,595,597,-1,-1,599,601,603,605,607,609,611,613,615,-1,-1,617,619,621,623,625,627,-1,629,-1,631,633,635,-1,637,639,641,643,645,-1,647,-1,-1,-1,-1,649,651,653,655,657,-1,659,661,-1,663,665,667,669,671,673,675,677,679,681,683,685,687,-1,-1,-1,-1,-1,-1,-1,-1,-1,-1,-1,-1,-1,-1,-1,-1,-1,-1,-1,-1,-1,-1,-1,-1,-1,-1,-1,-1,-1,-1,-1,-1,-1,-1,-1,-1,-1,-1,-1,-1,-1,-1,-1,-1,-1,-1,-1,-1,-1,-1,-1,-1,-1,-1,-1,-1,-1,-1,-1,-1,-1,-1,-1,-1,-1,-1,-1,-1,-1,-1,-1,-1,-1,-1,-1,-1,-1,-1,-1,-1,-1,-1,-1,-1,-1,-1,-1,-1,-1,-1,-1,-1,-1,-1,-1,-1,-1,-1,-1,-1,-1,-1,-1,-1,-1,-1,-1,-1,-1,-1,-1,-1,-1,-1,-1,-1,-1,-1,-1,-1,-1,-1,-1,-1,-1,-1,-1,-1,-1,-1,-1,-1,-1,-1,-1,-1,-1,-1,-1,-1,-1,-1,-1,-1,-1,-1,-1,-1,-1,-1,-1,-1,-1,-1,-1,-1,-1,-1,-1,-1,-1,-1,-1,-1,-1,-1,-1,-1,-1,-1,-1,-1,-1,-1,-1,-1,-1,-1,-1,-1,-1,-1,-1,-1,-1,-1,-1,-1,-1,-1,-1,-1,-1,-1,-1,-1,-1,-1,-1,-1,-1,-1,-1,-1,-1,-1,-1,-1,-1,-1,-1,-1,-1,-1,-1,-1,-1,-1,-1,-1,-1,-1,-1,-1,-1,-1,-1,-1,-1,-1,-1,-1,-1,-1,-1,-1,-1,-1,-1,-1,-1,-1,-1,-1,-1,-1,-1,-1,-1,-1,-1,-1,-1,-1,-1,-1,-1,-1,-1,-1,-1,-1,-1,-1,-1,-1,-1,-1],"loss_changes":[2.2678478E1,1.3029488E1,1.5463821E1,8.103855E0,5.5434275E0,7.427479E0,1.421516E1,6.5611157E0,4.4822006E0,6.843074E0,5.652412E0,7.002819E0,6.945305E0,1.0248421E1,1.5100351E1,8.380422E0,4.1031847E0,4.8981676E0,3.6349754E0,3.391694E0,2.1666667E0,5.6042967E0,4.479006E0,6.939275E0,4.466383E0,5.547687E0,5.7162514E0,4.2095375E0,2.1410027E0,4.1763887E0,7.5619426E0,3.3213968E0,8.699229E0,1.4222223E0,3.2219563E0,7.78123E0,1.2556524E0,4.5393066E0,3.271099E0,3.4957862E0,8.748255E-1,0E0,1.5833334E0,3.4087386E0,6.527256E0,3.5556822E0,2.468915E0,3.7800002E0,8.018422E0,3.3284788E0,1.6435404E0,4.0381045E0,5.641504E0,4.375969E0,2.9452333E0,1.0863762E1,6.206154E0,3.6797714E0,6.260003E0,5.901372E0,3.056116E0,5.1552243E0,4.377779E0,4.64E0,3.3972416E0,1.900794E0,2.8969698E0,7.5E-1,0E0,1.8910255E0,3.4297035E0,2.682541E0,4.946667E0,1E0,6.625271E-2,3.6136284E0,4.0747337E0,0E0,3.820354E0,1.8567777E0,5.027569E0,1.3136358E0,1.4666667E0,0E0,0E0,1.9142914E0,0E0,3.7389288E0,6.133333E0,4.5332994E0,6.494846E0,4.2727275E0,5.4444456E-1,3.468806E0,1.5238094E0,1.0041182E1,1.0527001E1,3.8078575E0,1.8340526E0,1.7299786E0,0E0,4.3911905E0,4.48357E0,5.3131523E0,4.2103176E0,3.7658653E0,3.4305954E0,3.15E0,2.1161194E0,5.598858E0,5.487857E0,3.3807182E0,5.5931163E0,1.4238548E0,6.1667657E0,7.762904E0,4.0249557E0,3.3076925E0,4.4655294E0,3.957016E0,4.7999997E0,5.379574E0,0E0,4.2996926E0,3.64154E0,4.15E0,6.4285755E-1,1.3986015E0,2.939714E0,0E0,1.7662344E0,1.723077E0,0E0,0E0,1.5833334E0,3.175E0,1.1654949E-1,3.8208792E0,2.1736112E0,0E0,4.8576927E0,3.3916671E0,0E0,0E0,0E0,1.6666666E-1,0E0,5.157089E0,5.199714E0,1.1089326E1,6.016218E0,3.3325582E0,7.1000004E0,2.1333334E0,1.5252104E0,2.133117E0,5.333333E-1,1.1666775E-1,1E0,1.6666666E-1,0E0,2.3266544E0,7.7732897E0,1.0503731E0,1.95E0,2.0190477E0,5.333333E-1,3.53866E0,7.043269E0,4.208333E0,7.745614E0,2.6944447E0,2.878788E0,3.1746387E-2,0E0,2.1272728E0,2.9955883E0,1.2832079E0,8.333334E-1,0E0,1.9856043E0,1.036233E0,7.753174E0,1.3368117E0,2.7958689E0,1.5020733E0,3.5467412E0,4.05E0,1.8497448E0,5.0059857E0,2.75E0,3.209373E0,1.6952382E0,0E0,4.621028E0,0E0,1.8686867E0,5.8777304E0,3.7630482E0,4.2772055E0,6.6412354E0,4.066667E0,0E0,0E0,2.9904764E0,8.660877E0,4.076256E0,4.5056477E0,3.8401427E0,2.7818184E0,2.3805418E0,8.288046E0,5.2724934E0,6.1944447E0,7.332535E-1,4.642157E0,1.2929292E0,8.032197E0,0E0,2.750001E0,5.018182E0,2.5E-1,7.7564144E-1,4.4779387E0,0E0,3.1007633E0,1.2929292E0,1.8539683E0,4.1503763E0,3.9700458E0,3.3554707E0,7.378517E0,5.3879156E0,3.5736454E0,4.0633287E0,0E0,1.9333334E0,0E0,0E0,0E0,1E0,5.154545E0,6.6987443E0,0E0,3.446465E0,2E0,2.326923E0,0E0,0E0,4.4642878E-1,1.95E0,1.6666666E-1,0E0,4.140463E0,0E0,0E0,1.375E0,2.368182E0,0E0,4.75625E0,0E0,0E0,0E0,6.40304E0,5.021866E0,4.2512074E0,5.7843413E0,3.2812204E0,3.0105047E0,7.1356425E0,3.8879929E0,4.1000004E0,3.8221788E0,9.000001E-1,1.8618422E0,0E0,1.95E0,8.333334E-1,6.9805145E-1,1.5833334E0,2.4454546E0,0E0,0E0,0E0,7.5E-1,0E0,0E0,0E0,0E0,4.814994E0,3.125902E0,4.102516E-2,6.640228E0,1.4670944E0,1.4404764E0,0E0,0E0,1.4920635E0,0E0,0E0,0E0,2.984168E0,2.1560287E0,3.9358974E0,5.8422623E0,0E0,2.255435E0,3.7023814E0,2.695562E0,1.5833334E0,3.1746387E-2,3.4166667E0,0E0,0E0,1.6666666E-1,0E0,4.9285746E-1,2.5178576E0,2.8857143E0,1E0,9.494305E-2,0E0,1.6666666E-1,1.4819508E0,0E0,0E0,2.0833337E0,2.318841E0,6.067043E0,0E0,1.3374742E0,2.9997501E0,1.4166667E0,2.9256444E0,3.3150997E0,4.9448953E0,5.290928E0,0E0,4.5000005E-1,1.751133E0,0E0,6.4285755E-1,4.8294487E0,1.1190481E0,5.2E0,2.4648914E0,1.1441596E1,1.8047621E0,1.3904762E0,5.3106065E0,1.716198E0,2.659091E0,0E0,6.1765084E0,6.003893E0,4.960284E0,3.9537582E0,3.1519606E0,8.129808E0,1.9230709E0,3.3277802E0,1.95E0,0E0,0E0,4.5000005E-1,6.34389E0,5.390624E0,4.2084866E0,3.9563322E0,4.8250484E0,4.941723E0,3.9448724E0,3.9274817E0,0E0,0E0,4.1533775E0,2.935243E0,6.823362E0,2.9388905E0,9.184415E0,7.590906E0,0E0,2.476191E0,0E0,1.5833334E0,2.2E0,3.2777777E0,0E0,1E0,6.2000003E0,7.0416737E-1,2.6759262E0,1.6666666E-1,0E0,1.2727275E0,0E0,0E0,0E0,0E0,4.2471533E0,6.7892203E0,1.5198078E0,4.3506675E0,1E0,0E0,2.9904764E0,2.2222223E0,0E0,1.4210525E0,3.3623683E0,4.3432865E0,4.236333E0,2.8750668E0,3.7988536E0,4.751034E0,6.173765E0,6.460664E0,4.6172066E0,5.639484E0,4.735484E0,4.260091E0,0E0,0E0,0E0,0E0,0E0,0E0,0E0,0E0,0E0,0E0,0E0,0E0,0E0,0E0,0E0,0E0,0E0,0E0,0E0,0E0,0E0,0E0,0E0,0E0,0E0,0E0,0E0,0E0,0E0,0E0,0E0,0E0,0E0,0E0,0E0,0E0,0E0,0E0,0E0,0E0,0E0,0E0,0E0,0E0,0E0,0E0,0E0,0E0,0E0,0E0,0E0,0E0,0E0,0E0,0E0,0E0,0E0,0E0,0E0,0E0,0E0,0E0,0E0,0E0,0E0,0E0,0E0,0E0,0E0,0E0,0E0,0E0,0E0,0E0,0E0,0E0,0E0,0E0,0E0,0E0,0E0,0E0,0E0,0E0,0E0,0E0,0E0,0E0,0E0,0E0,0E0,0E0,0E0,0E0,0E0,0E0,0E0,0E0,0E0,0E0,0E0,0E0,0E0,0E0,0E0,0E0,0E0,0E0,0E0,0E0,0E0,0E0,0E0,0E0,0E0,0E0,0E0,0E0,0E0,0E0,0E0,0E0,0E0,0E0,0E0,0E0,0E0,0E0,0E0,0E0,0E0,0E0,0E0,0E0,0E0,0E0,0E0,0E0,0E0,0E0,0E0,0E0,0E0,0E0,0E0,0E0,0E0,0E0,0E0,0E0,0E0,0E0,0E0,0E0,0E0,0E0,0E0,0E0,0E0,0E0,0E0,0E0,0E0,0E0,0E0,0E0,0E0,0E0,0E0,0E0,0E0,0E0,0E0,0E0,0E0,0E0,0E0,0E0,0E0,0E0,0E0,0E0,0E0,0E0,0E0,0E0,0E0,0E0,0E0,0E0,0E0,0E0,0E0,0E0,0E0,0E0,0E0,0E0,0E0,0E0,0E0,0E0,0E0,0E0,0E0,0E0,0E0,0E0,0E0,0E0,0E0,0E0,0E0,0E0,0E0,0E0,0E0,0E0,0E0,0E0,0E0,0E0,0E0,0E0,0E0,0E0,0E0,0E0,0E0,0E0,0E0,0E0,0E0,0E0,0E0,0E0,0E0,0E0,0E0,0E0,0E0,0E0,0E0,0E0,0E0,0E0,0E0,0E0,0E0,0E0,0E0,0E0,0E0,0E0,0E0,0E0,0E0,0E0,0E0,0E0,0E0,0E0,0E0,0E0,0E0,0E0,0E0,0E0],"parents":[2147483647,0,0,1,1,2,2,3,3,4,4,5,5,6,6,7,7,8,8,9,9,10,10,11,11,12,12,13,13,14,14,15,15,16,16,17,17,18,18,19,19,20,20,21,21,22,22,23,23,24,24,25,25,26,26,27,27,28,28,29,29,30,30,31,31,32,32,33,33,34,34,35,35,36,36,37,37,38,38,39,39,40,40,42,42,43,43,44,44,45,45,46,46,47,47,48,48,49,49,50,50,51,51,52,52,53,53,54,54,55,55,56,56,57,57,58,58,59,59,60,60,61,61,62,62,63,63,64,64,65,65,66,66,67,67,69,69,70,70,71,71,72,72,73,73,74,74,75,75,76,76,78,78,79,79,80,80,81,81,82,82,85,85,87,87,88,88,89,89,90,90,91,91,92,92,93,93,94,94,95,95,96,96,97,97,98,98,99,99,101,101,102,102,103,103,104,104,105,105,106,106,107,107,108,108,109,109,110,110,111,111,112,112,113,113,114,114,115,115,116,116,117,117,118,118,119,119,120,120,121,121,123,123,124,124,125,125,126,126,127,127,128,128,130,130,131,131,134,134,135,135,136,136,137,137,138,138,140,140,141,141,145,145,147,147,148,148,149,149,150,150,151,151,152,152,153,153,154,154,155,155,156,156,157,157,158,158,159,159,161,161,162,162,163,163,164,164,165,165,166,166,167,167,168,168,169,169,170,170,171,171,172,172,173,173,175,175,176,176,177,177,178,178,180,180,181,181,182,182,183,183,184,184,185,185,186,186,187,187,188,188,189,189,190,190,191,191,192,192,194,194,196,196,197,197,198,198,199,199,200,200,201,201,204,204,205,205,206,206,207,207,208,208,209,209,210,210,211,211,212,212,213,213,214,214,215,215,216,216,217,217,219,219,220,220,221,221,222,222,223,223,225,225,226,226,227,227,228,228,229,229,230,230,231,231,232,232,233,233,234,234,236,236,240,240,241,241,242,242,244,244,245,245,246,246,249,249,250,250,251,251,253,253,256,256,257,257,259,259,263,263,264,264,265,265,266,266,267,267,268,268,269,269,270,270,271,271,272,272,273,273,274,274,276,276,277,277,278,278,279,279,280,280,284,284,289,289,290,290,291,291,292,292,293,293,294,294,297,297,301,301,302,302,303,303,304,304,306,306,307,307,308,308,309,309,310,310,311,311,314,314,316,316,317,317,318,318,319,319,320,320,322,322,323,323,326,326,327,327,328,328,330,330,331,331,332,332,333,333,334,334,335,335,336,336,338,338,339,339,341,341,342,342,343,343,344,344,345,345,346,346,347,347,348,348,349,349,350,350,351,351,353,353,354,354,355,355,356,356,357,357,358,358,359,359,360,360,361,361,364,364,365,365,366,366,367,367,368,368,369,369,370,370,371,371,372,372,375,375,376,376,377,377,378,378,379,379,380,380,382,382,384,384,385,385,386,386,388,388,389,389,390,390,391,391,392,392,394,394,399,399,400,400,401,401,402,402,403,403,405,405,406,406,408,408,409,409,410,410,411,411,412,412,413,413,414,414,415,415,416,416,417,417,418,418,419,419,420,420],"right_children":[2,4,6,8,10,12,14,16,18,20,22,24,26,28,30,32,34,36,38,40,42,44,46,48,50,52,54,56,58,60,62,64,66,68,70,72,74,76,78,80,82,-1,84,86,88,90,92,94,96,98,100,102,104,106,108,110,112,114,116,118,120,122,124,126,128,130,132,134,-1,136,138,140,142,144,146,148,150,-1,152,154,156,158,160,-1,-1,162,-1,164,166,168,170,172,174,176,178,180,182,184,186,188,-1,190,192,194,196,198,200,202,204,206,208,210,212,214,216,218,220,222,224,226,228,230,-1,232,234,236,238,240,242,-1,244,246,-1,-1,248,250,252,254,256,-1,258,260,-1,-1,-1,262,-1,264,266,268,270,272,274,276,278,280,282,284,286,288,-1,290,292,294,296,298,300,302,304,306,308,310,312,314,-1,316,318,320,322,-1,324,326,328,330,332,334,336,338,340,342,344,346,348,-1,350,-1,352,354,356,358,360,362,-1,-1,364,366,368,370,372,374,376,378,380,382,384,386,388,390,-1,392,394,396,398,400,-1,402,404,406,408,410,412,414,416,418,420,-1,422,-1,-1,-1,424,426,428,-1,430,432,434,-1,-1,436,438,440,-1,442,-1,-1,444,446,-1,448,-1,-1,-1,450,452,454,456,458,460,462,464,466,468,470,472,-1,474,476,478,480,482,-1,-1,-1,484,-1,-1,-1,-1,486,488,490,492,494,496,-1,-1,498,-1,-1,-1,500,502,504,506,-1,508,510,512,514,516,518,-1,-1,520,-1,522,524,526,528,530,-1,532,534,-1,-1,536,538,540,-1,542,544,546,548,550,552,554,-1,556,558,-1,560,562,564,566,568,570,572,574,576,578,580,-1,582,584,586,588,590,592,594,596,598,-1,-1,600,602,604,606,608,610,612,614,616,-1,-1,618,620,622,624,626,628,-1,630,-1,632,634,636,-1,638,640,642,644,646,-1,648,-1,-1,-1,-1,650,652,654,656,658,-1,660,662,-1,664,666,668,670,672,674,676,678,680,682,684,686,688,-1,-1,-1,-1,-1,-1,-1,-1,-1,-1,-1,-1,-1,-1,-1,-1,-1,-1,-1,-1,-1,-1,-1,-1,-1,-1,-1,-1,-1,-1,-1,-1,-1,-1,-1,-1,-1,-1,-1,-1,-1,-1,-1,-1,-1,-1,-1,-1,-1,-1,-1,-1,-1,-1,-1,-1,-1,-1,-1,-1,-1,-1,-1,-1,-1,-1,-1,-1,-1,-1,-1,-1,-1,-1,-1,-1,-1,-1,-1,-1,-1,-1,-1,-1,-1,-1,-1,-1,-1,-1,-1,-1,-1,-1,-1,-1,-1,-1,-1,-1,-1,-1,-1,-1,-1,-1,-1,-1,-1,-1,-1,-1,-1,-1,-1,-1,-1,-1,-1,-1,-1,-1,-1,-1,-1,-1,-1,-1,-1,-1,-1,-1,-1,-1,-1,-1,-1,-1,-1,-1,-1,-1,-1,-1,-1,-1,-1,-1,-1,-1,-1,-1,-1,-1,-1,-1,-1,-1,-1,-1,-1,-1,-1,-1,-1,-1,-1,-1,-1,-1,-1,-1,-1,-1,-1,-1,-1,-1,-1,-1,-1,-1,-1,-1,-1,-1,-1,-1,-1,-1,-1,-1,-1,-1,-1,-1,-1,-1,-1,-1,-1,-1,-1,-1,-1,-1,-1,-1,-1,-1,-1,-1,-1,-1,-1,-1,-1,-1,-1,-1,-1,-1,-1,-1,-1,-1,-1,-1,-1,-1,-1,-1,-1,-1,-1,-1,-1,-1,-1,-1,-1,-1,-1,-1,-1,-1,-1,-1,-1,-1,-1,-1,-1,-1,-1,-1,-1,-1,-1,-1,-1,-1,-1,-1,-1,-1,-1,-1],"split_conditions":[5.549076E0,6.9527287E0,5.627621E0,6.3885612E0,6.3117347E0,5.5134287E0,5.6869755E0,6.505784E0,6.4473057E0,5.7462034E0,6.9127426E0,6.7381525E0,6.285998E0,8.773694E0,6.016157E0,6.9565454E0,6.3117347E0,7.714231E0,8.585973E0,5.57973E0,6.9527287E0,6.783325E0,8.927181E0,6.4630294E0,5.5012584E0,6.272877E0,9.653679E0,6.558198E0,5.587249E0,6.395262E0,5.5645204E0,5.3844953E0,7.2800083E0,6.6359468E0,6.6463904E0,6.7580943E0,5.3844953E0,7.6251073E0,5.3936276E0,6.8501263E0,7.426549E0,3.0392724E-1,7.2800083E0,9.421574E0,5.6489744E0,5.7071104E0,7.5832477E0,6.3561077E0,6.6554403E0,5.3844953E0,9.155039E0,5.8021183E0,7.6870804E0,8.196161E0,5.549076E0,5.6801724E0,6.7580943E0,7.003974E0,6.8501263E0,6.352629E0,8.847073E0,9.653679E0,7.493317E0,6.3733196E0,5.4380794E0,5.3565865E0,8.573384E0,6.263398E0,-1.732868E-1,5.4467373E0,5.525453E0,5.5012584E0,5.5412636E0,8.196161E0,6.3969297E0,7.2696166E0,5.5093884E0,7.857609E-2,6.423247E0,7.2442274E0,8.585973E0,5.5373344E0,6.272877E0,-1.732868E-1,5.5785894E-2,5.587249E0,-7.1920514E-2,8.733272E0,7.785305E0,8.536407E0,5.7807436E0,6.9527287E0,8.15823E0,6.2934194E0,5.4930615E0,6.265301E0,6.742881E0,6.650279E0,6.4583383E0,6.8405466E0,1.732868E-1,5.652489E0,7.785305E0,5.389072E0,5.609472E0,5.4380794E0,6.489205E0,7.3505163E0,7.091742E0,7.0817084E0,6.96319E0,5.42495E0,6.364751E0,6.5337887E0,7.7310534E0,5.6664267E0,7.570443E0,6.263398E0,6.3868794E0,8.733272E0,5.7807436E0,7.0335064E0,-1.732868E-1,5.598422E0,7.9665866E0,6.263398E0,7.2247534E0,5.5412636E0,5.5093884E0,-7.1920514E-2,5.4595857E0,5.484797E0,1.5204942E-1,-7.1920514E-2,6.2878585E0,6.464588E0,6.248043E0,5.521461E0,6.302619E0,-1.732868E-1,6.6200733E0,7.518064E0,-1.732868E-1,-1.732868E-1,2.0273256E-1,8.585973E0,-1.732868E-1,5.521461E0,5.529429E0,8.277158E0,7.1996784E0,5.484797E0,5.4071717E0,6.322565E0,6.248043E0,5.3844953E0,5.3752785E0,5.525453E0,6.35437E0,7.601902E0,-1.732868E-1,7.564757E0,5.602119E0,8.1365185E0,7.049255E0,6.161207E0,8.07278E0,7.872455E0,7.049255E0,6.946014E0,8.025844E0,7.0630484E0,7.614312E0,9.653679E0,0E0,6.248043E0,5.463832E0,6.272877E0,6.5750756E0,-7.1920514E-2,5.5093884E0,6.872128E0,6.902743E0,6.25575E0,8.509362E0,7.374629E0,6.946014E0,6.7661915E0,9.151757E0,5.488938E0,7.246368E0,7.115582E0,7.0121155E0,-7.1920514E-2,6.5971456E0,5.5785894E-2,7.9895606E0,5.7268476E0,6.324359E0,5.529429E0,7.100852E0,5.463832E0,1.732868E-1,2.618682E-1,6.50129E0,6.858565E0,8.32821E0,5.463832E0,7.049255E0,5.669881E0,5.652489E0,8.065266E0,7.709308E0,5.5683446E0,5.6489744E0,6.4167323E0,7.9146175E0,5.638355E0,-7.1920514E-2,5.6629605E0,7.6629376E0,6.8638034E0,6.263398E0,5.765191E0,-1.732868E-1,8.003697E0,6.2878585E0,6.9527287E0,6.263398E0,5.5053315E0,8.585973E0,8.308199E0,7.5678625E0,7.6241307E0,5.6970935E0,1.732868E-1,6.352629E0,2.916696E-1,0E0,-1.732868E-1,6.9527287E0,5.463832E0,5.5174527E0,1.732868E-1,6.3578424E0,7.570443E0,5.5373344E0,2.7551812E-1,-1.732868E-1,6.3189683E0,6.5806394E0,6.542472E0,2.5796166E-1,6.929517E0,-1.732868E-1,2.3869282E-1,6.329721E0,6.4052286E0,-1.732868E-1,6.902743E0,4.3729997E-1,-7.1920514E-2,0E0,7.21524E0,6.302619E0,6.9527287E0,6.6214056E0,6.5323343E0,5.46806E0,7.0647593E0,6.126869E0,6.4281054E0,6.558198E0,9.2650175E0,5.5053315E0,2.0117974E-1,7.147559E0,6.248043E0,6.302619E0,7.9871845E0,5.529429E0,0E0,-1.732868E-1,-7.1920514E-2,5.529429E0,-1.732868E-1,5.5785894E-2,8.797451E-1,0E0,7.2633295E0,6.437752E0,6.498282E0,7.785305E0,5.488938E0,8.108322E0,5.8784384E-1,-1.732868E-1,6.872128E0,2.0273256E-1,1.2063511E-1,0E0,7.5234814E0,5.3844953E0,8.847935E0,9.421574E0,-1.732868E-1,6.993933E0,8.108322E0,5.5373344E0,7.0121155E0,9.653679E0,5.549076E0,-1.732868E-1,3.7446654E-1,8.094684E0,2.0273256E-1,6.3350544E0,6.4052286E0,7.3543625E0,6.4952655E0,6.2822666E0,-1.732868E-1,7.1057863E0,6.5971456E0,-1.732868E-1,-1.732868E-1,7.426549E0,5.3082676E0,5.5093884E0,-1.732868E-1,6.322565E0,8.540714E0,8.722092E0,7.9377317E0,5.463832E0,6.879356E0,5.3936276E0,-1.732868E-1,6.7968235E0,7.601902E0,2.7465308E-1,9.2650175E0,5.521461E0,5.583496E0,7.6241307E0,6.4473057E0,6.8731637E0,5.42495E0,5.5451775E0,6.3421216E0,6.505784E0,5.556828E0,-1.732868E-1,6.2709885E0,7.023759E0,5.616771E0,5.4424176E0,5.4510384E0,5.8777356E0,5.5333896E0,7.3689704E0,6.3733196E0,-1.732868E-1,-1.732868E-1,5.609472E0,6.6883545E0,5.602119E0,7.5464463E0,5.602119E0,6.424869E0,6.629363E0,5.645447E0,5.605802E0,-1.732868E-1,5.5615586E-1,8.003697E0,7.2406497E0,5.669881E0,6.4769726E0,7.4006205E0,8.008366E0,3.465736E-1,8.825853E0,-1.732868E-1,6.997596E0,6.3117347E0,5.602119E0,-1.732868E-1,7.9871845E0,5.602119E0,5.605802E0,6.291569E0,6.9527287E0,5.5615586E-1,5.6312118E0,5.5785894E-2,0E0,0E0,-1.732868E-1,6.4861608E0,6.6541524E0,5.8230457E0,6.3117347E0,6.5117455E0,3.5998756E-1,5.6937323E0,5.755742E0,1.5204942E-1,5.799093E0,7.8913307E0,6.3279366E0,8.825853E0,6.0185933E0,8.094989E0,5.638355E0,5.6347895E0,5.9322453E0,8.642591E0,5.913503E0,7.9895606E0,6.6463904E0,-7.1920514E-2,1.732868E-1,1.3990393E-1,-1.732868E-1,1.0136628E-1,-7.1920514E-2,5.0862837E-1,-7.1920514E-2,-1.22603655E-1,2.0273256E-1,2.4869815E-1,-7.1920514E-2,-7.1920514E-2,5.5785894E-2,0E0,2.1590263E-1,-1.732868E-1,3.1319076E-1,0E0,4.5814538E-1,5.5785894E-2,-7.1920514E-2,0E0,2.9973692E-1,-7.1920514E-2,1.5204942E-1,1.8800968E-1,-7.1920514E-2,0E0,-1.732868E-1,-7.1920514E-2,-7.1920514E-2,-7.1920514E-2,0E0,0E0,3.465736E-1,-7.1920514E-2,-7.1920514E-2,-7.1920514E-2,3.3043897E-1,-7.1920514E-2,3.3043897E-1,-1.732868E-1,-7.1920514E-2,1.732868E-1,-7.1920514E-2,-1.732868E-1,-3.5960257E-2,-7.1920514E-2,0E0,-7.1920514E-2,1.732868E-1,-1.732868E-1,3.3043897E-1,-7.1920514E-2,1.2645012E-1,-1.732868E-1,-7.1920514E-2,-1.732868E-1,2.9466373E-1,3.8953614E-1,-1.732868E-1,0E0,-1.732868E-1,2.7892947E-2,-7.1920514E-2,0E0,5.5785894E-2,1.14536345E-1,2.9540122E-1,5.5785894E-2,-7.1920514E-2,0E0,1.0136628E-1,1.3990393E-1,1.3200659E-1,-1.732868E-1,-7.1920514E-2,-7.1920514E-2,5.5785894E-2,1.0136628E-1,-7.1920514E-2,1.0136628E-1,-1.732868E-1,2.9466373E-1,-1.22603655E-1,-1.732868E-1,1.8800968E-1,1.0136628E-1,-1.22603655E-1,-1.732868E-1,4.877466E-1,1.0136628E-1,-1.22603655E-1,2.5290024E-1,5.068314E-2,2.9466373E-1,-1.22603655E-1,2.5290024E-1,0E0,-1.732868E-1,-1.732868E-1,-1.732868E-1,2.4323876E-1,-1.732868E-1,1.0136628E-1,-1.732868E-1,5.4930615E-1,-8.66434E-2,-1.732868E-1,1.732868E-1,0E0,1.5659536E-1,1.3990393E-1,3.399171E-2,-1.732868E-1,-8.66434E-2,1.3990393E-1,0E0,2.0117974E-1,1.2925923E-1,-3.5960257E-2,-1.22603655E-1,8.66434E-2,5.5785894E-2,-7.1920514E-2,-7.1920514E-2,3.2533622E-1,-7.1920514E-2,-1.732868E-1,0E0,1.14536345E-1,1.2063511E-1,-7.1920514E-2,0E0,2.0273256E-1,-1.732868E-1,-7.1920514E-2,2.9466373E-1,0E0,-1.732868E-1,0E0,-1.732868E-1,-1.732868E-1,1.5434307E-1,-7.1920514E-2,2.0273256E-1,7.857609E-2,-1.732868E-1,1.2063511E-1,2.9466373E-1,-1.732868E-1,-8.66434E-2,1.8448833E-1,1.5204942E-1,-1.732868E-1,1.8800968E-1,5.5785894E-2,-1.732868E-1,1.3990393E-1,2.2907269E-1,0E0,-7.1920514E-2,-7.1920514E-2,-7.1920514E-2,1.3990393E-1,5.5785894E-2,0E0,-7.1920514E-2,2.0273256E-1,-7.1920514E-2,2.7378199E-1,-1.732868E-1,-7.1920514E-2,1.0136628E-1,-7.1920514E-2,-1.732868E-1,3.1319076E-1,1.3990393E-1,0E0,0E0,-7.1920514E-2,5.5785894E-2,0E0,-7.1920514E-2,-7.1920514E-2,5.5785894E-2,-7.1920514E-2,1.0136628E-1,-1.732868E-1,0E0,5.5785894E-2,-7.1920514E-2,0E0,0E0,0E0,-7.1920514E-2,-1.732868E-1,5.5785894E-2,-7.1920514E-2,-7.1920514E-2,1.3990393E-1,5.068314E-2,-7.1920514E-2,0E0,-7.1920514E-2,0E0,2.0273256E-1,2.0273256E-1,-7.1920514E-2,-1.22603655E-1,2.2907269E-1,1.3990393E-1,-1.732868E-1,2.1590263E-1,-7.1920514E-2,-1.732868E-1,1.3990393E-1,2.5081682E-1,-1.732868E-1,0E0,1.5659536E-1,7.1195304E-1,-1.732868E-1,0E0,3.465736E-1,0E0,-1.22603655E-1,-7.1920514E-2,5.5785894E-2,5.5785894E-2,-7.1920514E-2,5.5785894E-2,2.7892947E-2,1.5659536E-1,-3.5960257E-2,2.9466373E-1,-1.732868E-1,1.14536345E-1,-7.1920514E-2,1.0136628E-1,-7.1920514E-2,-7.1920514E-2,-1.732868E-1,-7.1920514E-2,1.3990393E-1,-7.1920514E-2,5.5785894E-2,5.5785894E-2,1.5204942E-1,-1.22603655E-1,1.2063511E-1,0E0,1.0136628E-1,1.2063511E-1,-7.1920514E-2,5.5785894E-2,0E0,0E0,0E0,5.5785894E-2,-1.22603655E-1,0E0,-7.1920514E-2,2.5290024E-1,-7.1920514E-2,0E0,-7.1920514E-2],"split_indices":[3,2,1,1,1,2,3,2,1,4,0,3,4,4,4,4,0,0,0,4,0,0,0,4,2,4,0,4,2,2,2,3,0,2,0,0,3,0,2,0,0,0,0,1,4,4,1,4,4,1,3,2,3,0,1,4,4,0,0,1,2,0,3,2,2,3,4,0,0,3,3,2,3,0,1,0,3,0,2,2,0,3,1,0,0,4,0,2,2,1,4,1,2,4,1,3,4,0,0,3,0,2,3,0,2,1,4,4,4,1,0,2,0,0,0,2,0,2,2,2,4,4,0,0,4,1,0,3,3,0,3,3,0,0,0,0,1,3,1,0,2,0,0,0,0,0,0,2,2,1,1,3,3,0,1,3,4,3,0,0,0,2,4,1,1,4,2,1,0,0,2,2,2,0,0,3,2,3,0,0,1,0,4,0,0,3,0,3,4,1,3,2,2,0,3,0,3,2,4,1,4,1,0,0,3,1,0,2,0,3,2,4,1,3,3,1,1,3,0,2,0,0,1,3,0,1,0,1,1,2,0,4,4,3,2,0,1,0,0,0,0,2,2,0,0,0,2,0,0,0,0,0,0,2,0,0,1,0,0,0,0,0,0,0,2,4,4,1,4,1,4,4,4,0,4,0,2,0,1,0,3,0,0,0,3,0,0,0,0,2,0,1,2,4,2,0,0,0,0,0,0,1,3,1,1,0,2,0,3,2,0,4,0,0,1,0,3,0,0,0,3,0,0,3,0,0,0,1,1,0,0,3,0,4,1,0,2,0,3,0,0,0,1,1,3,3,3,0,1,0,2,0,0,0,3,1,0,1,2,2,4,3,0,0,1,1,4,0,3,0,0,3,2,0,0,1,0,3,1,1,4,0,4,0,1,1,3,0,0,3,2,1,0,0,3,0,0,0,0,1,1,3,0,1,0,3,3,0,3,0,0,4,3,4,1,1,1,2,1,3,0,0,0,0,0,0,0,0,0,0,0,0,0,0,0,0,0,0,0,0,0,0,0,0,0,0,0,0,0,0,0,0,0,0,0,0,0,0,0,0,0,0,0,0,0,0,0,0,0,0,0,0,0,0,0,0,0,0,0,0,0,0,0,0,0,0,0,0,0,0,0,0,0,0,0,0,0,0,0,0,0,0,0,0,0,0,0,0,0,0,0,0,0,0,0,0,0,0,0,0,0,0,0,0,0,0,0,0,0,0,0,0,0,0,0,0,0,0,0,0,0,0,0,0,0,0,0,0,0,0,0,0,0,0,0,0,0,0,0,0,0,0,0,0,0,0,0,0,0,0,0,0,0,0,0,0,0,0,0,0,0,0,0,0,0,0,0,0,0,0,0,0,0,0,0,0,0,0,0,0,0,0,0,0,0,0,0,0,0,0,0,0,0,0,0,0,0,0,0,0,0,0,0,0,0,0,0,0,0,0,0,0,0,0,0,0,0,0,0,0,0,0,0,0,0,0,0,0,0,0,0,0,0,0,0,0,0,0,0,0,0,0,0,0,0,0,0,0,0,0,0,0,0,0,0,0,0,0,0,0,0,0,0,0,0,0,0,0,0],"split_type":[0,0,0,0,0,0,0,0,0,0,0,0,0,0,0,0,0,0,0,0,0,0,0,0,0,0,0,0,0,0,0,0,0,0,0,0,0,0,0,0,0,0,0,0,0,0,0,0,0,0,0,0,0,0,0,0,0,0,0,0,0,0,0,0,0,0,0,0,0,0,0,0,0,0,0,0,0,0,0,0,0,0,0,0,0,0,0,0,0,0,0,0,0,0,0,0,0,0,0,0,0,0,0,0,0,0,0,0,0,0,0,0,0,0,0,0,0,0,0,0,0,0,0,0,0,0,0,0,0,0,0,0,0,0,0,0,0,0,0,0,0,0,0,0,0,0,0,0,0,0,0,0,0,0,0,0,0,0,0,0,0,0,0,0,0,0,0,0,0,0,0,0,0,0,0,0,0,0,0,0,0,0,0,0,0,0,0,0,0,0,0,0,0,0,0,0,0,0,0,0,0,0,0,0,0,0,0,0,0,0,0,0,0,0,0,0,0,0,0,0,0,0,0,0,0,0,0,0,0,0,0,0,0,0,0,0,0,0,0,0,0,0,0,0,0,0,0,0,0,0,0,0,0,0,0,0,0,0,0,0,0,0,0,0,0,0,0,0,0,0,0,0,0,0,0,0,0,0,0,0,0,0,0,0,0,0,0,0,0,0,0,0,0,0,0,0,0,0,0,0,0,0,0,0,0,0,0,0,0,0,0,0,0,0,0,0,0,0,0,0,0,0,0,0,0,0,0,0,0,0,0,0,0,0,0,0,0,0,0,0,0,0,0,0,0,0,0,0,0,0,0,0,0,0,0,0,0,0,0,0,0,0,0,0,0,0,0,0,0,0,0,0,0,0,0,0,0,0,0,0,0,0,0,0,0,0,0,0,0,0,0,0,0,0,0,0,0,0,0,0,0,0,0,0,0,0,0,0,0,0,0,0,0,0,0,0,0,0,0,0,0,0,0,0,0,0,0,0,0,0,0,0,0,0,0,0,0,0,0,0,0,0,0,0,0,0,0,0,0,0,0,0,0,0,0,0,0,0,0,0,0,0,0,0,0,0,0,0,0,0,0,0,0,0,0,0,0,0,0,0,0,0,0,0,0,0,0,0,0,0,0,0,0,0,0,0,0,0,0,0,0,0,0,0,0,0,0,0,0,0,0,0,0,0,0,0,0,0,0,0,0,0,0,0,0,0,0,0,0,0,0,0,0,0,0,0,0,0,0,0,0,0,0,0,0,0,0,0,0,0,0,0,0,0,0,0,0,0,0,0,0,0,0,0,0,0,0,0,0,0,0,0,0,0,0,0,0,0,0,0,0,0,0,0,0,0,0,0,0,0,0,0,0,0,0,0,0,0,0,0,0,0,0,0,0,0,0,0,0,0,0,0,0,0,0,0,0,0,0,0,0,0,0,0,0,0,0,0,0,0,0,0,0,0,0,0,0,0,0,0,0,0,0,0,0,0,0,0,0,0,0,0,0,0,0,0,0,0,0,0,0,0,0,0,0,0,0,0,0,0,0,0,0,0,0,0,0,0,0,0,0,0,0,0,0,0,0,0,0],"sum_hessian":[3.8021E4,3.767E3,3.4254E4,2.59E3,1.177E3,9.255E3,2.4999E4,3.16E2,2.274E3,7.6E1,1.101E3,7.98E2,8.457E3,9.06E3,1.5939E4,2.15E2,1.01E2,1.17E2,2.157E3,6.5E1,1.1E1,5.48E2,5.53E2,3.04E2,4.94E2,3.53E2,8.104E3,8.908E3,1.52E2,1.364E3,1.4575E4,1.59E2,5.6E1,8E0,9.3E1,9.3E1,2.4E1,2.041E3,1.16E2,4E1,2.5E1,8E0,3E0,4.67E2,8.1E1,5.23E2,3E1,4.9E1,2.55E2,4.18E2,7.6E1,2.53E2,1E2,8.076E3,2.8E1,6.074E3,2.834E3,6.4E1,8.8E1,1.7E2,1.194E3,7.06E2,1.3869E4,2.4E1,1.35E2,3.5E1,2.1E1,4E0,4E0,2.3E1,7E1,4.4E1,4.9E1,2E0,2.2E1,1.72E3,3.21E2,4E0,1.12E2,2.2E1,1.8E1,2.1E1,4E0,2E0,1E0,4.63E2,4E0,6.2E1,1.9E1,4.27E2,9.6E1,2.1E1,9E0,2.6E1,2.3E1,4.7E1,2.08E2,7.9E1,3.39E2,7.5E1,1E0,1.36E2,1.17E2,8E1,2E1,7.642E3,4.34E2,1.2E1,1.6E1,3.187E3,2.887E3,5.2E2,2.314E3,3.8E1,2.6E1,3.8E1,5E1,1.5E1,1.55E2,1.16E3,3.4E1,7.01E2,5E0,1.1571E4,2.298E3,1.7E1,7E0,1.2E1,1.23E2,1E0,3.4E1,1.9E1,2E0,1E0,3E0,1.1E1,1.2E1,5.5E1,1.5E1,1.3E1,3.1E1,4.4E1,5E0,1E0,1E0,2E0,2E1,1.493E3,2.27E2,1.84E2,1.37E2,5.9E1,5.3E1,6E0,1.6E1,1.3E1,5E0,1.9E1,2E0,2E0,2E0,2.83E2,1.8E2,5.8E1,4E0,1.4E1,5E0,4E2,2.7E1,2.5E1,7.1E1,1.1E1,1E1,8E0,1E0,1E1,1.6E1,2E1,3E0,5E0,4.2E1,2.2E1,1.86E2,2.4E1,5.5E1,6.2E1,2.77E2,7E0,6.8E1,1.01E2,3.5E1,9.7E1,2E1,3E0,7.7E1,3E0,1.7E1,4.89E2,7.153E3,7.9E1,3.55E2,9E0,3E0,1E1,6E0,1.896E3,1.291E3,1.646E3,1.241E3,1E1,5.1E2,2.64E2,2.05E3,1.7E1,2.1E1,1.6E1,1E1,3.2E1,6E0,2.9E1,2.1E1,3E0,1.2E1,1.5E2,5E0,1.15E3,1E1,1.4E1,2E1,4.01E2,3E2,1.291E3,1.028E4,2.024E3,2.74E2,3E0,1.4E1,6E0,1E0,1E1,2E0,6.3E1,6E1,1.3E1,2.1E1,7E0,1.2E1,2E0,1E0,7E0,4E0,2E0,1E1,5.1E1,4E0,8E0,7E0,1.9E1,1.2E1,3.9E1,5E0,1E0,1E0,5.14E2,9.79E2,8.9E1,1.38E2,1.68E2,1.6E1,7.6E1,6.1E1,1.7E1,4.2E1,9E0,4.4E1,2E0,4E0,3E0,1.3E1,3E0,1E1,1E0,4E0,1.4E1,5E0,1E0,1E0,1E0,1E0,1.48E2,1.35E2,1.4E1,1.66E2,4.5E1,1.3E1,1E0,3E0,1.3E1,1E0,4E0,1E0,3.54E2,4.6E1,1.2E1,1.5E1,2E0,2.3E1,5.3E1,1.8E1,3E0,8E0,5E0,5E0,6E0,2E0,1E0,9E0,7E0,9E0,2E0,1.8E1,1E0,2E0,4.1E1,1E0,1.1E1,1.1E1,2.2E1,1.64E2,2E0,2.2E1,5E1,5E0,3.6E1,2.6E1,9.9E1,1.78E2,3E0,4E0,6.7E1,1E0,7E0,9.4E1,2.4E1,1.1E1,7.1E1,2.6E1,1.4E1,6E0,2.1E1,5.6E1,1E1,7E0,1.5E2,3.39E2,2.34E2,6.919E3,1.6E1,6.3E1,1.93E2,1.62E2,4E0,5E0,2E0,4E0,1.374E3,5.22E2,1.186E3,1.05E2,3.7E1,1.609E3,9.5E1,1.146E3,9E0,1E0,4.58E2,5.2E1,2.29E2,3.5E1,1.656E3,3.94E2,3E0,1.4E1,1.8E1,3E0,5E0,1.1E1,8E0,2E0,1.7E1,1.5E1,2.7E1,2E0,4E0,1.7E1,1E0,2E0,1E0,1.1E1,9.2E1,5.8E1,1.006E3,1.44E2,2E0,8E0,6E0,8E0,2E0,1.8E1,1.58E2,2.43E2,2.82E2,1.8E1,1.192E3,9.9E1,8.228E3,2.052E3,2.52E2,1.772E3,3E1,2.44E2,1.1E1,3E0,1E0,1E0,9E0,5.4E1,6E0,5.4E1,4E0,1.7E1,2E0,5E0,1.1E1,1E0,1E0,6E0,3E0,1E0,1E0,1E0,3.6E1,1.5E1,5E0,2E0,9E0,1E1,8E0,3.1E1,5E2,1.4E1,2.77E2,7.02E2,4.5E1,4.4E1,1.27E2,1.1E1,1.7E1,1.51E2,3E0,1.3E1,7.1E1,5E0,3.5E1,2.6E1,9E0,8E0,1.8E1,2.4E1,7E0,2E0,7E0,3.7E1,3E0,1E0,1E0,2E0,1E1,3E0,2E0,1E0,9E0,1E0,2E0,3E0,8.6E1,6.2E1,5.7E1,7.8E1,2E0,1.2E1,1.14E2,5.2E1,1.6E1,2.9E1,1.1E1,2E0,8E0,5E0,3.13E2,4.1E1,5E0,4.1E1,5E0,7E0,1.3E1,2E0,1E0,2.2E1,4.7E1,6E0,1.6E1,2E0,1E0,2E0,6E0,2E0,3E0,2E0,1E0,1E0,3E0,6E0,1E0,6E0,6E0,3E0,1E0,1E0,2E0,1.6E1,1E0,1E0,3E1,1.1E1,6E0,5E0,2E0,2E1,1.58E2,6E0,2E0,2E1,4.6E1,4E0,2E0,3E0,3E1,6E0,1.4E1,1.2E1,8.7E1,1.2E1,8E0,1.7E2,1E0,3E0,5.1E1,1.6E1,6E0,1E0,1.1E1,8.3E1,1.1E1,1.3E1,4E0,7E0,1.3E1,5.8E1,1.4E1,1.2E1,1E0,1.3E1,4E0,2E0,1E1,1.1E1,4.2E1,1.4E1,3E0,7E0,7E0,1.43E2,2.03E2,1.36E2,2.15E2,1.9E1,1.3E2,6.789E3,5E0,1.1E1,5.1E1,1.2E1,6E0,1.87E2,4.7E1,1.15E2,1E0,3E0,3E0,1E0,1.115E3,2.59E2,1.67E2,3.55E2,1.004E3,1.82E2,5.6E1,4.9E1,1.1E1,2.6E1,8.56E2,7.53E2,6.4E1,3.1E1,2.26E2,9.2E2,3.99E2,5.9E1,3.9E1,1.3E1,2.08E2,2.1E1,6E0,2.9E1,1.475E3,1.81E2,3.33E2,6.1E1,1E0,1.3E1,2E0,1E0,1E0,4E0,8E0,3E0,1E0,1E0,4E0,1.3E1,1E0,1.4E1,1E0,2.6E1,1E0,1E0,7E0,1E1,6E0,8.6E1,2.2E1,3.6E1,7.38E2,2.68E2,1.2E1,1.32E2,1E0,1E0,2E0,4E0,7E0,1E0,9E0,9E0,1.32E2,2.6E1,2E1,2.23E2,2.64E2,1.8E1,1E1,8E0,1.159E3,3.3E1,6E0,9.3E1,2.41E2,7.987E3,9.99E2,1.053E3,2.44E2,8E0,1.408E3,3.64E2,1.9E1,1.1E1,2.09E2,3.5E1],"tree_param":{"num_deleted":"0","num_feature":"5","num_nodes":"689","size_leaf_vector":"1"}},{"base_weights":[-3.5242755E-2,-8.83758E-2,-2.939717E-2,-1.4358647E-1,-4.9046323E-2,-6.017718E-2,-1.8E-2,-1.124031E-1,-2.877698E-1,-4.478976E-2,-6.666667E-1,-1.4518148E-1,-5.2139986E-2,-2.3301912E-2,3.4362767E-2,-1.0666667E-1,-5.625E-1,-5.9615386E-1,-2.1585903E-1,-5.196629E-2,2.4528302E-1,-7.8571427E-1,1.25E-1,-2.9126215E-1,-9.427609E-2,6.214689E-2,-5.7125233E-2,-2.087381E-2,-1.1754386E-1,4.888889E-2,-7.272727E-2,-7.0876285E-2,-1.62E-1,-7.692308E-1,2.5E-1,-6.666667E-1,-1.25E-1,5E-1,-2.4770643E-1,-2.5085518E-2,-1.7493473E-1,1.1363637E-1,8E-1,1.25E-1,-2.3076923E-1,1.6666667E-1,-3.0392158E-1,3.4285715E-1,-1.2142857E-1,-7.874016E-3,2.3762377E-1,-5.958354E-2,8.955224E-2,-2.4221288E-2,3.7437603E-2,-3.6E-1,-6.581741E-2,3.7806176E-2,1.891892E-1,2.5E-1,-1.2083333E-1,-9.054594E-2,5E-1,-1.3146552E-1,-5.405405E-1,-0E0,-2.2727273E-1,1.6666667E-1,-1.25E-1,-2.2222222E-1,-7.567568E-1,1.6666667E-1,-5E-1,1.6666667E-1,2E-1,-1.04347825E-1,-4.0384614E-1,-5.482304E-2,1.1146497E-1,-4.1791046E-1,-1.2302839E-1,5.3333336E-1,-1E-1,2.1875E-1,3.3333334E-1,-1.5277778E-1,-3.8345864E-1,8E-1,-0E0,3.6842105E-1,-1.3837638E-1,-6.341463E-2,2.2E-1,5.9375E-1,7.1428575E-2,-5.7542183E-2,-5.8064514E-1,-1.9417476E-2,4.375E-1,3.514377E-2,-2.7996546E-2,1.5289256E-1,8.324662E-3,-4.4285715E-1,-1.6129032E-1,1.037037E-1,-1.3353115E-1,-8.176101E-2,4.883721E-2,2.682927E-1,-1.923077E-1,-0E0,6.923077E-1,3.1578946E-1,-1.5765765E-1,-3.9426524E-2,-2.371134E-1,6.956522E-1,-1.875E-1,-1.6666667E-1,9.52381E-2,1.6666667E-1,-6.2857145E-1,-1.25E-1,1.25E-1,2.5E-1,-5E-1,-7.941176E-1,-2.5E-1,-1.875E-1,-0E0,1.6666667E-1,-2.5E-1,-1.826923E-1,5.833333E-1,-4.9425286E-1,5.5555556E-2,-2.672811E-2,-1.4005603E-1,1.5120275E-1,-3.75E-1,2E-1,-5.0793654E-1,-8.7248325E-2,-6.5E-1,-3.3333334E-1,6.923077E-1,-3.809524E-1,5E-1,1.25E-1,-0E0,-4.2424244E-1,7.5E-2,-1.9298245E-1,-5.194805E-1,-1.25E-1,2.3214285E-1,2.3529412E-1,-2E-1,2.2727273E-1,-3.3333334E-1,-8.0906145E-2,-2.1367522E-1,9.756097E-2,-3.0120483E-1,-1.875E-1,2.9787233E-1,-1.25E-1,8E-1,2.1052632E-1,-5E-1,-7.028077E-2,-2.5877193E-2,-2.3076923E-1,-3.1578946E-1,-8.6021505E-2,5.4545456E-1,2.3076923E-1,1E-1,4.9455155E-2,-2.5E-1,-7.192076E-2,-2.2119816E-2,4.2682927E-2,3.7974682E-1,-5.4347827E-3,3.0952382E-1,-1.25E-1,-5.9574467E-1,1.875E-1,-2.857143E-1,-2E-1,2.2916667E-1,-3.859649E-1,-8.1850536E-2,4E-1,-1.1333334E-1,3.6842105E-1,4.1592393E-2,-4.2857143E-1,3.0769232E-1,2E-1,-4.090909E-1,1.4285715E-1,-1.875E-1,2.0454545E-1,-0E0,5E-1,-1.6666667E-1,-1.14832535E-1,-7.8571427E-1,-8.9686096E-2,1.5929204E-1,-1.8644068E-1,-7.222222E-1,3E-1,2.3214285E-1,-6.329114E-2,-3.1325302E-1,3.25E-1,-2.9166666E-1,-7.586207E-1,-0E0,-1.25E-1,1.6666667E-1,-0E0,-1.875E-1,-6E-1,-2.25E-1,-1.6666667E-1,1.25E-1,1.25E-1,-1.25E-1,1.25E-1,-1.6666667E-1,1.5625E-2,-4.878049E-1,-2.5E-1,2.2222222E-1,-5.633803E-1,-1.764706E-1,3.5714287E-1,-2E-1,-5.1536173E-2,2.987013E-1,-2.8723404E-1,-8.712121E-2,1.1636364E-1,7.058824E-1,-6.875E-1,2.2222222E-1,-7.0454544E-1,-5E-2,-1.3333334E-1,3.448276E-1,1.25E-1,-7.368421E-1,-1.25E-1,-0E0,3.3333334E-1,2.1875E-1,2.5E-1,-5E-1,6.666667E-1,-1.25E-1,-7.692308E-1,-1.904762E-1,-4.6153846E-1,3.2142857E-1,-6.363636E-1,8.3333336E-2,-2.2916667E-1,-4.3939394E-1,-1.6666667E-1,4E-1,-2.0833333E-1,5E-1,-1.5040651E-1,1.875E-1,-5.869565E-1,-1.2169312E-1,-7.272727E-2,2.3188406E-1,-8.181818E-1,-2.1917808E-1,4.1666666E-1,-8.3333336E-2,1.6666667E-1,-5E-1,2.34375E-1,5E-1,-1.875E-1,2.777778E-1,1.25E-1,-6.1538464E-1,-1.2479201E-1,-5.5580456E-2,-3.1746033E-1,-1.758341E-2,3.75E-1,-7.5E-1,7.54717E-2,-2.9268292E-1,7E-1,-1.25E-1,3.5714287E-1,-4.2857143E-1,6.533575E-2,-1.4130434E-1,1.875E-1,-3.1578946E-1,-1.1231884E-1,-3.5274815E-2,-4.0196784E-2,-5.42816E-3,5E-1,-3.5460994E-2,-5.263158E-2,5.081967E-1,-1.9166666E-1,2.247191E-2,7.1428573E-1,1.0344828E-1,2.0833333E-1,-4.2105263E-1,1.25E-1,-6.304348E-1,-0E0,-5.714286E-1,1E-1,-4.7619048E-1,-1.25E-1,3.4246576E-1,-2.2727273E-1,-2.5531915E-1,-1.8987341E-1,5.645161E-2,-1.25E-1,5.555556E-1,-0E0,-3.2692307E-1,-1.5384616E-1,6.1538464E-1,4.712991E-2,-2.7586207E-1,3.3333334E-1,-2E-1,8.125E-1,2.254902E-1,2.5E-1,-5.263158E-1,-1.4285715E-1,6.25E-1,1.25E-1,-1.25E-1,-1.25E-1,6.1538464E-1,2.5E-1,-1.6666667E-1,-3.283582E-1,-1.3986014E-2,-2.25E-1,-4E-1,-1.27551025E-2,-9.090909E-2,6.5625E-2,-2.2058824E-2,-6.25E-2,4.8076924E-2,-2.0588236E-1,1.25E-1,1.5625E-1,-1.6666667E-1,3.1055901E-3,-5.5194806E-2,-8.8607594E-2,1.1111111E-1,2.6785715E-2,1.923077E-1,1.25E-1,-1.3157895E-1,1.25E-1,-2.0535715E-1,1.6666667E-1,-1E-1,1.25E-1,-1.25E-1,-2.25E-1,-0E0,-2.3148147E-2,1.3636364E-1,-1.5441176E-1,3.125E-2,-1.6666667E-1,1.25E-1,-1.6393442E-1,-0E0,1.0714286E-1,-1.3636364E-1,2.1428572E-1,-3.125E-2,-1.7361112E-2,4.391892E-2,1.08208954E-1,-1.3636364E-1,-1.3194445E-1,-3.3898305E-2,9.765625E-3,-5.109489E-2,1.419214E-2,1.0106383E-1,2.03125E-1,-1.25E-1,-7.1428575E-2,-2.25E-1,1.875E-1,-4.1666668E-2,-4.5454547E-2,-2.1323529E-1,1.4285715E-1,-8.928572E-2,-2.0833333E-1,-2.9245283E-2,1.25E-2,2.25E-1,-2.3333333E-1,-0E0,1.5E-1,-1.25E-1,-1.25E-1,1.6666667E-1,-2.1875E-1,-4.5454547E-2,6.25E-2,2.0833333E-1,1.25E-1,-2.2916667E-1,5.357143E-2,-2.1875E-1,1.25E-1,-1.4583333E-1,-1.875E-1,1.2E-1,-1.875E-1,8.3333336E-2,-2E-1,5.46875E-2,1.25E-1,-1.15384616E-1,-0E0,1.6666667E-1,-0E0,1.6666667E-1,-1.5789473E-1,-2.741228E-2,1.875E-1,-0E0,-1.891892E-1,2.5E-2,1.25E-1,-4.2613637E-2,-1E-1,4.8387095E-2,7.936508E-2,-1.4285715E-1,-0E0,-2.25E-1,-1.875E-1,-2.8225806E-2,1.5384616E-1,-2.2727273E-2,1.25E-1,-1.4285715E-1,-2E-1,1.25E-1,-1.25E-1,1.6666667E-1,4.6875E-2,2.1428572E-1,-0E0,-1.8181819E-1,-1.344086E-2,-4.6511628E-2,9.202454E-3,-1.673377E-2,-1.02678575E-1,9.375E-2,1.16071425E-1,-5.933364E-3,2E-1,-6.25E-2,-2.2727273E-1,1.25E-1,-4.8076924E-2,8.035714E-2,-2.2222222E-1,-3.0303031E-2,-0E0,2.1875E-1,-0E0,2.0833333E-1,-2E-1,8.3333336E-2,-1.6908212E-2,2.3995535E-2,1.1111111E-1,-7E-2,4.6875E-2,-1.25E-1,-1.8149883E-2,-6.175299E-2,-1.1904762E-2,7.386363E-2,-5.3427033E-3,-1.7828718E-2,2.2126816E-2,-3.5062265E-3,-1.6666667E-1,1.590909E-1,-3.0991735E-2,1.1904762E-1,-8.3333336E-2,2E-1,3.3333335E-2,1.5425532E-1,-2.0454545E-1,-3.181818E-2,2.3498695E-2,-1.0739856E-2,-1.25E-1,2.1153846E-1,-4.411765E-2,1.15384616E-1,-1.6071428E-1,4.1666668E-2,-2.2916667E-1,-1.2857144E-1,-1.25E-1,2.0833333E-1,-2.2222222E-1,-0E0,2.1428572E-1,-7.1428575E-2,4.1666668E-2,-1.71875E-1,-1.3636364E-1,5.357143E-2,3.0303031E-2,1.2804878E-1,1.875E-1,-8.522727E-2,-8.8785045E-2,3.846154E-2,4.347826E-2,-2.232143E-2,1.7857143E-1,-0E0,3.3333335E-2,-1E-1,-1.2162162E-1,1.5625E-2,-1.25E-1,1.875E-1,5.5555556E-2,1.9444445E-1,1.1060606E-2,2.0833333E-1,-1.75E-1,-1.25E-2,1.25E-1,-0E0,2.3214285E-1,-0E0,-1.5625E-1,7.368421E-2,1.6666667E-1,-1.25E-1,-2.1428572E-1,-7.692308E-2,-0E0,-1.6666667E-1,-0E0,2.0833333E-1,4.1666668E-2,2.1875E-1,-1.25E-1,1.6666667E-1,-2.4390243E-2,-1.6666667E-1,-1.0948905E-2,1.4285715E-1,1.25E-1,-1.875E-1],"categories":[],"categories_nodes":[],"categories_segments":[],"categories_sizes":[],"default_left":[0,0,0,0,0,0,0,0,0,0,0,0,0,0,0,0,0,0,0,0,0,0,0,0,0,0,0,0,0,0,0,0,0,0,0,0,0,0,0,0,0,0,0,0,0,0,0,0,0,0,0,0,0,0,0,0,0,0,0,0,0,0,0,0,0,0,0,0,0,0,0,0,0,0,0,0,0,0,0,0,0,0,0,0,0,0,0,0,0,0,0,0,0,0,0,0,0,0,0,0,0,0,0,0,0,0,0,0,0,0,0,0,0,0,0,0,0,0,0,0,0,0,0,0,0,0,0,0,0,0,0,0,0,0,0,0,0,0,0,0,0,0,0,0,0,0,0,0,0,0,0,0,0,0,0,0,0,0,0,0,0,0,0,0,0,0,0,0,0,0,0,0,0,0,0,0,0,0,0,0,0,0,0,0,0,0,0,0,0,0,0,0,0,0,0,0,0,0,0,0,0,0,0,0,0,0,0,0,0,0,0,0,0,0,0,0,0,0,0,0,0,0,0,0,0,0,0,0,0,0,0,0,0,0,0,0,0,0,0,0,0,0,0,0,0,0,0,0,0,0,0,0,0,0,0,0,0,0,0,0,0,0,0,0,0,0,0,0,0,0,0,0,0,0,0,0,0,0,0,0,0,0,0,0,0,0,0,0,0,0,0,0,0,0,0,0,0,0,0,0,0,0,0,0,0,0,0,0,0,0,0,0,0,0,0,0,0,0,0,0,0,0,0,0,0,0,0,0,0,0,0,0,0,0,0,0,0,0,0,0,0,0,0,0,0,0,0,0,0,0,0,0,0,0,0,0,0,0,0,0,0,0,0,0,0,0,0,0,0,0,0,0,0,0,0,0,0,0,0,0,0,0,0,0,0,0,0,0,0,0,0,0,0,0,0,0,0,0,0,0,0,0,0,0,0,0,0,0,0,0,0,0,0,0,0,0,0,0,0,0,0,0,0,0,0,0,0,0,0,0,0,0,0,0,0,0,0,0,0,0,0,0,0,0,0,0,0,0,0,0,0,0,0,0,0,0,0,0,0,0,0,0,0,0,0,0,0,0,0,0,0,0,0,0,0,0,0,0,0,0,0,0,0,0,0,0,0,0,0,0,0,0,0,0,0,0,0,0,0,0,0,0,0,0,0,0,0,0,0,0,0,0,0,0,0,0,0,0,0,0,0,0,0,0,0,0,0,0,0,0,0,0,0,0,0,0,0,0,0,0,0,0,0,0,0,0,0,0,0,0,0,0,0,0,0,0,0,0,0,0,0,0,0,0,0,0,0,0,0,0,0,0,0,0,0,0,0,0,0,0,0,0,0,0,0,0,0,0,0,0,0,0,0],"id":1,"left_children":[1,3,5,7,9,11,13,15,17,19,21,23,25,27,29,31,33,35,37,39,41,43,-1,45,47,49,51,53,55,57,59,61,63,65,67,69,71,73,75,77,79,81,83,-1,-1,-1,85,87,89,91,93,95,97,99,101,103,105,107,109,111,113,115,117,119,121,123,-1,-1,-1,125,127,-1,129,131,-1,133,135,137,139,141,143,145,147,-1,149,151,153,155,157,159,161,163,165,167,169,171,173,175,177,179,181,183,185,187,189,191,193,195,197,199,201,203,205,207,209,211,213,215,-1,217,219,-1,221,-1,-1,223,225,227,229,-1,231,-1,233,235,237,239,241,243,245,247,249,-1,251,253,255,257,259,261,263,-1,-1,265,267,269,271,-1,-1,273,-1,-1,275,277,279,281,283,-1,285,287,289,291,293,295,297,-1,299,301,303,-1,305,307,309,311,313,315,317,319,321,323,325,-1,327,329,331,333,335,337,339,341,343,345,347,-1,349,351,-1,-1,353,355,357,359,361,363,365,367,369,371,-1,373,375,377,379,381,383,-1,-1,385,-1,387,-1,-1,-1,-1,-1,-1,-1,389,391,393,-1,395,397,399,-1,401,403,405,407,409,411,413,415,417,419,421,423,-1,425,-1,-1,427,-1,429,431,433,-1,435,437,439,441,443,445,-1,447,-1,449,-1,451,453,455,457,459,461,463,465,467,469,471,-1,473,-1,475,-1,477,-1,479,481,483,485,487,489,491,493,495,497,-1,499,501,503,505,-1,507,509,511,513,515,517,519,521,523,525,527,529,531,-1,533,-1,535,537,539,541,543,545,547,-1,549,551,553,-1,555,557,559,561,563,565,567,569,-1,571,573,575,577,579,581,-1,-1,-1,583,585,-1,587,589,-1,591,-1,-1,-1,-1,-1,-1,-1,-1,-1,-1,-1,-1,-1,-1,-1,-1,-1,-1,-1,-1,-1,-1,-1,-1,-1,-1,-1,-1,-1,-1,-1,-1,-1,-1,-1,-1,-1,-1,-1,-1,-1,-1,-1,-1,-1,-1,-1,-1,-1,-1,-1,-1,-1,-1,-1,-1,-1,-1,-1,-1,-1,-1,-1,-1,-1,-1,-1,-1,-1,-1,-1,-1,-1,-1,-1,-1,-1,-1,-1,-1,-1,-1,-1,-1,-1,-1,-1,-1,-1,-1,-1,-1,-1,-1,-1,-1,-1,-1,-1,-1,-1,-1,-1,-1,-1,-1,-1,-1,-1,-1,-1,-1,-1,-1,-1,-1,-1,-1,-1,-1,-1,-1,-1,-1,-1,-1,-1,-1,-1,-1,-1,-1,-1,-1,-1,-1,-1,-1,-1,-1,-1,-1,-1,-1,-1,-1,-1,-1,-1,-1,-1,-1,-1,-1,-1,-1,-1,-1,-1,-1,-1,-1,-1,-1,-1,-1,-1,-1,-1,-1,-1,-1,-1,-1,-1,-1,-1,-1,-1,-1,-1,-1,-1,-1,-1,-1,-1,-1,-1,-1,-1,-1,-1,-1,-1,-1,-1,-1,-1,-1,-1,-1,-1,-1,-1,-1,-1,-1,-1,-1,-1,-1,-1,-1,-1,-1,-1,-1,-1,-1,-1,-1,-1,-1,-1,-1,-1,-1,-1,-1],"loss_changes":[1.1806797E1,8.174818E0,1.2015741E1,7.013073E0,5.759061E0,6.3160934E0,6.94137E0,3.2707157E0,6.036278E0,4.567541E0,2.476191E0,5.914139E0,4.8224773E0,5.1924267E0,3.5798872E0,2.5135298E0,2.879808E0,1.6442299E0,5.299054E0,7.056131E0,3.7795029E0,2.9340658E0,0E0,2.7007427E0,7.091968E0,4.351486E0,2.9278278E0,4.321186E0,7.124901E0,3.1415353E0,4.299621E0,8.758927E0,5.708208E0,1.3986015E0,1.5833334E0,1.6336327E0,2.7083335E0,8.666668E-1,4.8375664E0,7.1285315E0,4.7789726E0,3.9984853E0,5.8333397E-2,0E0,0E0,0E0,2.3938084E0,5.4857144E0,4.700033E0,3.228642E0,5.935422E0,8.446207E0,5.089208E0,4.6922283E0,4.03893E0,1.5750237E0,5.420414E0,2.48098E0,4.5179005E0,3.9807696E0,3.9085884E0,5.617477E0,6.880435E0,3.7186975E0,4.3510933E0,1E0,0E0,0E0,0E0,1.3055556E0,5.0198746E-1,0E0,7.5E-1,1.4166667E0,0E0,6.3023133E0,4.3468914E0,3.446896E0,6.126648E0,7.7524776E0,5.920349E0,2.2974362E0,5.2476187E0,0E0,1.6666666E-1,4.483838E0,3.3456364E0,2.9714289E0,4.1411767E0,7.511962E0,2.328186E0,7.876462E0,4.0002127E0,4.84375E0,5.669173E0,3.201723E0,2.5200481E0,3.9220645E0,5.151923E0,5.1215286E0,5.07868E0,6.034161E0,3.9843862E0,3.327279E0,3.7292626E0,5.189815E0,4.3648887E0,2.4637737E0,3.9670372E0,3.5089788E0,5.92028E0,2.6785715E0,1.1328673E0,1.7719301E0,5.88082E0,5.587317E0,4.6342154E0,1.8409939E0,0E0,6.0718584E0,5.6952376E0,0E0,2.861084E0,0E0,0E0,1.5833334E0,7.5E-1,1.5882301E-1,1.5833334E0,0E0,1E0,0E0,1.5833334E0,6.300568E0,3.2777777E0,1.8117485E0,4.930159E0,8.774896E0,2.7563057E0,5.541304E0,4.6319447E0,0E0,5.63694E0,5.9798193E0,2.3657894E0,1.6666666E-1,5.6089735E-1,1.7023809E0,2E0,0E0,0E0,2.5148191E0,5.4370885E0,7.036284E0,2.0465374E0,0E0,0E0,2.7921572E0,0E0,0E0,4.166667E0,5.792387E0,7.963008E0,2.8303227E0,3.340365E0,0E0,2.1631207E0,2.7083335E0,5.625E-1,3.8903508E0,1.9230771E0,4.531008E0,5.5082054E0,0E0,5.980263E0,3.1259098E0,2.1272728E0,0E0,2.8714287E0,3.6232765E0,4.184211E0,3.433587E0,5.237894E0,5.8785243E0,4.4143248E0,4.785654E0,3.4293928E0,7.160088E0,2.101759E0,0E0,2.2857144E0,3.3619046E0,3.894977E0,3.6635103E0,4.2088017E0,1.6777779E0,3.6310258E0,4.995952E0,2.9715624E0,2.2476192E0,4.671851E0,0E0,1.8313396E0,2.982143E0,0E0,0E0,1E0,1.9230771E0,1.4166667E0,4.495872E0,2.5714302E-1,4.705691E0,2.9099498E0,4.3089957E0,2.640523E0,3.5583334E0,0E0,2.8287244E0,5.336725E0,3.7887368E0,4.721491E0,2.7032032E0,2.1333334E0,0E0,0E0,1E0,0E0,2.7000003E0,0E0,0E0,0E0,0E0,0E0,0E0,0E0,3.7200654E0,3.339491E0,1.5833334E0,0E0,3.6942978E0,4.0290303E0,3.4821434E0,0E0,4.117792E0,8.954836E0,3.357204E0,3.9141521E0,4.6952057E0,2.5919113E0,1.1089287E0,1.9722223E0,3.2580204E0,4.0214286E0,2.993082E0,4.701725E0,0E0,2.7508783E0,0E0,0E0,1.6333334E0,0E0,1.5833334E0,1.9886365E0,4.1666698E-1,0E0,2.8910265E0,6.0059524E0,1.8141026E0,5.117143E0,2.674242E0,4.48125E0,0E0,1.6037302E0,0E0,1.5999999E0,0E0,3.3333337E-1,4.7551346E0,6.75E0,5.4413624E0,5.8146954E0,4.870381E0,4.924776E0,7.363639E-1,4.033473E0,3.6870632E0,3.7023811E0,0E0,2.2E0,0E0,2E0,0E0,2.663691E0,0E0,8.951049E-1,5.2196827E0,4.6833525E0,4.222223E0,6.5841017E0,2.325E0,2.840909E0,3.552509E0,4.0837646E0,1.2249999E0,0E0,2.3809528E0,2.2476192E0,4.4971514E0,7.598599E0,0E0,5.3782897E0,5.888376E0,4.990759E0,4.880769E0,7.2908964E0,4.242424E0,6.444104E0,4.8140354E0,2.4061842E0,4.737121E0,3.7525873E0,2.6648355E0,2.988298E0,0E0,2.58396E0,0E0,1.057869E0,6.666667E0,2.5396824E0,6.085715E0,2.9672618E0,3.5405846E0,2.6793013E0,0E0,4.2998066E0,9.029894E0,2.1382236E0,0E0,7.936511E-1,5.333333E0,3.2615643E0,4.4423075E0,1.4871798E0,3.7202313E0,2.7431037E0,1.6666666E-1,0E0,1.5089293E0,6.1913576E0,1.5833334E0,1.1104689E0,1.0476191E0,1.041667E0,0E0,0E0,0E0,1.3685894E0,1.5833334E0,0E0,5.166363E0,2.5205162E0,0E0,1.95E0,0E0,0E0,0E0,0E0,0E0,0E0,0E0,0E0,0E0,0E0,0E0,0E0,0E0,0E0,0E0,0E0,0E0,0E0,0E0,0E0,0E0,0E0,0E0,0E0,0E0,0E0,0E0,0E0,0E0,0E0,0E0,0E0,0E0,0E0,0E0,0E0,0E0,0E0,0E0,0E0,0E0,0E0,0E0,0E0,0E0,0E0,0E0,0E0,0E0,0E0,0E0,0E0,0E0,0E0,0E0,0E0,0E0,0E0,0E0,0E0,0E0,0E0,0E0,0E0,0E0,0E0,0E0,0E0,0E0,0E0,0E0,0E0,0E0,0E0,0E0,0E0,0E0,0E0,0E0,0E0,0E0,0E0,0E0,0E0,0E0,0E0,0E0,0E0,0E0,0E0,0E0,0E0,0E0,0E0,0E0,0E0,0E0,0E0,0E0,0E0,0E0,0E0,0E0,0E0,0E0,0E0,0E0,0E0,0E0,0E0,0E0,0E0,0E0,0E0,0E0,0E0,0E0,0E0,0E0,0E0,0E0,0E0,0E0,0E0,0E0,0E0,0E0,0E0,0E0,0E0,0E0,0E0,0E0,0E0,0E0,0E0,0E0,0E0,0E0,0E0,0E0,0E0,0E0,0E0,0E0,0E0,0E0,0E0,0E0,0E0,0E0,0E0,0E0,0E0,0E0,0E0,0E0,0E0,0E0,0E0,0E0,0E0,0E0,0E0,0E0,0E0,0E0,0E0,0E0,0E0,0E0,0E0,0E0,0E0,0E0,0E0,0E0,0E0,0E0,0E0,0E0,0E0,0E0,0E0,0E0,0E0,0E0,0E0,0E0,0E0,0E0,0E0,0E0,0E0,0E0,0E0,0E0,0E0,0E0,0E0,0E0,0E0,0E0,0E0,0E0,0E0,0E0,0E0,0E0,0E0,0E0,0E0,0E0,0E0,0E0,0E0,0E0,0E0,0E0,0E0,0E0,0E0,0E0,0E0,0E0,0E0,0E0,0E0,0E0,0E0],"parents":[2147483647,0,0,1,1,2,2,3,3,4,4,5,5,6,6,7,7,8,8,9,9,10,10,11,11,12,12,13,13,14,14,15,15,16,16,17,17,18,18,19,19,20,20,21,21,23,23,24,24,25,25,26,26,27,27,28,28,29,29,30,30,31,31,32,32,33,33,34,34,35,35,36,36,37,37,38,38,39,39,40,40,41,41,42,42,46,46,47,47,48,48,49,49,50,50,51,51,52,52,53,53,54,54,55,55,56,56,57,57,58,58,59,59,60,60,61,61,62,62,63,63,64,64,65,65,69,69,70,70,72,72,73,73,75,75,76,76,77,77,78,78,79,79,80,80,81,81,82,82,84,84,85,85,86,86,87,87,88,88,89,89,90,90,91,91,92,92,93,93,94,94,95,95,96,96,97,97,98,98,99,99,100,100,101,101,102,102,103,103,104,104,105,105,106,106,107,107,108,108,109,109,110,110,111,111,112,112,113,113,114,114,115,115,116,116,117,117,119,119,120,120,122,122,125,125,126,126,127,127,128,128,130,130,132,132,133,133,134,134,135,135,136,136,137,137,138,138,139,139,140,140,142,142,143,143,144,144,145,145,146,146,147,147,148,148,151,151,152,152,153,153,154,154,157,157,160,160,161,161,162,162,163,163,164,164,166,166,167,167,168,168,169,169,170,170,171,171,172,172,174,174,175,175,176,176,178,178,179,179,180,180,181,181,182,182,183,183,184,184,185,185,186,186,187,187,188,188,190,190,191,191,192,192,193,193,194,194,195,195,196,196,197,197,198,198,199,199,200,200,202,202,203,203,206,206,207,207,208,208,209,209,210,210,211,211,212,212,213,213,214,214,215,215,217,217,218,218,219,219,220,220,221,221,222,222,225,225,227,227,235,235,236,236,237,237,239,239,240,240,241,241,243,243,244,244,245,245,246,246,247,247,248,248,249,249,250,250,251,251,252,252,253,253,254,254,256,256,259,259,261,261,262,262,263,263,265,265,266,266,267,267,268,268,269,269,270,270,272,272,274,274,276,276,277,277,278,278,279,279,280,280,281,281,282,282,283,283,284,284,285,285,286,286,288,288,290,290,292,292,294,294,295,295,296,296,297,297,298,298,299,299,300,300,301,301,302,302,303,303,305,305,306,306,307,307,308,308,310,310,311,311,312,312,313,313,314,314,315,315,316,316,317,317,318,318,319,319,320,320,321,321,322,322,324,324,326,326,327,327,328,328,329,329,330,330,331,331,332,332,334,334,335,335,336,336,338,338,339,339,340,340,341,341,342,342,343,343,344,344,345,345,347,347,348,348,349,349,350,350,351,351,352,352,356,356,357,357,359,359,360,360,362,362],"right_children":[2,4,6,8,10,12,14,16,18,20,22,24,26,28,30,32,34,36,38,40,42,44,-1,46,48,50,52,54,56,58,60,62,64,66,68,70,72,74,76,78,80,82,84,-1,-1,-1,86,88,90,92,94,96,98,100,102,104,106,108,110,112,114,116,118,120,122,124,-1,-1,-1,126,128,-1,130,132,-1,134,136,138,140,142,144,146,148,-1,150,152,154,156,158,160,162,164,166,168,170,172,174,176,178,180,182,184,186,188,190,192,194,196,198,200,202,204,206,208,210,212,214,216,-1,218,220,-1,222,-1,-1,224,226,228,230,-1,232,-1,234,236,238,240,242,244,246,248,250,-1,252,254,256,258,260,262,264,-1,-1,266,268,270,272,-1,-1,274,-1,-1,276,278,280,282,284,-1,286,288,290,292,294,296,298,-1,300,302,304,-1,306,308,310,312,314,316,318,320,322,324,326,-1,328,330,332,334,336,338,340,342,344,346,348,-1,350,352,-1,-1,354,356,358,360,362,364,366,368,370,372,-1,374,376,378,380,382,384,-1,-1,386,-1,388,-1,-1,-1,-1,-1,-1,-1,390,392,394,-1,396,398,400,-1,402,404,406,408,410,412,414,416,418,420,422,424,-1,426,-1,-1,428,-1,430,432,434,-1,436,438,440,442,444,446,-1,448,-1,450,-1,452,454,456,458,460,462,464,466,468,470,472,-1,474,-1,476,-1,478,-1,480,482,484,486,488,490,492,494,496,498,-1,500,502,504,506,-1,508,510,512,514,516,518,520,522,524,526,528,530,532,-1,534,-1,536,538,540,542,544,546,548,-1,550,552,554,-1,556,558,560,562,564,566,568,570,-1,572,574,576,578,580,582,-1,-1,-1,584,586,-1,588,590,-1,592,-1,-1,-1,-1,-1,-1,-1,-1,-1,-1,-1,-1,-1,-1,-1,-1,-1,-1,-1,-1,-1,-1,-1,-1,-1,-1,-1,-1,-1,-1,-1,-1,-1,-1,-1,-1,-1,-1,-1,-1,-1,-1,-1,-1,-1,-1,-1,-1,-1,-1,-1,-1,-1,-1,-1,-1,-1,-1,-1,-1,-1,-1,-1,-1,-1,-1,-1,-1,-1,-1,-1,-1,-1,-1,-1,-1,-1,-1,-1,-1,-1,-1,-1,-1,-1,-1,-1,-1,-1,-1,-1,-1,-1,-1,-1,-1,-1,-1,-1,-1,-1,-1,-1,-1,-1,-1,-1,-1,-1,-1,-1,-1,-1,-1,-1,-1,-1,-1,-1,-1,-1,-1,-1,-1,-1,-1,-1,-1,-1,-1,-1,-1,-1,-1,-1,-1,-1,-1,-1,-1,-1,-1,-1,-1,-1,-1,-1,-1,-1,-1,-1,-1,-1,-1,-1,-1,-1,-1,-1,-1,-1,-1,-1,-1,-1,-1,-1,-1,-1,-1,-1,-1,-1,-1,-1,-1,-1,-1,-1,-1,-1,-1,-1,-1,-1,-1,-1,-1,-1,-1,-1,-1,-1,-1,-1,-1,-1,-1,-1,-1,-1,-1,-1,-1,-1,-1,-1,-1,-1,-1,-1,-1,-1,-1,-1,-1,-1,-1,-1,-1,-1,-1,-1,-1,-1,-1,-1,-1,-1,-1],"split_conditions":[5.549076E0,6.4052286E0,5.627621E0,6.272877E0,9.421574E0,5.5134287E0,7.493317E0,9.151757E0,6.302619E0,8.993054E0,8.452974E0,6.6025877E0,6.285998E0,8.773694E0,7.9665866E0,7.1196356E0,7.4091363E0,5.5373344E0,5.3082676E0,7.6251073E0,7.709308E0,6.489205E0,4.62873E-2,6.25575E0,6.6554403E0,6.272877E0,8.927181E0,8.410499E0,5.638355E0,7.6884556E0,5.645447E0,7.0958934E0,5.5412636E0,5.4380794E0,6.9527287E0,6.4907236E0,6.2822666E0,6.3969297E0,6.9565454E0,7.156956E0,7.761745E0,6.795706E0,5.771441E0,4.6592E-1,-1.299651E-1,3.9101693E-1,6.3561077E0,6.555357E0,6.2822666E0,7.21524E0,5.616771E0,8.847935E0,5.7807436E0,5.598422E0,5.609472E0,7.1196356E0,5.659482E0,5.638355E0,7.586296E0,8.573384E0,5.6970935E0,7.3505163E0,8.258423E0,7.785305E0,5.42495E0,6.3421216E0,-1.299651E-1,5.207831E-1,-6.2930465E-2,6.675823E0,5.7807436E0,1.2731043E-1,6.498282E0,6.542472E0,1.9143267E-1,5.7462034E0,5.5373344E0,6.934397E0,5.5412636E0,6.4567695E0,5.891644E0,6.263398E0,5.5134287E0,1.8967518E-1,9.151757E0,6.285998E0,6.931472E0,6.4707994E0,5.480639E0,7.1739583E0,6.9527287E0,6.464588E0,6.272877E0,6.5971456E0,7.759614E0,7.338888E0,6.951772E0,5.616771E0,6.7912216E0,8.308199E0,5.6970935E0,7.2855067E0,8.008366E0,8.914761E0,7.2145042E0,8.914761E0,5.7170277E0,6.302619E0,5.652489E0,5.655992E0,7.7310534E0,8.402231E0,8.443762E0,7.9895606E0,7.167038E0,6.9565454E0,6.980076E0,6.683361E0,-7.1920514E-2,6.934397E0,5.5134287E0,1.4242929E-1,7.5464463E0,-1.5530667E-1,1.299651E-1,6.371612E0,6.2822666E0,5.5053315E0,6.710523E0,-1.5530667E-1,7.1057863E0,3.3251894E-1,6.3117347E0,5.57973E0,6.322565E0,8.291296E0,6.3868794E0,6.8638034E0,6.710523E0,8.277158E0,5.5947113E0,1.1582504E-1,7.586296E0,5.5412636E0,6.248043E0,7.4860525E0,6.5722823E0,5.433722E0,7.430707E0,6.0340667E-1,0E0,5.4380794E0,6.5971456E0,6.4473057E0,5.3844953E0,-5.3940386E-2,1.8992385E-1,6.6093493E0,-9.195274E-2,2.0273256E-1,5.4722705E0,6.879356E0,7.167038E0,5.575949E0,6.5337887E0,-1.732868E-1,7.6241307E0,6.3421216E0,7.156956E0,5.389072E0,5.4071717E0,5.598422E0,5.389072E0,-1.5530667E-1,7.237778E0,6.991177E0,5.7268476E0,1.4024386E-1,7.0925736E0,7.3238306E0,5.638355E0,6.719013E0,5.6869755E0,6.3885612E0,5.587249E0,5.6489744E0,8.119101E0,6.43294E0,5.313206E0,1.7509705E-1,5.602119E0,5.7137327E0,5.6869755E0,6.418365E0,9.151757E0,5.556828E0,6.424869E0,6.4409466E0,8.585973E0,6.9527287E0,5.659482E0,1.0756311E-1,5.6664267E0,8.308199E0,-1.5530667E-1,2.0134747E-1,5.484797E0,7.6241307E0,5.655992E0,7.81682E0,8.359838E0,6.902743E0,7.185387E0,5.5373344E0,5.5451775E0,6.664409E0,2.618903E-1,8.203852E0,6.248043E0,5.488938E0,7.9871845E0,5.5012584E0,7.804251E0,-1.5530667E-1,2.8911185E-1,7.854769E0,-1.5530667E-1,5.4722705E0,-1.5530667E-1,-1.0462353E-1,1.7980129E-2,1.9126692E-1,-1.299651E-1,2.6986906E-1,-1.0462353E-1,5.525453E0,6.8638034E0,6.6463904E0,1.3861524E-1,5.525453E0,5.4595857E0,7.4838066E0,-1.4263588E-1,5.872118E0,5.6801724E0,6.7627296E0,7.2108183E0,5.525453E0,7.8172226E0,6.6476884E0,6.9077554E0,6.542472E0,5.5053315E0,6.2576675E0,8.257126E0,4.183942E-2,6.126869E0,-2.8598815E-2,0E0,6.5323343E0,1.5941086E-1,7.138073E0,5.5174527E0,6.496775E0,-2.166085E-1,6.3421216E0,5.488938E0,6.300786E0,6.381816E0,5.4930615E0,6.265301E0,-1.4263588E-1,6.2766433E0,-1.0689649E-1,6.6214056E0,-1.732868E-1,7.6884556E0,6.736967E0,6.934397E0,7.848153E0,7.21524E0,6.8885727E0,8.656781E0,5.5412636E0,5.5093884E0,8.070906E0,5.5947113E0,2.3664072E-1,5.583496E0,3.2901692E-1,7.2696166E0,-5.3940386E-2,7.337588E0,3.2675377E-1,5.497168E0,5.5683446E0,5.620401E0,7.9146175E0,5.3612924E0,6.966967E0,7.4012313E0,6.49224E0,7.133296E0,6.50129E0,-5.3940386E-2,7.9377317E0,7.8991537E0,6.391917E0,5.5134287E0,7.120749E-2,6.423247E0,6.9527287E0,8.402231E0,6.403574E0,5.8348107E0,6.3664703E0,5.598422E0,7.5832477E0,5.525453E0,6.331502E0,8.7904215E0,5.627621E0,6.812345E0,1.5204942E-1,7.601902E0,3.722114E-1,6.4769726E0,5.5645204E0,7.5464463E0,6.742881E0,6.2822666E0,9.151757E0,6.5722823E0,-7.1920514E-2,6.4861608E0,6.364751E0,6.3062754E0,-1.732868E-1,7.191429E0,7.0475173E0,7.4838066E0,7.5832477E0,7.759614E0,8.410499E0,5.8021183E0,6.2878585E0,-7.1920514E-2,6.951772E0,5.6664267E0,8.108322E0,5.739793E0,7.1204443E0,5.6347895E0,4.2618704E-1,-1.5530667E-1,-6.322506E-2,6.5206213E0,8.257126E0,-1.0462353E-1,7.6870804E0,6.8394766E0,-5.3940386E-2,5.765191E0,-2.8598815E-2,-1.299651E-1,5.5785894E-2,-5.068314E-2,-5.3940386E-2,3.6141872E-2,-7.1920514E-2,2.4782923E-1,7.376602E-2,-1.1361359E-1,0E0,-7.1920514E-2,-7.1920514E-2,1.9699974E-1,1.7980129E-2,1.5569487E-1,1.7980129E-2,-5.8435425E-2,1.732868E-1,-1.5530667E-1,2.6343134E-1,-9.195274E-2,1.5788406E-1,-1.5530667E-1,-7.1920514E-2,0E0,-5.3940386E-2,9.655622E-2,-1.5530667E-1,1.7980129E-2,-1.5530667E-1,2.2071269E-1,-1.5530667E-1,-6.866327E-2,3.8012356E-2,-9.195274E-2,3.0254602E-1,-1.299651E-1,-1.3946474E-2,1.7980129E-2,7.376602E-2,-1.299651E-1,-1.5530667E-1,-5.3940386E-2,1.7980129E-2,-5.3940386E-2,1.7980129E-2,1.3120289E-1,1.1456236E-1,-1.5530667E-1,-6.293045E-2,-1.5530667E-1,1.5788406E-1,-1.5530667E-1,-9.195274E-2,-1.299651E-1,4.5873076E-2,-5.3940386E-2,-1.299651E-1,-4.33217E-2,5.4363847E-2,2.8711727E-1,-1.3630049E-1,4.0064454E-2,6.402093E-2,-4.12696E-2,-5.3940386E-2,9.279221E-2,-1.299651E-1,-4.7604993E-2,9.6582234E-2,9.6582234E-2,2.2071269E-1,-1.4263588E-1,2.7151823E-2,-1.299651E-1,1.8322563E-1,-2.8598815E-2,-5.3940386E-2,8.756615E-2,-1.299651E-1,6.498255E-2,-5.3940386E-2,1.00755095E-1,3.484191E-1,-6.293045E-2,1.6248211E-2,1.5530667E-1,0E0,2.278164E-1,-1.299651E-1,-3.4975976E-2,5.5785894E-2,0E0,-1.4263588E-1,7.376602E-2,1.4468798E-1,-5.3940386E-2,-7.112384E-2,5.8932066E-2,7.120749E-2,-1.299651E-1,0E0,-1.299651E-1,-9.1564536E-2,-2.8598815E-2,2.0273256E-1,-1.4299408E-2,1.732868E-1,-1.00942805E-1,-1.299651E-1,2.9622194E-1,-2.2028923E-1,1.0959293E-1,4.183942E-2,2.656902E-1,-4.33217E-2,-1.299651E-1,0E0,-7.1920514E-2,0E0,-2.534157E-2,-8.586699E-2,1.7980129E-2,2.0273256E-1,0E0,1.5291464E-1,-5.3940386E-2,-1.5530667E-1,1.7980129E-2,-5.3940386E-2,1.1934641E-1,-1.5530667E-1,-4.12696E-2,1.6820267E-2,1.5788406E-1,1.3959482E-2,1.9409671E-1,-1.0462353E-1,1.6558544E-1,-4.8631042E-2,5.5785894E-2,1.3990393E-1,-7.1920514E-2,7.376602E-2,-1.5530667E-1,0E0,-7.1920514E-2,0E0,5.5785894E-2,0E0,-5.3940386E-2,4.183942E-2,0E0,-1.2957689E-1,2.2907269E-1,-6.293045E-2,1.8448831E-1,-7.1920514E-2,2.493115E-1,7.579228E-2,1.732868E-1,-1.732868E-1,-2.8598815E-2,4.183942E-2,-1.0459855E-2,-1.5530667E-1,1.3990393E-1,-7.1920514E-2,1.463166E-1,-1.299651E-1,3.0650914E-2,-1.299651E-1,-1.299651E-1,-1.299651E-1,7.719973E-2,-1.299651E-1,0E0,2.4793385E-1,-5.3940386E-2,5.5785894E-2,-1.732868E-1,-9.195274E-2,3.0650914E-2,5.5785894E-2,2.7378199E-1,1.3413796E-1,-5.3940386E-2,-1.5530667E-1,5.5785894E-2,5.5785894E-2,-7.1920514E-2,2.0273256E-1,8.351663E-2,5.5785894E-2,-8.586699E-2,-1.22603655E-1,0E0,-7.1920514E-2,1.732868E-1,0E0,1.3990393E-1,0E0,2.0273256E-1,-7.1920514E-2,-5.3940386E-2,1.0136628E-1,0E0,3.7601936E-1,6.5406024E-2,-7.1920514E-2,8.0592915E-2,2.2209945E-1,-1.732868E-1,-1.732868E-1,-1.5530667E-1,0E0,-1.4986846E-1,-2.6970193E-2,1.3990393E-1,1.10061735E-1,2.8334853E-1,-1.5530667E-1,2.854884E-1,0E0,-1.732868E-1,0E0,1.9511339E-1,4.0751627E-1,-1.5530667E-1],"split_indices":[3,2,1,2,1,2,3,0,2,0,0,4,4,4,4,1,4,3,3,0,1,2,0,0,4,4,0,0,3,4,1,1,3,2,1,1,2,1,0,0,0,1,4,0,0,0,4,3,3,0,2,0,2,0,2,1,2,1,2,4,2,4,4,0,2,1,0,0,0,0,4,0,1,0,0,4,3,0,3,2,4,1,3,0,0,4,3,0,2,4,0,0,3,3,3,3,4,1,4,4,1,1,4,4,1,4,2,4,2,2,4,4,3,3,0,4,1,0,0,0,3,0,0,0,0,0,2,4,0,0,0,0,2,4,1,0,2,0,2,1,4,0,2,3,1,2,1,4,1,0,0,2,3,4,1,0,0,3,0,0,1,0,0,1,0,0,3,0,0,0,1,2,0,0,4,3,2,0,3,3,1,3,3,1,3,2,4,0,2,0,3,3,3,0,4,0,0,4,0,0,1,0,1,4,0,0,0,3,1,3,0,4,4,3,2,0,0,1,2,2,0,2,0,0,0,0,0,3,0,0,0,0,0,0,0,3,0,0,0,3,3,0,0,4,4,1,2,3,2,1,1,1,4,1,0,0,4,0,0,1,0,1,4,2,0,0,1,0,0,1,3,0,0,0,4,0,4,4,0,4,0,3,3,1,1,0,1,0,1,0,0,0,2,0,0,2,2,4,1,3,3,3,3,3,0,4,3,3,0,0,3,0,4,4,4,4,2,4,2,4,0,2,1,0,0,0,1,2,0,1,1,4,1,0,0,0,0,0,0,2,0,0,3,0,2,0,0,2,1,2,1,0,1,0,0,0,0,3,0,3,0,0,1,0,0,0,0,0,0,0,0,0,0,0,0,0,0,0,0,0,0,0,0,0,0,0,0,0,0,0,0,0,0,0,0,0,0,0,0,0,0,0,0,0,0,0,0,0,0,0,0,0,0,0,0,0,0,0,0,0,0,0,0,0,0,0,0,0,0,0,0,0,0,0,0,0,0,0,0,0,0,0,0,0,0,0,0,0,0,0,0,0,0,0,0,0,0,0,0,0,0,0,0,0,0,0,0,0,0,0,0,0,0,0,0,0,0,0,0,0,0,0,0,0,0,0,0,0,0,0,0,0,0,0,0,0,0,0,0,0,0,0,0,0,0,0,0,0,0,0,0,0,0,0,0,0,0,0,0,0,0,0,0,0,0,0,0,0,0,0,0,0,0,0,0,0,0,0,0,0,0,0,0,0,0,0,0,0,0,0,0,0,0,0,0,0,0,0,0,0,0,0,0,0,0,0,0,0,0,0,0,0,0,0,0,0,0,0,0,0,0,0,0,0,0,0,0,0,0,0,0,0,0],"split_type":[0,0,0,0,0,0,0,0,0,0,0,0,0,0,0,0,0,0,0,0,0,0,0,0,0,0,0,0,0,0,0,0,0,0,0,0,0,0,0,0,0,0,0,0,0,0,0,0,0,0,0,0,0,0,0,0,0,0,0,0,0,0,0,0,0,0,0,0,0,0,0,0,0,0,0,0,0,0,0,0,0,0,0,0,0,0,0,0,0,0,0,0,0,0,0,0,0,0,0,0,0,0,0,0,0,0,0,0,0,0,0,0,0,0,0,0,0,0,0,0,0,0,0,0,0,0,0,0,0,0,0,0,0,0,0,0,0,0,0,0,0,0,0,0,0,0,0,0,0,0,0,0,0,0,0,0,0,0,0,0,0,0,0,0,0,0,0,0,0,0,0,0,0,0,0,0,0,0,0,0,0,0,0,0,0,0,0,0,0,0,0,0,0,0,0,0,0,0,0,0,0,0,0,0,0,0,0,0,0,0,0,0,0,0,0,0,0,0,0,0,0,0,0,0,0,0,0,0,0,0,0,0,0,0,0,0,0,0,0,0,0,0,0,0,0,0,0,0,0,0,0,0,0,0,0,0,0,0,0,0,0,0,0,0,0,0,0,0,0,0,0,0,0,0,0,0,0,0,0,0,0,0,0,0,0,0,0,0,0,0,0,0,0,0,0,0,0,0,0,0,0,0,0,0,0,0,0,0,0,0,0,0,0,0,0,0,0,0,0,0,0,0,0,0,0,0,0,0,0,0,0,0,0,0,0,0,0,0,0,0,0,0,0,0,0,0,0,0,0,0,0,0,0,0,0,0,0,0,0,0,0,0,0,0,0,0,0,0,0,0,0,0,0,0,0,0,0,0,0,0,0,0,0,0,0,0,0,0,0,0,0,0,0,0,0,0,0,0,0,0,0,0,0,0,0,0,0,0,0,0,0,0,0,0,0,0,0,0,0,0,0,0,0,0,0,0,0,0,0,0,0,0,0,0,0,0,0,0,0,0,0,0,0,0,0,0,0,0,0,0,0,0,0,0,0,0,0,0,0,0,0,0,0,0,0,0,0,0,0,0,0,0,0,0,0,0,0,0,0,0,0,0,0,0,0,0,0,0,0,0,0,0,0,0,0,0,0,0,0,0,0,0,0,0,0,0,0,0,0,0,0,0,0,0,0,0,0,0,0,0,0,0,0,0,0,0,0,0,0,0,0,0,0,0,0,0,0,0,0,0,0,0,0,0,0,0,0,0,0,0,0,0,0,0,0,0,0,0,0,0,0,0,0,0,0,0,0,0,0,0,0,0,0,0,0,0,0,0,0,0,0,0,0,0,0,0,0,0,0,0,0,0,0],"sum_hessian":[3.8021E4,3.767E3,3.4254E4,1.566E3,2.201E3,9.255E3,2.4999E4,1.289E3,2.77E2,2.187E3,1.4E1,7.98E2,8.457E3,2.2701E4,2.298E3,1.274E3,1.5E1,5.1E1,2.26E2,2.135E3,5.2E1,1.3E1,1E0,2.05E2,5.93E2,3.53E2,8.104E3,2.2132E4,5.69E2,2.024E3,2.74E2,7.75E2,4.99E2,1.2E1,3E0,4.4E1,7E0,9E0,2.17E2,1.753E3,3.82E2,4.3E1,9E0,1E0,1.2E1,2E0,2.03E2,3.4E1,5.59E2,2.53E2,1E2,7.971E3,1.33E2,2.0931E4,1.201E3,9.9E1,4.7E2,1.877E3,1.47E2,3.5E1,2.39E2,7.5E2,2.5E1,4.63E2,3.6E1,2E0,1E1,2E0,1E0,8E0,3.6E1,2E0,5E0,5E0,4E0,1.14E2,1.03E2,1.44E3,3.13E2,6.6E1,3.16E2,1.4E1,2.9E1,7E0,2E0,7.1E1,1.32E2,1.4E1,2E1,1.8E1,5.41E2,2.04E2,4.9E1,3.1E1,6.9E1,7.941E3,3E1,1.02E2,3.1E1,1.251E3,1.968E4,2.41E2,9.6E2,6.9E1,3E1,1.34E2,3.36E2,1.58E2,1.719E3,1.22E2,2.5E1,2.3E1,1.2E1,1.8E1,2.21E2,5.57E2,1.93E2,2.2E1,3E0,4.01E2,6.2E1,2E0,3.4E1,1E0,1E0,3E0,5E0,3.3E1,3E0,3E0,2E0,2E0,3E0,1.03E2,1.1E1,8.6E1,1.7E1,1.084E3,3.56E2,2.9E2,2.3E1,4E0,6.2E1,2.97E2,1.9E1,2E0,1.2E1,2E1,9E0,1E0,1E0,3.2E1,3.9E1,5.6E1,7.6E1,1E0,1.3E1,1.6E1,4E0,1E1,8E0,3.08E2,2.33E2,1.22E2,8.2E1,3E0,4.6E1,7E0,2.4E1,5.6E1,1.3E1,5.662E3,2.279E3,1.2E1,1.8E1,9.2E1,1E1,1.2E1,1.9E1,1.192E3,5.9E1,2.321E3,1.7359E4,1.63E2,7.8E1,9.19E2,4.1E1,2.3E1,4.6E1,3E0,2.7E1,3.9E1,9.5E1,5.6E1,2.8E2,9E0,1.49E2,3.7E1,1.682E3,6E0,1.16E2,4E0,2.1E1,2E1,3E0,1E1,2E0,1.3E1,5E0,2.08E2,1.3E1,4.45E2,1.12E2,1.76E2,1.7E1,9E0,1.3E1,2.36E2,1.65E2,3.9E1,2.3E1,2.8E1,6E0,1E0,2E0,2E0,3E0,1.4E1,1.9E1,2E0,1E0,1E0,1E0,1E0,2E0,6.3E1,4E1,3E0,8E0,7E1,1.6E1,1.3E1,4E0,1.008E3,7.6E1,9.3E1,2.63E2,2.74E2,1.6E1,1.5E1,8E0,4.3E1,1.9E1,2.69E2,2.8E1,1E0,1.8E1,1E0,1E0,5E0,7E0,3E0,1.7E1,8E0,1E0,1.2E1,2E1,1.2E1,2.7E1,2.1E1,3.5E1,1.1E1,6.5E1,2E0,1.4E1,5E0,3E0,2.45E2,6.3E1,4.5E1,1.88E2,5.4E1,6.8E1,1E1,7.2E1,3.5E1,1.1E1,2E0,5E0,1.5E1,9E0,3E0,5.3E1,1E0,1.2E1,1.201E3,4.461E3,6.2E1,2.217E3,7E0,1.1E1,5.2E1,4E1,9E0,1E0,1.3E1,6E0,1.101E3,9.1E1,3E0,5.6E1,1.103E3,1.218E3,8.333E3,9.026E3,2.3E1,1.4E2,1.8E1,6E1,1.19E2,8E2,1.3E1,2.8E1,5E0,1.8E1,1E0,4.5E1,1.4E1,1.3E1,1.9E1,2E1,2.3E1,7.2E1,1E1,4.6E1,1.57E2,1.23E2,1E0,8E0,9.8E1,5.1E1,1.2E1,2.5E1,1.654E3,2.8E1,2E0,4E0,1.5E1,1.01E2,3E0,1.8E1,1.3E1,7E0,1E0,1E0,1E0,1.2E1,3E0,2E0,6.6E1,1.42E2,9E0,4E0,3.91E2,5.4E1,7.9E1,3.3E1,1.51E2,2.5E1,1.6E1,1E0,7E0,2E0,1.6E2,7.6E1,1.57E2,8E0,2.7E1,1.2E1,5E0,1.8E1,1E0,2.7E1,2E0,4E0,1E0,1E0,9E0,5E0,5.3E1,1E1,3.3E1,7E0,2E0,1E0,6E1,1E1,6E0,1E1,6E0,7E0,9.35E2,7.3E1,6.6E1,1E1,3.5E1,5.8E1,1.27E2,1.36E2,2.28E2,4.6E1,1.5E1,1E0,6E0,9E0,3E0,5E0,1E1,3.3E1,6E0,1.3E1,5E0,2.64E2,1.9E1,9E0,1.4E1,4E0,4E0,1E0,1E0,2E0,7E0,1E1,3E0,5E0,1E0,1.1E1,1.3E1,7E0,1E0,1.1E1,3E0,2.4E1,1.9E1,2E0,4E0,3.1E1,1E0,6.4E1,6E0,8E0,1E0,2E0,1.8E1,2.27E2,1.5E1,4.8E1,3.6E1,9E0,1.3E1,1.75E2,2.4E1,3E1,6.2E1,6E0,1E0,9E0,1.1E1,6.1E1,2.5E1,1E1,5E0,6E0,4E0,1E0,1E0,8E0,4.7E1,6E0,2E0,1E1,5.57E2,6.44E2,4.88E2,3.973E3,5.5E1,7E0,2.7E1,2.19E3,4E0,3E0,1E1,1E0,2.5E1,2.7E1,8E0,3.2E1,2E0,7E0,8E0,5E0,4E0,2E0,2.06E2,8.95E2,1.7E1,7.4E1,1.5E1,4.1E1,8.53E2,2.5E2,1.175E3,4.3E1,5.193E3,3.14E3,7.56E2,8.27E3,2E0,2.1E1,1.2E2,2E1,1.4E1,4E0,1.4E1,4.6E1,1E1,1.09E2,3.82E2,4.18E2,1E0,1.2E1,1.6E1,1.2E1,1.3E1,5E0,1.1E1,3.4E1,9E0,5E0,8E0,5E0,6E0,1.3E1,5E0,1.5E1,1E1,1.3E1,3.2E1,4E1,3E0,4.3E1,1.06E2,5.1E1,6.8E1,5.5E1,6E0,2E0,7.4E1,2.4E1,3.6E1,1.5E1,9E0,3E0,8E0,1.7E1,1.649E3,5E0,9E0,1.9E1,1E0,1E0,1.3E1,2E0,7E0,9.4E1,2E0,1E0,6E0,1.2E1,1.1E1,2E0,2E0,5E0,5E0,7E0,1E0,2E0,4E1,2.6E1,1.36E2,6E0,1E0,3E0],"tree_param":{"num_deleted":"0","num_feature":"5","num_nodes":"593","size_leaf_vector":"1"}},{"base_weights":[-2.4196519E-2,-8.7579615E-2,-1.7223762E-2,-1.401021E-1,-4.137587E-2,-9.1533184E-2,-1.5277695E-2,-1.0310078E-1,-2.4050634E-1,-3.6126442E-2,-7.8571427E-1,3.0303031E-2,-1.6513762E-1,1.6666667E-1,-1.5966563E-2,-6.423174E-2,-1.6498993E-1,-5.769231E-1,-1.9858156E-1,-4.9919486E-2,1.6030534E-1,-2.3076923E-1,1.25E-1,-9.659091E-2,1.7419355E-1,-2.5E-1,-0E0,8.3333336E-2,6.315789E-1,-1.3017751E-1,-1.419804E-2,-1.5254238E-2,-2.0487805E-1,-1.3449024E-1,-5.405405E-1,-6.4444447E-1,-1.25E-1,-1.5430267E-1,-3.678161E-1,-8.166666E-2,7.5301207E-3,2.761905E-1,-2.962963E-1,-3.4E-1,-0E0,3.6144578E-1,-4.109589E-2,-4.0123457E-1,-1.2562814E-1,-1.0135135E-1,3.846154E-1,1.5957446E-1,-4E-1,-1.25E-1,7.222222E-1,-2.781955E-1,-7.733333E-2,-1.2586493E-2,-7.749078E-2,-5.2738335E-2,1.734694E-1,-1.452514E-1,-5.925926E-1,-1.6790123E-1,1.0526316E-1,1.6666667E-1,-6.2857145E-1,-2.2222222E-1,-7.297297E-1,1.6666667E-1,-5E-1,-1.12280704E-1,-3.773585E-1,-6.3414633E-1,-1.2765957E-1,-1.17514126E-1,1.898734E-2,3.6923078E-1,-3.1666666E-2,-4.4444445E-1,3.4020618E-1,-9.52381E-2,-2.1428572E-1,-4.1304347E-1,4E-1,-6.666667E-1,5.042017E-2,2.2950819E-1,6.956522E-1,2.1428572E-1,-1.9565217E-1,-4.9586776E-1,-1.1904762E-1,8.955224E-2,-2.3308271E-1,6.666667E-1,-1.5E-1,-0E0,5.555556E-1,5.6338027E-2,4.5833334E-1,-5E-1,1.25E-1,-0E0,8.125E-1,-1.1111111E-1,-4.6774194E-1,-4.6153846E-1,-3.264095E-2,9.28382E-2,-1.3845325E-2,-5.65046E-2,-3.773585E-1,-7.2727275E-1,-3.726708E-2,7E-1,1.1235955E-1,-2.6666668E-1,2.6666667E-2,2.5E-1,-7.083333E-1,-7.655502E-2,-2.6395938E-1,1.8867925E-1,-2E-1,-7.586207E-1,-0E0,2.5E-1,-5E-1,-5.833333E-1,-2.3214285E-1,-1.875E-1,-0E0,-2.1969697E-1,-1.9480519E-2,-9.375E-2,-7.7272725E-1,-3.75E-1,-2.361111E-1,-4.2424244E-1,5.3333336E-1,-1.2817553E-1,3.5E-1,6.3197024E-2,-2.2916667E-1,-1.3793103E-1,7.567568E-1,3.9473686E-1,-6.0390763E-2,2.5E-1,-2.0833333E-1,4.7761193E-1,3.2258064E-2,1.875E-1,-2.777778E-1,-2.8947368E-1,-2.2222222E-1,1.6666667E-1,-0E0,1.25E-1,-2.1875E-1,1.6867469E-1,-2.1621622E-1,2.7118644E-1,-1.6666667E-1,-0E0,7.619048E-1,-0E0,6.666667E-1,9.52381E-2,-4.2307693E-1,2.5E-1,-5.169492E-1,4.1666666E-1,-3.2258064E-1,-2.2727273E-1,2.3913044E-1,-3.2352942E-1,6.25E-2,2.1875E-1,-1.25E-1,5E-1,-1.9847329E-1,-3E-1,1.875E-1,2.1875E-1,4E-1,-2E-1,1.1940298E-1,5.9090906E-1,-1.6666667E-1,-7E-1,-0E0,-1.25E-1,1.25E-1,2.5E-1,2.3076923E-1,-2.857143E-1,2.5E-1,-2.4242425E-1,-7E-1,-0E0,-8.5714287E-1,6.25E-1,-4.8484847E-2,1.4473684E-1,-1.2162162E-1,-2.013714E-2,3.1682705E-3,-7.210884E-2,3.7037036E-1,-5E-2,-5.588235E-1,-2.2222222E-1,-0E0,-7.2769955E-2,2.2413793E-1,2.2222222E-1,-1.25E-1,2.5454545E-1,-1.14285715E-1,3.3333335E-2,-3.8157895E-1,1.6666667E-1,-3.181818E-1,-1.25E-1,1.6666667E-1,-7.826087E-1,1.25E-1,-1.1891892E-1,2.4E-1,-4.7297296E-1,-1.3709678E-1,3.0952382E-1,-2.5E-1,1.25E-1,-8.214286E-1,1.6666667E-1,-4E-1,-1.25E-1,1.6666667E-1,-0E0,-1.875E-1,-2.25E-1,-3.3333334E-1,1.25E-1,-1.25E-1,-2.578125E-1,2E-1,2.5E-1,-1.2612613E-1,-7E-1,1.7391305E-1,-8.5714287E-1,1.25E-1,-5E-1,1.6666667E-1,-1.6666667E-1,-6.875E-1,2.1875E-1,1.25E-1,-1.0927573E-1,-3.125E-1,-2.5E-1,4.7058824E-1,1.2145749E-2,6.086956E-1,-3.1111112E-1,1.875E-1,-2.2727273E-1,3.1578946E-1,-1.6666667E-1,2.1428572E-1,5E-1,-4E-1,5.625E-2,-1.0643564E-1,-1.25E-1,1.6666667E-1,-8.3333336E-2,5.8928573E-1,-6E-1,1.4814815E-1,1.25E-1,-5.4545456E-1,-5.185185E-1,2.5E-1,1.25E-1,-1.25E-1,2.638889E-1,-4.1666666E-1,-3.2352942E-1,1.875E-1,-7.1428575E-2,3.6956522E-1,1.25E-1,-1.25E-1,8.5E-1,-1.25E-1,3.75E-1,-2.3076923E-1,2.1875E-1,-1.25E-1,4.6153846E-1,-4.4444445E-1,-5.217391E-1,2.5E-1,-1.25E-1,1.6666667E-1,-4.090909E-1,-6.415094E-1,5.4545456E-1,-1.25E-1,1.875E-1,-4.642857E-1,-0E0,-2.0833333E-1,-9.52381E-2,5E-1,3.75E-1,-3.7894738E-1,4.117647E-1,-3.125E-1,-0E0,2.0833333E-1,-6.875E-1,-1.2931034E-1,-4.4444445E-1,1.25E-1,8.3333336E-2,7.777778E-1,6.1538464E-1,-0E0,-1.25E-1,6.666667E-1,-0E0,-2.1875E-1,-1.6666667E-1,1.6666667E-1,1.25E-1,-0E0,-6.0606062E-2,-7.058824E-1,6.666667E-1,-1.5384616E-1,-3.2258064E-1,1.6666667E-1,1.25E-1,-7.586207E-1,2E-1,-2.6666668E-1,-0E0,-2.3684211E-1,2.1428572E-1,-1.25E-1,7.874016E-3,-2.3376623E-1,1.9615385E-1,-1.5555556E-1,-4.857143E-1,2E-1,-9.386282E-2,-1.7377993E-2,-4.12318E-3,7.742782E-2,-1.3793103E-1,9.090909E-3,-3.75E-1,6.5E-1,-3.5714287E-1,5.714286E-1,-1.5384616E-1,-7.7272725E-1,1.25E-1,-1.25E-1,-5.899705E-3,-6.534091E-2,9.5744684E-2,-1.04166664E-1,-2E-1,8.82353E-2,-1E-1,1.3636364E-1,1.75E-1,-7.1428575E-2,-1.3425925E-1,-0E0,-4.8076924E-2,1.2068965E-1,5.5555556E-2,-1.6071428E-1,-2.3214285E-1,-1.25E-1,-1.2987013E-2,-1.09375E-1,-1.7857144E-2,1.4583333E-1,-7.446808E-2,-1.875E-1,-6.25E-2,4.5454547E-2,1.4705883E-1,2.8846154E-2,-1.5625E-1,1E-1,-2.375E-1,-1.1111111E-1,-1.875E-1,1.25E-1,1.25E-1,-1.25E-1,1.6666667E-1,-1.3461539E-1,9.375E-2,-7.438017E-2,2.1428572E-1,3.2894738E-2,-1.75E-1,-1.7156864E-2,-6.25E-2,-2.1428572E-1,-1.25E-1,9.7222224E-2,-2.3684211E-1,-0E0,-2.2222222E-1,-5.357143E-2,-2.0833333E-1,3.846154E-2,-0E0,-2.2916667E-1,1.6666667E-1,-4.1666668E-2,-1.3636364E-1,-2.5740026E-2,-1.3068181E-1,-1.3513514E-2,1.25E-1,-1.6666667E-1,-6.25E-2,1.6071428E-1,1.8382354E-2,-6.818182E-2,2.1052632E-1,-1E-1,-9.3023255E-2,1.6666667E-1,-7.5E-2,2.25E-1,1.5833333E-1,-1E-1,-0E0,-1.6666667E-1,1.75E-1,3.3112583E-3,-9.051724E-2,-1.5850144E-2,1.6666667E-1,-7.5E-2,1.875E-1,-0E0,-1.875E-1,-0E0,-3.846154E-2,1E-1,1.875E-1,-1E-1,1.25E-1,-1.75E-1,-9.52381E-2,-2.1428572E-1,-1.6666667E-1,1.25E-1,1.0326087E-1,-0E0,-1.75E-1,1.6666667E-1,-2.1875E-1,-3.7037037E-2,1.25E-1,-1.1111111E-1,2.1875E-1,6.410257E-2,2.361111E-1,-0E0,2.0833333E-1,-1.6666667E-1,-1.388889E-1,1E-1,-1.25E-1,1.4583333E-1,-2.1428572E-1,1.6666667E-1,-1.4772727E-1,1.25E-1,1.6666667E-1,-1.25E-1,-1.3829787E-1,-1.25E-2,-2.027027E-1,-5.882353E-2,1.75E-1,-1.25E-1,-1.5789473E-1,-2.5E-2,9.090909E-2,-1.4285715E-1,1.1111111E-1,-1.15384616E-1,2.2916667E-1,3.3333335E-2,-1.6666667E-1,2.0833333E-1,-4.385965E-2,-1.6666667E-1,1.5625E-1,5E-2,2.5E-2,-2.1428572E-1,-1.25E-1,6.25E-2,-1.9642857E-1,-0E0,2.0408163E-2,-6.985294E-2,-0E0,-2E-1,1.875E-1,-5.5555556E-2,2.1428572E-1,8.3333336E-2,-6.25E-2,2.25E-1,-1.15384616E-1,3.4883723E-2,-0E0,2.0588236E-1,1.25E-1,-1.25E-1,-1.25E-1,1.25E-1,-6E-2,1.1111111E-1,-2.03125E-1,1.25E-1,2E-1,-0E0,-2E-1,5.5555556E-2,-1.5625E-2,-1.40625E-1,-7.1428575E-2,-2.173913E-1,-1.5625E-1,3.125E-2,-1.25E-1,1.25E-1,-2.016129E-3,1.4285715E-1,-3.3088237E-2,-2.25E-1,3.652968E-2,1.1309524E-1,-8.783784E-2,1.6666667E-1,-7.692308E-2,-2.25E-1,1E-1,-9.090909E-2,-4.0528234E-2,9.7173145E-3,-3.9644674E-3,-4.5121953E-2,1.9749518E-2,-2.5196741E-3,1.4423077E-1,1.4925373E-2,-9.405941E-2,-1.4705882E-2,8.566978E-3,-2E-1,6.25E-2,-2E-1,-1.25E-1,1.8421052E-1,1E-1,-1.75E-1,-1.25E-1,2.0833333E-1,-1.25E-1,1.875E-1,1.25E-1,-2.1428572E-1],"categories":[],"categories_nodes":[],"categories_segments":[],"categories_sizes":[],"default_left":[0,0,0,0,0,0,0,0,0,0,0,0,0,0,0,0,0,0,0,0,0,0,0,0,0,0,0,0,0,0,0,0,0,0,0,0,0,0,0,0,0,0,0,0,0,0,0,0,0,0,0,0,0,0,0,0,0,0,0,0,0,0,0,0,0,0,0,0,0,0,0,0,0,0,0,0,0,0,0,0,0,0,0,0,0,0,0,0,0,0,0,0,0,0,0,0,0,0,0,0,0,0,0,0,0,0,0,0,0,0,0,0,0,0,0,0,0,0,0,0,0,0,0,0,0,0,0,0,0,0,0,0,0,0,0,0,0,0,0,0,0,0,0,0,0,0,0,0,0,0,0,0,0,0,0,0,0,0,0,0,0,0,0,0,0,0,0,0,0,0,0,0,0,0,0,0,0,0,0,0,0,0,0,0,0,0,0,0,0,0,0,0,0,0,0,0,0,0,0,0,0,0,0,0,0,0,0,0,0,0,0,0,0,0,0,0,0,0,0,0,0,0,0,0,0,0,0,0,0,0,0,0,0,0,0,0,0,0,0,0,0,0,0,0,0,0,0,0,0,0,0,0,0,0,0,0,0,0,0,0,0,0,0,0,0,0,0,0,0,0,0,0,0,0,0,0,0,0,0,0,0,0,0,0,0,0,0,0,0,0,0,0,0,0,0,0,0,0,0,0,0,0,0,0,0,0,0,0,0,0,0,0,0,0,0,0,0,0,0,0,0,0,0,0,0,0,0,0,0,0,0,0,0,0,0,0,0,0,0,0,0,0,0,0,0,0,0,0,0,0,0,0,0,0,0,0,0,0,0,0,0,0,0,0,0,0,0,0,0,0,0,0,0,0,0,0,0,0,0,0,0,0,0,0,0,0,0,0,0,0,0,0,0,0,0,0,0,0,0,0,0,0,0,0,0,0,0,0,0,0,0,0,0,0,0,0,0,0,0,0,0,0,0,0,0,0,0,0,0,0,0,0,0,0,0,0,0,0,0,0,0,0,0,0,0,0,0,0,0,0,0,0,0,0,0,0,0,0,0,0,0,0,0,0,0,0,0,0,0,0,0,0,0,0,0,0,0,0,0,0,0,0,0,0,0,0,0,0,0,0,0,0,0,0,0,0,0,0,0,0,0,0,0,0,0,0,0,0,0,0,0,0,0,0,0,0,0,0,0,0,0,0,0,0,0,0,0,0,0,0,0,0,0,0,0,0,0,0,0,0,0,0,0,0,0,0,0,0,0,0,0,0,0,0,0,0,0,0,0,0,0,0,0,0,0,0,0,0,0,0,0,0,0,0,0,0,0,0,0,0,0,0,0,0,0,0,0,0,0,0,0,0,0],"id":2,"left_children":[1,3,5,7,9,11,13,15,17,19,21,23,25,27,29,31,33,35,37,39,41,-1,-1,43,45,47,49,51,53,55,57,59,61,63,65,67,69,71,73,75,77,79,81,83,85,87,89,91,93,95,97,99,101,-1,103,105,107,109,111,113,115,117,119,121,123,-1,125,127,129,-1,131,133,135,137,139,141,143,145,147,149,151,153,-1,155,157,159,161,163,165,167,169,171,173,175,177,179,181,183,185,187,189,191,-1,193,195,197,199,201,203,205,207,209,211,213,215,217,219,221,223,225,227,229,231,233,-1,235,237,239,241,243,-1,-1,245,247,249,251,253,255,-1,257,259,261,263,265,267,269,271,273,275,277,-1,279,281,-1,283,285,-1,-1,287,-1,-1,289,291,293,-1,295,297,299,301,303,305,307,309,311,313,315,317,319,321,-1,-1,323,325,327,-1,-1,329,-1,331,333,-1,335,337,-1,-1,339,-1,341,343,345,347,349,351,353,355,357,359,361,363,365,367,369,371,-1,373,375,377,-1,-1,379,381,383,385,387,389,-1,-1,391,-1,393,395,397,399,401,403,-1,405,-1,407,-1,-1,409,-1,-1,411,-1,-1,413,-1,415,417,419,421,423,-1,425,-1,427,429,-1,431,433,435,437,439,441,443,445,-1,-1,447,-1,-1,449,451,453,455,-1,-1,457,459,461,463,465,467,469,471,-1,-1,473,475,477,-1,479,481,-1,-1,483,-1,485,487,-1,-1,489,491,493,495,-1,-1,497,499,501,-1,-1,503,505,-1,507,509,511,513,515,517,519,-1,521,523,525,-1,527,529,531,533,-1,535,537,-1,-1,-1,-1,539,541,543,545,547,549,-1,-1,551,-1,553,555,-1,-1,-1,557,559,561,563,565,567,569,571,573,575,577,579,581,583,585,587,589,591,-1,-1,-1,-1,-1,-1,-1,-1,-1,-1,-1,-1,-1,-1,-1,-1,-1,-1,-1,-1,-1,-1,-1,-1,-1,-1,-1,-1,-1,-1,-1,-1,-1,-1,-1,-1,-1,-1,-1,-1,-1,-1,-1,-1,-1,-1,-1,-1,-1,-1,-1,-1,-1,-1,-1,-1,-1,-1,-1,-1,-1,-1,-1,-1,-1,-1,-1,-1,-1,-1,-1,-1,-1,-1,-1,-1,-1,-1,-1,-1,-1,-1,-1,-1,-1,-1,-1,-1,-1,-1,-1,-1,-1,-1,-1,-1,-1,-1,-1,-1,-1,-1,-1,-1,-1,-1,-1,-1,-1,-1,-1,-1,-1,-1,-1,-1,-1,-1,-1,-1,-1,-1,-1,-1,-1,-1,-1,-1,-1,-1,-1,-1,-1,-1,-1,-1,-1,-1,-1,-1,-1,-1,-1,-1,-1,-1,-1,-1,-1,-1,-1,-1,-1,-1,-1,-1,-1,-1,-1,-1,-1,-1,-1,-1,-1,-1,-1,-1,-1,-1,-1,-1,-1,-1,-1,-1,-1,-1,-1,-1,-1,-1,-1,-1,-1,-1,-1,-1,-1,-1,-1,-1,-1,-1,-1,-1,-1,-1,-1,-1,-1,-1,-1,-1,-1,-1,-1,-1,-1,-1,-1,-1,-1,-1,-1,-1,-1,-1,-1,-1],"loss_changes":[1.6802502E1,9.13814E0,4.952259E0,6.52491E0,7.809764E0,7.8427615E0,4.1866207E0,3.0925894E0,6.5708237E0,5.4078207E0,2.9340658E0,6.0422406E0,7.6376143E0,4.828947E0,6.715559E0,5.4663477E0,5.6200294E0,1.506197E0,3.1130028E0,3.3984723E0,7.013482E0,0E0,0E0,4.137954E0,6.263436E0,6.720951E0,7.289501E0,4.0436172E0,2.3099418E0,3.9441843E0,3.339601E0,4.182888E0,4.65314E0,3.7104673E0,4.3510933E0,1.4582577E0,2.7083335E0,3.116413E0,5.4836464E0,4.33206E0,9.425554E0,4.995059E0,2.9629636E0,2.867826E0,4.302521E0,3.5001764E0,2.9232965E0,4.2670574E0,4.6221743E0,5.6297297E0,2.5641022E0,2.8734024E0,1.5999999E0,0E0,1.1736107E0,4.1601725E0,6.4240766E0,4.2399735E0,5.094949E0,5.1177926E0,3.0746162E0,3.7434642E0,2.8101854E0,3.5334845E0,4.4552135E0,0E0,2.861084E0,1.3055556E0,5.3539276E-1,0E0,7.5E-1,2.836671E0,5.8704443E0,2.942751E0,9.440103E0,4.4560137E0,3.4812589E0,1.2879373E1,7.372672E0,2.6388893E0,4.089037E0,3.4484127E0,0E0,2.4474955E0,5.3333336E-1,2.625E0,3.7886546E0,2.4592018E0,1.0600414E0,2.7142859E0,3.0834532E0,2.0318336E0,4.7139015E0,3.229485E0,3.5759068E0,2.625E0,4.5103054E0,3.15E0,9.916668E-1,3.9298718E0,3.9734855E0,1.4000001E0,0E0,1E0,7.644234E-1,4.611111E0,3.0748787E0,7.120879E0,3.541707E0,4.2136784E0,3.3787704E0,5.0957747E0,3.1204777E0,1.2929292E0,4.498854E0,2.711111E0,2.8971837E0,3.6324563E0,3.6739395E0,1.5833334E0,2.54529E0,2.831336E0,5.1588106E0,2.887017E0,0E0,2.7032032E0,2.1333334E0,1.5833334E0,7.5E-1,1.6000004E0,0E0,0E0,1E0,5.3366003E0,4.457324E0,5.314402E0,2.7922077E0,3.4583335E0,0E0,2.123106E0,1.9833331E0,2.98273E0,1.5647056E0,7.4838266E0,4.0847225E0,1.0433922E1,5.858431E0,3.3789477E0,3.0296965E0,1.5833334E0,0E0,4.2461824E0,2.3603346E0,0E0,2.0088387E0,4.8250484E0,0E0,0E0,1E0,0E0,0E0,4.735777E0,4.079094E0,2.0150547E0,0E0,1E0,2.7595234E0,1.8173077E0,2.625E0,4.356532E0,1.8570232E0,1.5833334E0,1.322876E0,1.6893942E0,5.059909E0,3.0303035E0,4.0600424E0,4.0906353E0,4.319853E0,0E0,0E0,1.666667E0,4.34185E0,1.3777777E0,0E0,0E0,2.327778E0,0E0,3.9678533E0,2.151516E0,0E0,1.2249999E0,2.6666667E0,0E0,0E0,2.5E-1,0E0,4.5918007E0,4.141026E0,2.6197457E0,2.4896555E0,4.266667E0,1.6240597E0,2.5178576E0,3.4477828E0,4.724314E0,8.762548E0,4.6855717E0,4.61464E0,3.9296417E0,5.871296E0,4.0214286E0,2.8264093E0,0E0,1E0,3.9442859E0,6.0631566E0,0E0,0E0,5.989305E0,6.8155847E0,6.5809526E0,4.5082846E0,6.220159E0,4.002887E0,0E0,0E0,4.8447227E-1,0E0,3.9243684E0,2.7147622E0,3.3661594E0,4.510264E0,2.2046971E0,3.175E0,0E0,9.349232E-1,0E0,1.95E0,0E0,0E0,1E0,0E0,0E0,3.4358978E0,0E0,0E0,3.3279305E0,0E0,3.0507522E0,3.6146264E0,4.9285746E-1,3.52657E0,1.6240597E0,0E0,2.2539682E0,0E0,3.9743595E0,2.520834E0,0E0,1.375E0,2.111824E0,4.3183365E0,1.5833334E0,2.2710087E0,4.3392315E0,5.7519455E0,2.9312663E0,0E0,0E0,7.105263E0,0E0,0E0,4.333334E0,5.3333336E-1,4.4202404E0,4.421528E0,0E0,0E0,2.15E0,5.3035717E0,4.5000005E-1,2.1151E0,2.925E0,2.1272728E0,9.312172E-1,3.0833335E0,0E0,0E0,2.8339372E0,4.1500006E0,3.1587691E0,0E0,3.2063491E0,2.4064937E0,0E0,0E0,1.6055555E0,0E0,4.3750005E0,2.8854702E0,0E0,0E0,1.8141026E0,4.6984134E0,1.9209485E0,1.5833334E0,0E0,0E0,3.3875237E0,3.4541798E0,2.1272728E0,0E0,0E0,1.6432333E0,3.74026E0,0E0,4.356532E0,3.8500004E0,4.3750005E0,5.445614E0,6.4264727E-1,3.6803575E0,7.5E-1,0E0,1.0803576E0,3.6956987E0,1.4222223E0,0E0,2.6111112E0,3.1746387E-2,3.4269233E0,3.60644E0,0E0,2.1960793E0,1E0,0E0,0E0,0E0,0E0,1E0,3.0965657E0,2.5919113E0,1.0666666E0,3.3367522E0,1.8991935E0,0E0,0E0,1.273077E0,0E0,2.1833334E0,1E0,0E0,0E0,0E0,2.2860954E0,5.0833845E0,3.267192E0,7.4786787E0,2.3043957E0,4.654546E0,7.534313E0,5.5045385E0,3.8427238E0,6.7124705E0,7.6317153E0,6.7496743E0,2.325E0,2.3657894E0,3.9142861E0,2.3809526E0,4.4423075E0,2.7922077E0,0E0,0E0,0E0,0E0,0E0,0E0,0E0,0E0,0E0,0E0,0E0,0E0,0E0,0E0,0E0,0E0,0E0,0E0,0E0,0E0,0E0,0E0,0E0,0E0,0E0,0E0,0E0,0E0,0E0,0E0,0E0,0E0,0E0,0E0,0E0,0E0,0E0,0E0,0E0,0E0,0E0,0E0,0E0,0E0,0E0,0E0,0E0,0E0,0E0,0E0,0E0,0E0,0E0,0E0,0E0,0E0,0E0,0E0,0E0,0E0,0E0,0E0,0E0,0E0,0E0,0E0,0E0,0E0,0E0,0E0,0E0,0E0,0E0,0E0,0E0,0E0,0E0,0E0,0E0,0E0,0E0,0E0,0E0,0E0,0E0,0E0,0E0,0E0,0E0,0E0,0E0,0E0,0E0,0E0,0E0,0E0,0E0,0E0,0E0,0E0,0E0,0E0,0E0,0E0,0E0,0E0,0E0,0E0,0E0,0E0,0E0,0E0,0E0,0E0,0E0,0E0,0E0,0E0,0E0,0E0,0E0,0E0,0E0,0E0,0E0,0E0,0E0,0E0,0E0,0E0,0E0,0E0,0E0,0E0,0E0,0E0,0E0,0E0,0E0,0E0,0E0,0E0,0E0,0E0,0E0,0E0,0E0,0E0,0E0,0E0,0E0,0E0,0E0,0E0,0E0,0E0,0E0,0E0,0E0,0E0,0E0,0E0,0E0,0E0,0E0,0E0,0E0,0E0,0E0,0E0,0E0,0E0,0E0,0E0,0E0,0E0,0E0,0E0,0E0,0E0,0E0,0E0,0E0,0E0,0E0,0E0,0E0,0E0,0E0,0E0,0E0,0E0,0E0,0E0,0E0,0E0,0E0,0E0,0E0,0E0,0E0,0E0,0E0,0E0,0E0,0E0,0E0,0E0,0E0,0E0,0E0,0E0,0E0,0E0,0E0,0E0,0E0,0E0,0E0,0E0],"parents":[2147483647,0,0,1,1,2,2,3,3,4,4,5,5,6,6,7,7,8,8,9,9,10,10,11,11,12,12,13,13,14,14,15,15,16,16,17,17,18,18,19,19,20,20,23,23,24,24,25,25,26,26,27,27,28,28,29,29,30,30,31,31,32,32,33,33,34,34,35,35,36,36,37,37,38,38,39,39,40,40,41,41,42,42,43,43,44,44,45,45,46,46,47,47,48,48,49,49,50,50,51,51,52,52,54,54,55,55,56,56,57,57,58,58,59,59,60,60,61,61,62,62,63,63,64,64,66,66,67,67,68,68,70,70,71,71,72,72,73,73,74,74,75,75,76,76,77,77,78,78,79,79,80,80,81,81,83,83,84,84,85,85,86,86,87,87,88,88,89,89,90,90,91,91,92,92,93,93,94,94,95,95,96,96,97,97,98,98,99,99,100,100,101,101,103,103,104,104,105,105,106,106,107,107,108,108,109,109,110,110,111,111,112,112,113,113,114,114,115,115,116,116,117,117,118,118,119,119,120,120,121,121,122,122,123,123,125,125,126,126,127,127,128,128,129,129,132,132,133,133,134,134,135,135,136,136,137,137,139,139,140,140,141,141,142,142,143,143,144,144,145,145,146,146,147,147,148,148,149,149,151,151,152,152,154,154,155,155,158,158,161,161,162,162,163,163,165,165,166,166,167,167,168,168,169,169,170,170,171,171,172,172,173,173,174,174,175,175,176,176,177,177,178,178,181,181,182,182,183,183,186,186,188,188,189,189,191,191,192,192,195,195,197,197,198,198,199,199,200,200,201,201,202,202,203,203,204,204,205,205,206,206,207,207,208,208,209,209,210,210,211,211,212,212,214,214,215,215,216,216,219,219,220,220,221,221,222,222,223,223,224,224,227,227,229,229,230,230,231,231,232,232,233,233,234,234,236,236,238,238,241,241,244,244,247,247,249,249,250,250,251,251,252,252,253,253,255,255,257,257,258,258,260,260,261,261,262,262,263,263,264,264,265,265,266,266,267,267,270,270,273,273,274,274,275,275,276,276,279,279,280,280,281,281,282,282,283,283,284,284,285,285,286,286,289,289,290,290,291,291,293,293,294,294,297,297,299,299,300,300,303,303,304,304,305,305,306,306,309,309,310,310,311,311,314,314,315,315,317,317,318,318,319,319,320,320,321,321,322,322,323,323,325,325,326,326,327,327,329,329,330,330,331,331,332,332,334,334,335,335,340,340,341,341,342,342,343,343,344,344,345,345,348,348,350,350,351,351,355,355,356,356,357,357,358,358,359,359,360,360,361,361,362,362,363,363,364,364,365,365,366,366,367,367,368,368,369,369,370,370,371,371,372,372],"right_children":[2,4,6,8,10,12,14,16,18,20,22,24,26,28,30,32,34,36,38,40,42,-1,-1,44,46,48,50,52,54,56,58,60,62,64,66,68,70,72,74,76,78,80,82,84,86,88,90,92,94,96,98,100,102,-1,104,106,108,110,112,114,116,118,120,122,124,-1,126,128,130,-1,132,134,136,138,140,142,144,146,148,150,152,154,-1,156,158,160,162,164,166,168,170,172,174,176,178,180,182,184,186,188,190,192,-1,194,196,198,200,202,204,206,208,210,212,214,216,218,220,222,224,226,228,230,232,234,-1,236,238,240,242,244,-1,-1,246,248,250,252,254,256,-1,258,260,262,264,266,268,270,272,274,276,278,-1,280,282,-1,284,286,-1,-1,288,-1,-1,290,292,294,-1,296,298,300,302,304,306,308,310,312,314,316,318,320,322,-1,-1,324,326,328,-1,-1,330,-1,332,334,-1,336,338,-1,-1,340,-1,342,344,346,348,350,352,354,356,358,360,362,364,366,368,370,372,-1,374,376,378,-1,-1,380,382,384,386,388,390,-1,-1,392,-1,394,396,398,400,402,404,-1,406,-1,408,-1,-1,410,-1,-1,412,-1,-1,414,-1,416,418,420,422,424,-1,426,-1,428,430,-1,432,434,436,438,440,442,444,446,-1,-1,448,-1,-1,450,452,454,456,-1,-1,458,460,462,464,466,468,470,472,-1,-1,474,476,478,-1,480,482,-1,-1,484,-1,486,488,-1,-1,490,492,494,496,-1,-1,498,500,502,-1,-1,504,506,-1,508,510,512,514,516,518,520,-1,522,524,526,-1,528,530,532,534,-1,536,538,-1,-1,-1,-1,540,542,544,546,548,550,-1,-1,552,-1,554,556,-1,-1,-1,558,560,562,564,566,568,570,572,574,576,578,580,582,584,586,588,590,592,-1,-1,-1,-1,-1,-1,-1,-1,-1,-1,-1,-1,-1,-1,-1,-1,-1,-1,-1,-1,-1,-1,-1,-1,-1,-1,-1,-1,-1,-1,-1,-1,-1,-1,-1,-1,-1,-1,-1,-1,-1,-1,-1,-1,-1,-1,-1,-1,-1,-1,-1,-1,-1,-1,-1,-1,-1,-1,-1,-1,-1,-1,-1,-1,-1,-1,-1,-1,-1,-1,-1,-1,-1,-1,-1,-1,-1,-1,-1,-1,-1,-1,-1,-1,-1,-1,-1,-1,-1,-1,-1,-1,-1,-1,-1,-1,-1,-1,-1,-1,-1,-1,-1,-1,-1,-1,-1,-1,-1,-1,-1,-1,-1,-1,-1,-1,-1,-1,-1,-1,-1,-1,-1,-1,-1,-1,-1,-1,-1,-1,-1,-1,-1,-1,-1,-1,-1,-1,-1,-1,-1,-1,-1,-1,-1,-1,-1,-1,-1,-1,-1,-1,-1,-1,-1,-1,-1,-1,-1,-1,-1,-1,-1,-1,-1,-1,-1,-1,-1,-1,-1,-1,-1,-1,-1,-1,-1,-1,-1,-1,-1,-1,-1,-1,-1,-1,-1,-1,-1,-1,-1,-1,-1,-1,-1,-1,-1,-1,-1,-1,-1,-1,-1,-1,-1,-1,-1,-1,-1,-1,-1,-1,-1,-1,-1,-1,-1,-1,-1,-1],"split_conditions":[5.549076E0,6.505784E0,5.4380794E0,6.272877E0,9.421574E0,6.6933236E0,5.3936276E0,7.138073E0,6.302619E0,8.402231E0,8.452974E0,6.475433E0,7.493317E0,7.9146175E0,5.480639E0,7.3505163E0,5.5412636E0,5.5373344E0,7.7310534E0,5.598422E0,7.9276853E0,-9.747383E-2,3.4715474E-2,6.591674E0,5.3844953E0,5.3844953E0,7.6884556E0,7.5678625E0,6.3062754E0,6.558198E0,8.825853E0,7.0335064E0,6.980076E0,7.9377317E0,5.42495E0,6.4907236E0,6.2822666E0,7.8038435E0,8.291296E0,7.586296E0,6.371612E0,6.5944133E0,5.627621E0,7.4121604E0,5.3423343E0,6.6093493E0,6.5366917E0,7.4091363E0,6.951772E0,7.5714736E0,6.381816E0,7.374629E0,7.4826818E0,-4.045528E-2,6.263398E0,5.8348107E0,6.364751E0,5.480639E0,8.070906E0,6.2576675E0,6.291569E0,6.6883545E0,5.42495E0,6.934397E0,8.094684E0,1.06821954E-1,7.5464463E0,6.675823E0,5.5093884E0,9.5482826E-2,6.498282E0,6.395262E0,6.413459E0,7.1196356E0,7.2145042E0,8.993054E0,7.709308E0,6.823286E0,6.555357E0,6.690842E0,5.521461E0,8.536407E0,-1.1780733E-1,6.496775E0,5.3423343E0,6.632002E0,6.9565454E0,6.5971456E0,5.3423343E0,7.4809923E0,5.4380794E0,6.302619E0,5.389072E0,6.787845E0,7.3238306E0,5.4071717E0,6.2934194E0,7.716906E0,8.008366E0,6.3117347E0,8.656781E0,5.9989367E0,4.183942E-2,6.934397E0,5.313206E0,7.1785455E0,5.4722705E0,7.128496E0,6.5750756E0,7.0630484E0,6.823286E0,7.785305E0,8.979291E0,7.6629376E0,6.980076E0,8.993054E0,7.185387E0,6.3885612E0,5.5134287E0,6.5889263E0,5.5451775E0,6.742881E0,7.1785455E0,8.914761E0,-4.7759727E-2,5.5012584E0,7.804251E0,6.371612E0,6.2822666E0,5.46806E0,-1.1647999E-1,-1.1647999E-1,7.1057863E0,7.6118426E0,6.5250297E0,5.4722705E0,9.421574E0,7.0335064E0,-9.747383E-2,8.927181E0,5.5412636E0,8.070906E0,6.5722823E0,7.457032E0,9.169622E0,5.4722705E0,6.248043E0,7.7393594E0,5.6489744E0,6.295266E0,-4.3109953E-2,6.4952655E0,5.529429E0,4.0778494E-1,5.4764633E0,6.4409466E0,-1.2636906E-1,3.7983835E-1,8.025844E0,6.121594E-1,-4.7604978E-2,7.3172126E0,5.948035E0,6.50129E0,-1.6387883E-1,7.185387E0,7.759614E0,5.5134287E0,7.518064E0,6.9127426E0,6.6515718E0,5.313206E0,6.8416157E0,8.15823E0,7.463937E0,7.2527623E0,6.6147256E0,5.3936276E0,6.8501263E0,1.8403995E-1,-1.3957405E-1,7.6496925E0,6.4281054E0,8.540714E0,1.5788406E-1,1.3990393E-1,8.573384E0,-1.3589333E-1,6.4861608E0,6.248043E0,-1.0911855E-1,5.313206E0,6.5337887E0,-5.843541E-2,3.4778327E-1,6.652863E0,2.6192552E-1,6.7357802E0,7.7310534E0,8.151622E0,6.2709885E0,5.463832E0,6.261492E0,8.402231E0,7.6251073E0,7.601902E0,7.4860525E0,5.6347895E0,7.622664E0,6.7068624E0,5.68358E0,7.149132E0,5.7004437E0,-8.4803045E-2,7.785305E0,6.8741984E0,6.9137373E0,2.2428842E-1,-1.6925314E-1,6.295266E0,5.5053315E0,5.4595857E0,5.521461E0,5.4595857E0,6.8741984E0,-5.3940386E-2,1.8959098E-1,8.201935E0,1.8587193E-1,6.6463904E0,5.4930615E0,5.5053315E0,7.1098795E0,7.4826818E0,7.100027E0,1.299651E-1,8.1365185E0,1.9757351E-1,8.108322E0,-1.1647999E-1,2.1683387E-1,7.854769E0,-1.1647999E-1,-5.3940386E-2,5.488938E0,1.434502E-1,-9.747383E-2,5.3082676E0,3.6308315E-1,5.3844953E0,6.3062754E0,8.094684E0,8.048788E0,7.3238306E0,3.4944E-1,5.4722705E0,3.115655E-1,8.509362E0,5.4595857E0,1.3468602E-1,8.662678E0,6.5206213E0,5.5093884E0,5.4467373E0,5.46806E0,7.946264E0,5.549076E0,8.257126E0,3.8950446E-1,-1.5581088E-1,5.6903596E0,-1.0512774E-1,1.882819E-1,6.042633E0,6.9565454E0,6.5944133E0,5.6664267E0,-1.5182006E-1,2.4801408E-1,5.4071717E0,7.3172126E0,6.605298E0,5.549076E0,8.7443285E0,6.261492E0,6.395262E0,6.272877E0,8.010143E-2,-4.7604978E-2,7.601902E0,7.851661E0,6.8057227E0,1.9760233E-1,5.389072E0,6.527958E0,2.4315536E-2,-4.7604978E-2,6.6707664E0,-1.4897126E-1,6.6359468E0,6.4345465E0,1.0136628E-1,-1.4897126E-1,6.6359468E0,7.601902E0,8.825853E0,6.6066504E0,-1.0697693E-1,2.8981894E-1,6.6515718E0,5.3612924E0,7.338888E0,-1.4897126E-1,2.2071269E-1,7.07327E0,6.9527287E0,-1.1964768E-1,5.4071717E0,6.8405466E0,6.381816E0,7.116394E0,6.419995E0,7.4012313E0,5.42495E0,2.4506533E-1,8.070906E0,6.812345E0,8.065266E0,1.3485104E-2,6.50129E0,5.4071717E0,5.620401E0,6.7007313E0,-1.4182156E-1,6.6476884E0,6.9527287E0,-5.6187898E-2,-1.3655013E-1,1.23380065E-1,3.164925E-1,6.8112445E0,5.463832E0,5.7899604E0,6.496775E0,5.613128E0,6.879356E0,1.0909586E-1,1.7980129E-2,5.4380794E0,8.2510024E-2,6.8783264E0,6.248043E0,-1.645428E-1,1.7345174E-1,-1.5530667E-1,7.518064E0,8.119101E0,6.7580943E0,8.847935E0,7.372118E0,7.4091363E0,7.156956E0,6.795706E0,5.560682E0,6.8741984E0,5.8081427E0,7.601902E0,5.6312118E0,5.4510384E0,5.8230457E0,5.5012584E0,5.6347895E0,5.4722705E0,3.759402E-2,-1.4815697E-1,-2.1449119E-2,-5.578077E-2,1.1216143E-1,-1.228154E-1,-1.2756006E-1,4.183942E-2,-1.299651E-1,2.9098302E-1,1.434502E-1,-4.045528E-2,-1.1647999E-1,-1.575531E-2,-5.843541E-2,6.9271E-2,1.5210034E-1,-1.4182156E-1,-7.1920514E-2,-5.3940386E-2,0E0,-1.5530667E-1,0E0,9.174615E-2,-5.3940386E-2,-1.3732654E-1,-3.5960257E-2,2.6970193E-2,1.48894E-1,5.5785894E-2,-1.732868E-1,2.3474614E-1,-1.1647999E-1,-6.579685E-2,-1.0697693E-1,3.197825E-2,1.1841306E-1,-1.1647999E-1,2.7494577E-1,-1.1647999E-1,1.7439187E-1,-4.045528E-2,2.458226E-1,2.1466732E-2,-5.0453782E-2,-4.4950247E-3,-1.3446012E-1,-1.2547006E-1,-1.9850612E-2,8.46926E-2,-1.0911855E-1,2.1506116E-2,-1.1647999E-1,-1.1647999E-1,-4.3109953E-2,1.18217066E-1,-3.7641078E-3,-1.0697693E-1,2.3544642E-1,-5.610645E-3,-1.3231848E-1,-4.045528E-2,-4.3109953E-2,-4.2649865E-2,1.7366993E-1,-2.6200667E-2,-4.045528E-2,1.25868E-1,1.3485104E-2,-9.747383E-2,1.0333018E-1,-5.97111E-2,-6.843388E-2,7.6543406E-2,-2.5112212E-2,2.3271394E-1,1.6137066E-1,-1.4051662E-1,2.395595E-1,-5.8875263E-2,2.9608458E-1,7.7447295E-3,-5.0453782E-2,-2.3280665E-2,1.7420954E-1,-5.0453782E-2,1.2944409E-1,5.4031312E-3,-1.5182006E-1,0E0,-2.6155874E-2,2.0826618E-1,2.3182824E-1,-6.676404E-2,5.9272528E-2,-1.1647999E-1,-9.430611E-2,-1.4897126E-1,-8.889091E-2,1.3839495E-1,8.010143E-2,8.462459E-3,-1.4897126E-1,3.0154604E-1,-1.4897126E-1,-5.6595057E-2,1.2568182E-1,-8.152948E-2,2.2907269E-1,4.6793267E-2,2.2899953E-1,1.9094884E-2,2.8938955E-1,-1.17550835E-1,-4.7604978E-2,1.5357476E-1,-8.017236E-2,6.4529896E-2,-9.8449215E-2,3.138858E-1,-8.017236E-2,4.3887258E-1,6.514678E-1,-1.4897126E-1,-5.855076E-2,-4.7604978E-2,-1.2915078E-1,-1.1806385E-1,1.2568182E-1,-5.843541E-2,-1.1409901E-1,-2.7784497E-2,2.353704E-1,-5.9762746E-2,9.3901545E-2,-1.3389188E-1,1.7136917E-1,3.2034263E-2,-9.350897E-2,1.989139E-1,-4.7604978E-2,-1.4897126E-1,2.0699954E-1,1.1011028E-1,8.744001E-3,-1.5530667E-1,-1.9769311E-1,4.3904006E-2,-7.1920514E-2,-5.9813082E-2,1.4468983E-2,-5.3940386E-2,-2.6970193E-2,-5.6187898E-2,7.3519945E-2,-1.4511408E-1,2.7757043E-1,2.7892947E-2,-1.1647999E-1,3.164925E-1,-7.21512E-2,2.9909775E-2,-6.866327E-2,2.4075578E-1,1.3485104E-2,-1.3946474E-2,-5.843541E-2,2.7915853E-1,-8.377698E-2,4.8581973E-2,-8.586699E-2,3.484191E-1,1.5338904E-1,1.3485104E-2,-1.5867794E-1,9.352544E-2,-6.433761E-2,-9.747383E-2,-1.0462353E-1,-7.9101086E-2,-1.4182156E-1,8.725113E-2,-6.317651E-2,2.1147656E-1,-1.3946474E-2,2.3657578E-1,-5.3940386E-2,-1.3762784E-1,5.5785894E-2,1.656757E-1,-7.1920514E-2,1.583805E-1,-1.1218414E-1,-1.6695142E-1,1.3990393E-1,-1.264092E-1,-7.1920514E-2,0E0,0E0,-5.6187898E-2,3.1465232E-2,0E0,1.3990393E-1,1.3485104E-2,-8.26993E-2,-2.1449119E-2,3.1676888E-3,-1.4182156E-1,3.8924515E-3,-1.1489615E-1,-1.732868E-1,3.212235E-1,1.3992867E-1,-8.586699E-2,-4.045528E-2,1.4028251E-1,-9.747383E-2,2.29882E-2,3.311709E-1,-1.2915078E-1],"split_indices":[3,2,1,2,1,3,2,1,2,1,0,3,3,4,2,4,3,3,0,4,2,0,0,4,1,1,4,4,0,4,4,4,1,4,2,1,2,1,0,2,0,2,4,2,0,3,3,4,3,3,0,1,1,0,1,3,0,1,0,1,1,1,2,0,0,0,0,0,3,0,1,2,2,1,1,0,1,1,2,0,3,1,0,4,0,4,0,3,0,4,2,4,0,3,3,1,4,2,4,0,1,3,0,0,2,0,1,4,4,2,1,0,4,0,1,0,4,1,2,0,2,0,0,4,0,2,0,0,2,4,0,0,0,1,1,3,1,1,0,0,4,0,1,1,2,3,0,1,4,0,0,0,3,0,3,4,0,0,2,0,0,2,2,3,0,2,4,2,0,0,3,2,4,2,4,0,0,2,4,0,0,3,4,3,0,0,4,0,0,0,0,2,0,0,0,0,0,0,0,0,0,1,0,1,0,0,2,4,4,3,3,3,3,0,0,1,4,0,0,0,2,3,2,3,1,0,0,4,0,0,2,2,4,1,0,0,1,0,0,0,0,0,0,0,4,0,0,3,0,3,0,1,1,0,0,3,0,0,3,0,0,2,3,3,4,0,4,0,0,0,4,0,0,4,0,2,4,0,0,3,2,0,4,1,0,4,3,0,0,4,2,4,0,0,3,0,0,3,0,4,2,0,0,4,0,4,2,0,0,4,1,3,0,0,0,4,0,1,3,0,3,4,3,0,0,0,4,4,0,0,1,3,0,0,4,0,0,0,0,0,0,2,3,4,3,0,0,0,2,0,4,0,0,0,0,0,4,2,0,2,4,0,1,2,1,0,0,2,1,3,1,3,1,0,0,0,0,0,0,0,0,0,0,0,0,0,0,0,0,0,0,0,0,0,0,0,0,0,0,0,0,0,0,0,0,0,0,0,0,0,0,0,0,0,0,0,0,0,0,0,0,0,0,0,0,0,0,0,0,0,0,0,0,0,0,0,0,0,0,0,0,0,0,0,0,0,0,0,0,0,0,0,0,0,0,0,0,0,0,0,0,0,0,0,0,0,0,0,0,0,0,0,0,0,0,0,0,0,0,0,0,0,0,0,0,0,0,0,0,0,0,0,0,0,0,0,0,0,0,0,0,0,0,0,0,0,0,0,0,0,0,0,0,0,0,0,0,0,0,0,0,0,0,0,0,0,0,0,0,0,0,0,0,0,0,0,0,0,0,0,0,0,0,0,0,0,0,0,0,0,0,0,0,0,0,0,0,0,0,0,0,0,0,0,0,0,0,0,0,0,0,0,0,0,0,0,0,0,0,0,0,0,0,0,0,0,0,0,0,0,0,0,0],"split_type":[0,0,0,0,0,0,0,0,0,0,0,0,0,0,0,0,0,0,0,0,0,0,0,0,0,0,0,0,0,0,0,0,0,0,0,0,0,0,0,0,0,0,0,0,0,0,0,0,0,0,0,0,0,0,0,0,0,0,0,0,0,0,0,0,0,0,0,0,0,0,0,0,0,0,0,0,0,0,0,0,0,0,0,0,0,0,0,0,0,0,0,0,0,0,0,0,0,0,0,0,0,0,0,0,0,0,0,0,0,0,0,0,0,0,0,0,0,0,0,0,0,0,0,0,0,0,0,0,0,0,0,0,0,0,0,0,0,0,0,0,0,0,0,0,0,0,0,0,0,0,0,0,0,0,0,0,0,0,0,0,0,0,0,0,0,0,0,0,0,0,0,0,0,0,0,0,0,0,0,0,0,0,0,0,0,0,0,0,0,0,0,0,0,0,0,0,0,0,0,0,0,0,0,0,0,0,0,0,0,0,0,0,0,0,0,0,0,0,0,0,0,0,0,0,0,0,0,0,0,0,0,0,0,0,0,0,0,0,0,0,0,0,0,0,0,0,0,0,0,0,0,0,0,0,0,0,0,0,0,0,0,0,0,0,0,0,0,0,0,0,0,0,0,0,0,0,0,0,0,0,0,0,0,0,0,0,0,0,0,0,0,0,0,0,0,0,0,0,0,0,0,0,0,0,0,0,0,0,0,0,0,0,0,0,0,0,0,0,0,0,0,0,0,0,0,0,0,0,0,0,0,0,0,0,0,0,0,0,0,0,0,0,0,0,0,0,0,0,0,0,0,0,0,0,0,0,0,0,0,0,0,0,0,0,0,0,0,0,0,0,0,0,0,0,0,0,0,0,0,0,0,0,0,0,0,0,0,0,0,0,0,0,0,0,0,0,0,0,0,0,0,0,0,0,0,0,0,0,0,0,0,0,0,0,0,0,0,0,0,0,0,0,0,0,0,0,0,0,0,0,0,0,0,0,0,0,0,0,0,0,0,0,0,0,0,0,0,0,0,0,0,0,0,0,0,0,0,0,0,0,0,0,0,0,0,0,0,0,0,0,0,0,0,0,0,0,0,0,0,0,0,0,0,0,0,0,0,0,0,0,0,0,0,0,0,0,0,0,0,0,0,0,0,0,0,0,0,0,0,0,0,0,0,0,0,0,0,0,0,0,0,0,0,0,0,0,0,0,0,0,0,0,0,0,0,0,0,0,0,0,0,0,0,0,0,0,0,0,0,0,0,0,0,0,0,0,0,0,0,0,0,0,0,0,0,0,0,0,0,0,0,0,0,0,0,0,0,0,0,0,0,0,0,0,0,0,0,0,0,0,0,0,0],"sum_hessian":[3.8021E4,3.767E3,3.4254E4,1.762E3,2.005E3,8.73E2,3.3381E4,1.289E3,4.73E2,1.992E3,1.3E1,3.29E2,5.44E2,1.25E2,3.3256E4,7.93E2,4.96E2,5.1E1,4.22E2,1.862E3,1.3E2,1.2E1,1E0,1.75E2,1.54E2,3.59E2,1.85E2,1.07E2,1.8E1,5.06E2,3.275E4,5.89E2,2.04E2,4.6E2,3.6E1,4.4E1,7E0,3.36E2,8.6E1,1.199E3,6.63E2,1.04E2,2.6E1,4.9E1,1.26E2,8.2E1,7.2E1,1.61E2,1.98E2,1.47E2,3.8E1,9.3E1,1.4E1,1E0,1.7E1,1.32E2,3.74E2,3.1938E4,8.12E2,4.92E2,9.7E1,1.78E2,2.6E1,4.04E2,5.6E1,2E0,3.4E1,8E0,3.6E1,2E0,5E0,2.84E2,5.2E1,4E1,4.6E1,8.84E2,3.15E2,6.4E1,5.99E2,8E0,9.6E1,2E1,6E0,4.5E1,4E0,8E0,1.18E2,6E1,2.2E1,2.7E1,4.5E1,1.2E2,4.1E1,6.6E1,1.32E2,8E0,1.39E2,1.2E1,2.6E1,7E1,2.3E1,1.3E1,1E0,2E0,1.5E1,7.1E1,6.1E1,3.8E1,3.36E2,3.76E2,3.1562E4,7.6E2,5.2E1,1E1,4.82E2,9E0,8.8E1,1.04E2,7.4E1,3E0,2.3E1,2.08E2,1.96E2,5.2E1,4E0,2.8E1,6E0,3E0,5E0,2.3E1,1.3E1,3E0,2E0,1.31E2,1.53E2,3.1E1,2.1E1,2.3E1,1.7E1,3.2E1,1.4E1,8.65E2,1.9E1,2.68E2,4.7E1,2.8E1,3.6E1,3.7E1,5.62E2,3E0,5E0,6.6E1,3E1,3E0,1.7E1,3.7E1,8E0,2E0,2E0,1E0,7E0,8.2E1,3.6E1,5.8E1,2E0,2E0,2E1,1.9E1,8E0,2E1,2.5E1,3E0,1.17E2,1.1E1,3E1,2.1E1,4.5E1,1.01E2,3.1E1,7E0,1E0,9E0,1.3E2,9E0,3E0,7E0,1.9E1,4E0,6.6E1,2.1E1,2E0,9E0,4E0,1E0,1E0,3E0,1.2E1,4.8E1,2.3E1,3.2E1,2.9E1,1.8E1,2E1,7E0,3.29E2,3.03E2,7.3E1,2.3041E4,8.521E3,7.34E2,2.6E1,1.9E1,3.3E1,8E0,2E0,4.25E2,5.7E1,8E0,1E0,5.4E1,3.4E1,2.9E1,7.5E1,5.3E1,2.1E1,1E0,2E0,2.2E1,1E0,1.84E2,2.4E1,7.3E1,1.23E2,4.1E1,1.1E1,1E0,2.7E1,2E0,4E0,1E0,2E0,2E0,3E0,9E0,1.4E1,1E0,1E0,1.27E2,4E0,4.3E1,1.1E2,9E0,2.2E1,2E1,1E0,2.1E1,2E0,1.7E1,1.5E1,7E0,7E0,7.86E2,7.9E1,3E0,1.6E1,2.46E2,2.2E1,4.4E1,3E0,1E1,1.8E1,2E0,3.4E1,3.3E1,4E0,1.59E2,4.03E2,1E0,2E0,1.1E1,5.5E1,4E0,2.6E1,7E0,1E1,2.6E1,1.1E1,1E0,1E0,7.1E1,1.1E1,3.3E1,3E0,1.3E1,4.5E1,1E0,1E0,1.9E1,1E0,7E0,1.2E1,7E0,1E0,1.2E1,8E0,2.2E1,3E0,1E0,2E0,6.5E1,5.2E1,1E1,1E0,3E0,2.7E1,1.6E1,5E0,2E1,2.5E1,7E0,9.4E1,1.6E1,1.5E1,4E0,5E0,1.5E1,1.15E2,8E0,1E0,1.1E1,8E0,1.2E1,5.4E1,1E0,2E1,2E0,7E0,2E0,2E0,1E0,2E0,3.2E1,1.6E1,1.1E1,1.2E1,3E1,2E0,1E0,2.8E1,4E0,1.4E1,2E0,1.8E1,6E0,1E0,2.53E2,7.6E1,2.59E2,4.4E1,3.4E1,3.9E1,8.3E2,2.2211E4,7.76E3,7.61E2,4.05E2,3.29E2,7E0,1.9E1,1.3E1,6E0,1.2E1,2.1E1,1E0,1E0,3.38E2,8.7E1,4.6E1,1.1E1,4E0,5E1,2.4E1,1E1,9E0,2E1,5.3E1,2.2E1,2.5E1,2.8E1,8E0,1.3E1,1.3E1,9E0,1.53E2,3.1E1,1.3E1,1.1E1,