{"learner":{"attributes":{"scikit_learn":"{\"_estimator_type\": \"regressor\"}"},"feature_names":["feature_1","feature_2","feature_3","feature_4","feature_5","feature_6"],"feature_types":["float","float","float","float","float","float"],"gradient_booster":{"model":{"gbtree_model_param":{"num_parallel_tree":"1","num_trees":"55"},"iteration_indptr":[0,1,2,3,4,5,6,7,8,9,10,11,12,13,14,15,16,17,18,19,20,21,22,23,24,25,26,27,28,29,30,31,32,33,34,35,36,37,38,39,40,41,42,43,44,45,46,47,48,49,50,51,52,53,54,55],"tree_info":[0,0,0,0,0,0,0,0,0,0,0,0,0,0,0,0,0,0,0,0,0,0,0,0,0,0,0,0,0,0,0,0,0,0,0,0,0,0,0,0,0,0,0,0,0,0,0,0,0,0,0,0,0,0,0],"trees":[{"base_weights":[-4.8559822E-2,-1.222803E-1,-4.038853E-2,-2.107317E-1,-9.291033E-2,-8.950352E-2,-2.5278771E-2,-3.97351E-1,-1.9578947E-1,-1.4618577E-1,-3.808273E-2,-1.5849563E-1,-7.53141E-2,-6.598315E-2,-1.6731676E-2,-4.539007E-1,3.6363637E-1,5.7692308E-2,-2.1035059E-1,-1.5338646E-1,3.2786883E-2,-1.3053612E-1,-1.8273185E-3,-2.5735294E-2,-1.8809035E-1,-1.3362761E-1,-4.472272E-2,-7.006831E-2,1.4210527E-1,-5.2216664E-2,-4.811936E-3,-7.4285716E-1,-3.5514018E-1,2.0833333E-1,-1.6666667E-1,-6E-1,3.2E-1,-1.5400411E-1,-2.7669904E-1,-9.685534E-2,-1.735798E-1,2.3880596E-1,-2.1428572E-1,2E-1,-1.5743072E-1,-1.609756E-1,1.4609572E-2,1.6763006E-1,-1.155914E-1,-3.0927834E-1,-1.5786776E-1,-2.8881988E-1,-1.2288226E-1,-8.001721E-2,-1.091658E-2,-5.7508416E-2,-1.1170688E-1,2.4324325E-1,-2.0930232E-1,-6.932027E-2,-1.376273E-2,-9.8522164E-2,9.367823E-4,-4.6153846E-1,-8.695652E-1,-2.8125E-1,-2.2916667E-1,-0E0,-1.25E-1,-6.923077E-1,-0E0,5.5555556E-2,5.5E-1,-2.8424656E-1,-9.809663E-2,-3.273906E-1,-1.25E-1,-5.2721087E-2,-2.2115384E-1,-1.6260162E-1,-3.515625E-1,4.2105263E-1,-0E0,-1.2E-1,-2.1428572E-1,3.5416666E-1,-2.2222222E-1,3E-1,-1.6903226E-1,-8.383234E-2,-4.871795E-1,5E-1,8.664628E-3,5.4054055E-2,3.6507937E-1,-3.59375E-1,-6.472492E-2,-2.5464192E-1,-4.9541286E-1,-9.933036E-2,-2.0738636E-1,-8.333333E-1,-2.6688102E-1,-1.3717128E-1,1.3544018E-2,-4.698905E-2,-1.0943857E-1,4.761905E-2,-3.331435E-2,-5.3285476E-2,-2.2527473E-1,2.1311475E-1,-1.3037317E-1,2.8873238E-1,-1.7857143E-1,3.75E-1,-3.3333334E-1,6.2801935E-2,-7.6367386E-2,-4.586039E-2,5.3846154E-2,-1.6817594E-2,-1.4864865E-1,-3.097923E-2,1.1837198E-2,-7E-1,2.5E-1,-9.0909094E-1,-0E0,1E-1,-3.7662336E-1,2.5E-1,-1.25E-1,-2.857143E-1,-8E-1,1.25E-1,-2.5E-1,-3.888889E-1,4.7368422E-1,3.5714287E-1,2.3076923E-1,-1.4634146E-1,-4.5736435E-1,-6.1946902E-2,-2.6890758E-1,-3.4871796E-1,6.0606062E-2,5.050505E-2,-2.8181818E-1,-7.918969E-2,2.6086956E-1,3.75E-1,-2.4378109E-1,-1.7940553E-1,-9.615385E-3,-2.3584905E-1,-8.695652E-1,9.090909E-2,8.235294E-1,2.2727273E-1,-5.555556E-1,-2.631579E-1,3.0769232E-1,-1.875E-1,4.4444445E-1,3.3333334E-1,-4.6153846E-1,-2E-1,7.2727275E-1,-2.1836735E-1,-8.391608E-2,-1.25E-1,7.5E-1,-5.555556E-1,2.5E-1,-4E-1,7E-1,-1.6923077E-1,2.1276595E-2,1.4432989E-1,-5.3333336E-1,4.642857E-1,-3.75E-1,-8.235294E-1,-1.875E-1,4.6783626E-2,-2.0143884E-1,-6.315789E-1,-2.1176471E-1,-5.445545E-1,1.1111111E-1,-1.2530121E-1,2.238806E-1,1.8181819E-1,-2.2408687E-1,-3.3333334E-1,-2.25E-1,-2.4584718E-1,-8.181818E-1,-1.9472183E-1,-1.08510636E-1,6.2015504E-2,-3.1578946E-1,-5.597366E-2,2.3880596E-1,-2.6545453E-1,-8.974359E-2,1.5226337E-1,-1.1641444E-2,7.024586E-3,-8.618421E-2,-4.2059943E-2,-1.0945274E-1,-6.666667E-1,-1.572327E-1,2.4369748E-1,-1.875E-1,-4.0860215E-1,-1.1753087E-1,1.1904762E-1,5.254237E-1,-1.25E-1,5.714286E-1,1.6666667E-1,-4.117647E-1,-1.9101124E-1,1.3190185E-1,-1.3270143E-1,-6.536149E-2,6.1538464E-1,-5.2890528E-2,5.862069E-1,4.028021E-2,2.972973E-1,-3.256445E-2,-1.3468013E-2,-1.9022869E-1,-3.772642E-2,9.738717E-2,3.2242768E-2,-3.3984706E-3,-2.1875E-1,-0E0,1.6666667E-1,-1.25E-1,-0E0,-2.3809524E-1,4E-1,-1.8181819E-1,-4.4285715E-1,2.5E-1,-0E0,1.25E-1,2.5E-1,-1.875E-1,-2.2916667E-1,-5.555556E-1,-1.6666667E-1,1.25E-1,-2.1428572E-1,-8.3333336E-2,-1.4285715E-1,7.692308E-1,5.7894737E-1,-1E-1,-3.90625E-2,-5.135135E-1,-4.8031497E-1,1.6666667E-1,-4.1431263E-2,-3.7142858E-1,-4.050633E-1,-0E0,-3.9578456E-1,-2.2012578E-1,2.9166666E-1,-5E-1,1.1956522E-1,-1.875E-1,-4.7272727E-1,-8.928572E-2,-5.1896207E-2,-3.9534885E-1,3.783784E-1,-2E-1,5.714286E-1,-1.25E-1,-3.6633664E-1,-1.1881188E-1,-2.5118482E-1,-1.4297125E-1,-2.413793E-1,7.94702E-2,-3.888889E-1,5.882353E-1,-2.375E-1,-2.5E-1,2.631579E-1,-1.875E-1,4E-1,2.3076923E-1,-5E-1,4.7058824E-1,-7.1428573E-1,-0E0,-6.1538464E-1,-7.692308E-2,5.4545456E-1,-1.6666667E-1,2.2222222E-1,3.243243E-1,1.875E-1,-3.3333334E-1,-2.1875E-1,1.6666667E-1,1.6666667E-1,-6E-1,2.25E-1,-1.25E-1,-1.8543047E-1,-6.052632E-1,5.7971016E-2,-2.147651E-1,-4.054054E-1,-4.032258E-2,2.1428572E-1,-0E0,1.25E-1,-6E-1,1.6666667E-1,-1.25E-1,-1.6666667E-1,-0E0,7.894737E-1,-1.25E-1,-3.2E-1,3.2258064E-1,4.100529E-2,-7.1428575E-2,2.2093023E-1,-4.1666666E-1,-2.1428572E-1,-2.2222222E-1,3E-1,8.235294E-1,-5.714286E-1,1.25E-1,-0E0,-2.3333333E-1,-4.7619048E-1,3.5714287E-2,1.7307693E-1,-1.4705883E-1,-2.8947368E-1,1.923077E-1,-7.741935E-1,-0E0,2E-1,-2.2619048E-1,-1.25E-1,-6.1627907E-1,-1.6666667E-1,4.2857143E-1,-4.4444445E-1,-1.0687023E-1,2.1428572E-1,1.4754099E-1,2.972973E-1,-3.75E-1,-2.923077E-1,-1.3053612E-1,-1.25E-1,-0E0,-1.5957446E-1,-3.859649E-1,-0E0,-2.25E-1,-1.2727273E-1,-3.078394E-1,-9.879254E-2,-4.090909E-1,-7.5E-1,7.8947365E-2,2.7272728E-1,-4.4680852E-1,-5.2955084E-2,-5.833333E-1,5.7575756E-1,-8.571429E-2,-2.889734E-1,2.3076923E-1,5.217391E-1,-9.620722E-2,3.4375E-1,1.0485934E-1,-3.75E-1,9.852217E-3,1.6129032E-1,-1.181767E-2,-4.148148E-1,-5.4112554E-2,-3.319274E-2,-1.2436116E-1,-3.869654E-2,-1.5782122E-1,-8.4210527E-1,-0E0,-1.0666667E-1,-2.25E-1,1.981982E-1,7.777778E-1,-3.2098764E-1,-2.3076923E-1,-1.1276701E-1,-8.4615386E-1,2.4615385E-1,-3E-1,8.333333E-1,3.809524E-1,2E-1,-0E0,-2.8E-1,-1.75E-1,4.2105263E-1,-3.5211268E-1,2.6540285E-1,-1.12068966E-1,-1.7431192E-1,1.048951E-2,2E-1,-6.84547E-2,6.8E-1,-1.25E-1,-2.0062696E-2,-1.147929E-1,-6E-1,8E-1,-3.6719707E-3,1.5030675E-1,-0E0,4.7826087E-1,-5.714286E-1,-1.6736401E-2,1.160221E-1,-2.1367522E-1,-3.4246575E-2,-2.1787025E-1,-6.954437E-2,-3.1282585E-3,1.8888889E-1,-6.5789476E-2,-4.43828E-3,5.128944E-2,-3.1466063E-2,2.4865018E-2,-1.25E-1,1.25E-1,-1.25E-1,1.388889E-1,-1.1111111E-1,1.6666667E-1,8.3333336E-2,-1.1764706E-1,1.6666667E-1,-0E0,-1.25E-1,1.6666667E-1,-5E-2,-2E-1,1.25E-1,-1.4285715E-1,-1.25E-1,6.25E-2,6.25E-2,2.25E-1,2.0833333E-1,3.125E-2,-1.25E-1,1E-1,-5.28169E-2,4.310345E-2,-2.1428572E-1,-7.2916664E-2,-9.615385E-2,-1.55E-1,-2.0179372E-2,4.0697675E-2,-1.3333334E-1,1.25E-1,-1.3333334E-1,-0E0,1.3636364E-1,-4.8387095E-2,-1.194853E-1,-6.25E-2,-1.1764706E-2,-1.0333333E-1,-1.5625E-2,2.2222222E-1,-2.1875E-1,1.6666667E-1,8.8541664E-2,-3.3333335E-2,-2.173913E-2,-1.8181819E-1,-1.1111111E-1,5.8333334E-2,8.0882356E-2,-1.9764958E-2,1.5E-1,-1.2820514E-1,-1E-1,1.21212125E-1,-1.0714286E-1,6.25E-2,2.0833333E-1,-1.25E-1,-0E0,-1.23333335E-1,1.18421055E-1,-6.3253015E-2,-5.2532833E-2,-1.16336636E-1,-4.3349754E-2,-3.1512605E-3,-8.3333336E-2,2E-1,-0E0,1.3636364E-1,-1.7592593E-1,-6.25E-2,1.71875E-1,-1.25E-1,1.25E-1,-1.6666667E-1,1.3461539E-1,-7.1428575E-2,-1.25E-1,1.875E-1,-2E-1,1.25E-1,-3.125E-2,2.25E-1,-2.0833333E-1,-0E0,1.25E-1,-1.25E-1,-2E-1,-0E0,1.1111111E-1,-8.3333336E-2,2.0833333E-1,4.1666668E-2,-4.1666668E-2,1.015625E-1,-1.25E-1,-0E0,-1.6666667E-1,1.875E-1,-6.25E-2,1.6666667E-1,-0E0,-1.875E-1,-3.4741145E-2,-9.4827585E-2,-1.6216215E-1,1.25E-1,9.677419E-2,-9.259259E-3,-3.5984848E-2,-1.8055555E-1,-1.6666667E-1,-1.4705882E-2,4.411765E-2,-7.45614E-2,-0E0,-1.75E-1,1.0714286E-1,2.3076923E-1,-3.301887E-2,-1.3020833E-1,1.7307693E-1,1.3157895E-2,1.9895287E-2,-6.2724017E-3,-7.7586204E-2,4.237288E-3,1.521739E-1,1.953125E-2,1.25E-1,-1.3636364E-1,4.1666668E-2,-1.875E-1,1.1764706E-1,-1.4285715E-1,2.2916667E-1,1.25E-1,1.25E-1,-2.0833333E-1,-1.25E-1,1.25E-1,-1.375E-1,1.25E-1,2.0833333E-1,-4.347826E-2,-7.352941E-3,1.3513513E-1,-1.5625E-1,-0E0,-1.10119045E-1,3.2258064E-2,1.1363637E-1,-0E0,-2.0833333E-1,1.25E-1,-1.6666667E-1,8.3333336E-2,8.3333336E-2,-6.153846E-2,-1.6666667E-1,4.5454547E-2,-0E0,-1.6987179E-1,2E-1,-8.3333336E-2,-0E0,-1.3513513E-1,6.5789476E-2,-3.390411E-2,2.1929825E-2,2E-1,-5.5555556E-2,1.12068966E-1,-2.0833333E-1,1.6666667E-1,-3.2534245E-2,-8.6363636E-2,-1.328125E-2,-8.863636E-2,-7.112069E-2,1.02739725E-2,1E-1,-1.25E-1,-4.1371994E-2,7.183908E-3,1.875E-1,-7.884616E-2,-2.6374443E-2,8.3333336E-2,1.5E-1,-1.16071425E-1,-2.1428572E-1,-0E0,-3.358209E-2,3.1050956E-2,1.25E-1,-6.25E-2,-1.3690476E-1,8.3333336E-2,-1.1720638E-2,-7.978723E-2,-1.8181819E-1,1.25E-1,2.0833334E-2,2.0454545E-1,1.5E-1,-4.8387095E-2,-6.4257026E-2,-2E-1,2E-1,-2.7777778E-2,-8.3333336E-2,1.5476191E-1,-1.71609E-2,-6.0672514E-2,5.9210528E-2,1.7857143E-1,-6.7307696E-2,3.2786883E-2,-1.2804878E-1,9.375E-2,-2.3901809E-2,2.640845E-2,2.1428572E-1,3.436019E-2,-5.7319226E-3,5.8441557E-2,8.3333336E-2,-1.2096774E-1,-3.9430894E-2,7.1243523E-3,-9.4295805E-3,7.638889E-2,-2.5275735E-2,-1.0227273E-1,-5.135135E-2,1.5472312E-2,-3.937008E-3,-4.70339E-2,-6.25E-2,-2.34375E-1,-1.25E-1,1.6666667E-1,-3.9285716E-2,1.3636364E-1,-9.090909E-2,6.435644E-2,2.1875E-1,-0E0,6.25E-2,-1.1363637E-1,-2.0833334E-2,-5.9554975E-2,-2.2916667E-1,-0E0,8.196721E-2,-2E-1,-1.875E-1,8.3333336E-2,2.3214285E-1,1E-1,-1.25E-1,1.2837838E-1,-1.25E-1,1.25E-1,3.125E-2,-1.1111111E-1,-0E0,1.8181819E-1,-1.2711865E-1,9.615385E-2,1.875E-1,5.612245E-2,-4.7368422E-2,5.6818184E-2,3.2407407E-2,-4.7952585E-2,-2.4305556E-2,8.450704E-2,5E-3,1.3461539E-1,2.3684211E-2,-1.8356362E-2,1.875E-1,-1.25E-1,-1.6479895E-3,-6.962025E-2,5E-2,-3.155637E-2,-0E0,-1.875E-1,2.173913E-1,-0E0,-4.017857E-2,5.311615E-3,4.9825177E-2,-4.8780486E-2,-9.090909E-2,2E-1,1.5E-1,-6.25E-2,-1.625E-1,1.25E-1,6.818182E-2,-7.6642334E-3,2.1428572E-1,2.1428572E-2,-1.1627907E-1,-1.6666668E-2,-4.481132E-2,8.5365854E-2,-1.02739725E-2,-6.39881E-2,-9.558824E-2,-1.608579E-2,-1.1192017E-2,8.951084E-3,-2.6666667E-2,7.52551E-2,1.968504E-3,-1.0576923E-1,1.685007E-2,-5.644321E-3,2.1230768E-2,5.4171183E-3,-1.7805583E-3,-2.4564184E-2,-1.0461373E-2,1.7204808E-2],"categories":[],"categories_nodes":[],"categories_segments":[],"categories_sizes":[],"default_left":[0,0,0,0,0,0,0,0,0,0,0,0,0,0,0,0,0,0,0,0,0,0,0,0,0,0,0,0,0,0,0,0,0,0,0,0,0,0,0,0,0,0,0,0,0,0,0,0,0,0,0,0,0,0,0,0,0,0,0,0,0,0,0,0,0,0,0,0,0,0,0,0,0,0,0,0,0,0,0,0,0,0,0,0,0,0,0,0,0,0,0,0,0,0,0,0,0,0,0,0,0,0,0,0,0,0,0,0,0,0,0,0,0,0,0,0,0,0,0,0,0,0,0,0,0,0,0,0,0,0,0,0,0,0,0,0,0,0,0,0,0,0,0,0,0,0,0,0,0,0,0,0,0,0,0,0,0,0,0,0,0,0,0,0,0,0,0,0,0,0,0,0,0,0,0,0,0,0,0,0,0,0,0,0,0,0,0,0,0,0,0,0,0,0,0,0,0,0,0,0,0,0,0,0,0,0,0,0,0,0,0,0,0,0,0,0,0,0,0,0,0,0,0,0,0,0,0,0,0,0,0,0,0,0,0,0,0,0,0,0,0,0,0,0,0,0,0,0,0,0,0,0,0,0,0,0,0,0,0,0,0,0,0,0,0,0,0,0,0,0,0,0,0,0,0,0,0,0,0,0,0,0,0,0,0,0,0,0,0,0,0,0,0,0,0,0,0,0,0,0,0,0,0,0,0,0,0,0,0,0,0,0,0,0,0,0,0,0,0,0,0,0,0,0,0,0,0,0,0,0,0,0,0,0,0,0,0,0,0,0,0,0,0,0,0,0,0,0,0,0,0,0,0,0,0,0,0,0,0,0,0,0,0,0,0,0,0,0,0,0,0,0,0,0,0,0,0,0,0,0,0,0,0,0,0,0,0,0,0,0,0,0,0,0,0,0,0,0,0,0,0,0,0,0,0,0,0,0,0,0,0,0,0,0,0,0,0,0,0,0,0,0,0,0,0,0,0,0,0,0,0,0,0,0,0,0,0,0,0,0,0,0,0,0,0,0,0,0,0,0,0,0,0,0,0,0,0,0,0,0,0,0,0,0,0,0,0,0,0,0,0,0,0,0,0,0,0,0,0,0,0,0,0,0,0,0,0,0,0,0,0,0,0,0,0,0,0,0,0,0,0,0,0,0,0,0,0,0,0,0,0,0,0,0,0,0,0,0,0,0,0,0,0,0,0,0,0,0,0,0,0,0,0,0,0,0,0,0,0,0,0,0,0,0,0,0,0,0,0,0,0,0,0,0,0,0,0,0,0,0,0,0,0,0,0,0,0,0,0,0,0,0,0,0,0,0,0,0,0,0,0,0,0,0,0,0,0,0,0,0,0,0,0,0,0,0,0,0,0,0,0,0,0,0,0,0,0,0,0,0,0,0,0,0,0,0,0,0,0,0,0,0,0,0,0,0,0,0,0,0,0,0,0,0,0,0,0,0,0,0,0,0,0,0,0,0,0,0,0,0,0,0,0,0,0,0,0,0,0,0,0,0,0,0,0,0,0,0,0,0,0,0,0,0,0,0,0,0,0,0,0,0,0,0,0,0,0,0,0,0,0,0,0,0,0,0,0,0,0,0,0,0,0,0,0,0,0,0,0,0,0,0,0,0,0,0,0,0,0,0,0,0,0,0,0,0,0,0,0,0,0,0,0,0,0,0,0,0,0,0,0,0,0,0,0,0,0,0,0,0,0,0,0,0,0,0,0,0,0,0,0,0,0,0,0,0,0,0,0,0,0,0,0,0,0,0,0,0,0,0,0,0,0,0,0,0,0,0,0],"id":0,"left_children":[1,3,5,7,9,11,13,15,17,19,21,23,25,27,29,31,33,35,37,39,41,43,45,47,49,51,53,55,57,59,61,63,65,-1,67,69,71,73,75,77,79,81,83,85,87,89,91,93,95,97,99,101,103,105,107,109,111,113,115,117,119,121,123,125,127,129,-1,131,-1,133,135,137,139,141,143,145,147,149,151,153,155,157,159,161,-1,163,165,167,169,171,173,175,177,179,181,183,185,187,189,191,193,195,197,199,201,203,205,207,209,211,213,215,217,219,-1,221,223,225,227,229,231,233,235,237,239,241,243,245,-1,247,249,251,-1,253,255,-1,257,259,261,263,-1,265,267,269,271,273,275,277,279,281,283,285,287,289,291,293,295,297,299,301,303,305,307,-1,309,311,313,315,317,319,321,323,325,327,329,331,333,335,337,339,341,343,345,347,349,351,353,355,357,359,361,363,365,367,369,371,-1,373,375,377,379,381,383,385,387,389,391,393,395,397,399,401,403,405,407,409,-1,411,413,415,417,-1,419,-1,421,423,425,427,429,431,433,435,437,439,441,443,445,447,449,451,453,-1,455,-1,-1,-1,-1,457,459,461,463,-1,-1,465,-1,-1,467,-1,-1,-1,469,471,473,475,477,479,481,483,-1,485,487,489,491,493,495,497,499,501,-1,503,505,507,509,511,513,515,-1,517,519,521,523,525,527,529,531,-1,533,535,-1,537,-1,539,541,543,545,547,549,551,-1,-1,553,-1,555,-1,557,559,561,-1,-1,563,565,567,569,571,573,-1,-1,-1,575,-1,-1,-1,-1,577,-1,579,581,583,585,587,589,-1,591,593,595,597,-1,599,-1,601,603,605,607,609,611,613,615,-1,617,619,621,-1,623,625,627,-1,629,631,633,635,637,-1,-1,639,641,-1,-1,643,645,647,649,651,653,655,657,659,661,663,665,667,669,671,673,675,677,679,681,683,685,687,689,691,693,695,697,699,701,703,-1,705,707,709,-1,711,713,715,717,719,721,-1,723,725,-1,727,729,731,733,735,737,739,741,743,-1,745,747,749,751,753,755,757,759,761,763,765,767,769,771,773,775,777,779,781,783,785,787,-1,-1,-1,-1,-1,-1,-1,-1,-1,-1,-1,-1,-1,-1,-1,-1,-1,-1,-1,-1,-1,-1,-1,-1,-1,-1,-1,-1,-1,-1,-1,-1,-1,-1,-1,-1,-1,-1,-1,-1,-1,-1,-1,-1,-1,-1,-1,-1,-1,-1,-1,-1,-1,-1,-1,-1,-1,-1,-1,-1,-1,-1,-1,-1,-1,-1,-1,-1,-1,-1,-1,-1,-1,-1,-1,-1,-1,-1,-1,-1,-1,-1,-1,-1,-1,-1,-1,-1,-1,-1,-1,-1,-1,-1,-1,-1,-1,-1,-1,-1,-1,-1,-1,-1,-1,-1,-1,-1,-1,-1,-1,-1,-1,-1,-1,-1,-1,-1,-1,-1,-1,-1,-1,-1,-1,-1,-1,-1,-1,-1,-1,-1,-1,-1,-1,-1,-1,-1,-1,-1,-1,-1,-1,-1,-1,-1,-1,-1,-1,-1,-1,-1,-1,-1,-1,-1,-1,-1,-1,-1,-1,-1,-1,-1,-1,-1,-1,-1,-1,-1,-1,-1,-1,-1,-1,-1,-1,-1,-1,-1,-1,-1,-1,-1,-1,-1,-1,-1,-1,-1,-1,-1,-1,-1,-1,-1,-1,-1,-1,-1,-1,-1,-1,-1,-1,-1,-1,-1,-1,-1,-1,-1,-1,-1,-1,-1,-1,-1,-1,-1,-1,-1,-1,-1,-1,-1,-1,-1,-1,-1,-1,-1,-1,-1,-1,-1,-1,-1,-1,-1,-1,-1,-1,-1,-1,-1,-1,-1,-1,-1,-1,-1,-1,-1,-1,-1,-1,-1,-1,-1,-1,-1,-1,-1,-1,-1,-1,-1,-1,-1,-1,-1,-1,-1,-1,-1,-1,-1,-1,-1,-1,-1,-1,-1,-1,-1,-1,-1,-1,-1,-1,-1,-1,-1,-1,-1,-1,-1,-1,-1,-1,-1,-1,-1,-1,-1,-1,-1,-1,-1,-1,-1,-1,-1,-1,-1,-1,-1,-1,-1,-1,-1,-1,-1,-1,-1,-1,-1,-1,-1,-1,-1,-1,-1],"loss_changes":[4.9665268E1,2.1352646E1,5.508423E1,5.638649E0,1.8040146E1,1.7083618E1,1.9748375E1,6.6631336E0,7.024994E0,4.042618E0,1.0209759E1,1.169574E1,2.5835464E1,8.384041E0,1.9844318E1,3.7599678E0,2.878788E0,1.8133846E1,6.675476E0,3.421547E0,6.261177E0,7.6587963E0,5.7285633E0,9.471407E0,8.869652E0,8.275803E0,1.1337824E1,5.046566E0,6.803636E0,7.757942E0,1.8920256E1,8.462486E-1,4.181757E0,0E0,3.333333E-1,1.6615391E0,4.5311112E0,7.0643234E0,6.295517E0,4.34957E0,4.276642E0,2.9159467E0,3.2914288E0,4.3097224E0,4.264385E0,5.117868E0,5.7236214E0,3.8598785E0,4.5896935E0,4.80616E0,5.6347466E0,3.6242104E0,9.091896E0,4.5124454E0,6.3668194E0,5.2483635E0,1.35972595E1,6.6526995E0,3.2412791E0,7.6070747E0,7.886395E0,8.311493E0,1.15130005E1,2.3807693E0,7.90514E-1,3.528328E0,0E0,7.5E-1,0E0,9.098902E-1,7.5E-1,6.874269E0,2.5483513E0,6.9042244E0,4.2007093E0,5.1267776E0,5.7388887E0,4.9012375E0,2.8971968E0,5.373745E0,7.4672184E0,4.974388E0,3.9141417E0,3.142348E0,0E0,5.118056E0,2.5470088E0,4.4181824E0,3.236065E0,5.8263474E0,2.104701E0,4.6000004E0,4.4055653E0,5.9629617E0,4.7996035E0,4.9512873E0,4.720058E0,5.9593296E0,3.3093128E0,7.5491323E0,6.9046516E0,1.0000038E-1,3.405201E0,6.941147E0,7.0913186E0,5.6418886E0,7.5289516E0,8.336286E0,7.4906974E0,4.5627937E0,5.3612213E0,3.7762437E0,7.5162354E0,5.640583E0,0E0,1.6607144E0,3.0980396E0,7.28612E0,4.797615E0,1.1486809E1,8.4261E0,3.8331883E0,7.068426E0,7.3006744E0,7.6692066E0,1.2249999E0,1.5833334E0,8.6580086E-1,0E0,1.7636364E0,3.3064938E0,2.5E-1,0E0,1.9285715E0,6.111145E-2,0E0,1.5833334E0,2.5039687E0,3.5720072E0,2.8969924E0,0E0,6.439874E0,3.6480503E0,3.5719173E0,4.356983E0,3.4535294E0,4.420455E0,5.562692E0,4.0009737E0,4.665075E0,2.5668623E0,1.6607144E0,3.0349236E0,4.891178E0,4.3137217E0,1.3597239E1,9.086971E-1,3.3839712E0,3.4751225E-1,4.128342E0,7.936511E-1,2.4453444E0,3.3752918E0,0E0,2.1141138E0,1.9166665E0,3.5224357E0,1.5666667E0,2.7818184E0,6.1319046E0,5.322265E0,3.7826939E0,6.4285755E-1,1.9888897E0,1.5833334E0,5.3333336E-1,2.5421047E0,9.742729E0,3.3553982E0,4.2603893E0,1.3206353E0,3.0579844E0,1.6607144E0,1.5372562E0,3.1101189E0,4.211704E0,4.873882E0,3.4227495E0,5.1434193E0,2.9622974E0,2.5079365E0,4.8346643E0,3.1125176E0,2.9407248E0,6.426922E0,1.6666666E-1,0E0,3.5769978E0,7.363639E-1,1.0657631E1,8.197002E0,5.3800488E0,4.51695E0,3.353438E0,7.375642E0,3.276104E0,8.682228E0,4.375493E0,6.7124033E0,5.7949877E0,1.5997939E1,4.4030247E0,4.121273E0,2.8070173E0,5.8758497E0,2.7375789E0,0E0,3.8957214E0,6.933462E0,4.547985E0,2.3071022E0,0E0,9.1428566E-1,0E0,1.0952945E0,8.924047E0,1.0647676E1,7.5449696E0,5.3383408E0,2.2138453E0,4.954039E0,7.834482E0,5.5231566E0,1.9905992E0,6.276433E0,7.724473E0,4.1402893E0,8.812025E0,6.298354E0,7.3675117E0,1.1205184E1,0E0,1E0,0E0,0E0,0E0,0E0,1.6777779E0,2.7474747E0,1.6635847E0,8.333334E-1,0E0,0E0,1.5833334E0,0E0,0E0,6.222224E-1,0E0,0E0,0E0,3.7023811E0,1.1071428E0,6.576929E-1,2.089913E0,2.2E0,4.6978393E0,2.5706253E0,1.4592476E0,0E0,4.2734118E0,5.2047625E0,4.104642E0,4.4340177E0,4.994766E0,5.2971654E0,5.1319447E0,4.9583335E0,5.505616E0,0E0,5.337549E0,6.5202384E0,5.134736E0,5.3354807E0,3.2602777E0,1.1357144E0,2.3809526E0,0E0,4.6988764E0,8.150669E0,5.4676094E0,4.9641895E0,5.820689E0,5.5918126E0,3.7592602E0,2.1801472E0,0E0,1.5833334E0,3.0248702E0,0E0,1.95E0,0E0,2.2E0,4.4602947E0,5.9523845E-1,1E0,1.476923E0,3.6239314E0,1.0606062E0,0E0,0E0,1.5560246E0,0E0,1.6666666E-1,0E0,3.4166667E0,1.4166667E0,4.5000005E-1,0E0,0E0,4.0282764E0,2.146513E0,4.329541E0,5.251254E0,3.3110766E0,6.98621E0,0E0,0E0,0E0,2.1000004E0,0E0,0E0,0E0,0E0,5.205326E-1,0E0,3.7053623E0,3.0575945E0,3.857094E0,6.8042502E0,4.7146897E0,1.6893942E0,0E0,1.9722223E0,6.2151265E0,5.3922653E-2,2.3809526E0,0E0,1E0,0E0,1.7880955E0,4.826605E0,7.754249E0,4.779412E0,7.261116E0,1.3111888E0,2.7526894E0,2E0,0E0,3.835167E0,2.780303E0,3.350029E0,0E0,2.2476192E0,1.9219208E0,8.3962965E0,0E0,2.3107276E0,3.0017605E0,4.3750005E0,4.997078E0,7.420374E0,0E0,0E0,4.7239842E0,1.0417543E1,0E0,0E0,5.2512264E0,4.4109344E0,7.954048E0,5.1798697E0,6.4285755E-1,3.6844835E0,1.4318182E0,3.8789272E0,3.4038715E0,2.2348485E0,3.871212E0,2.7041476E0,4.087824E0,2.6188035E0,2.1200824E0,8.712624E0,3.6336937E0,3.880464E0,5.131097E0,8.212172E0,3.483478E0,4.8538013E0,7.1359615E0,1.1867687E1,8.371157E0,3.845934E0,8.246067E0,3.0807476E0,8.388157E-1,2.3333335E0,5.023204E0,0E0,3.7872543E0,6.8055534E-1,6.2906837E0,0E0,7.413233E0,7.7564144E-1,5.8189163E0,5.95E0,3.7142944E-1,5.1615186E0,0E0,1E0,1.7205555E0,0E0,2.449761E0,8.374497E0,4.0149927E0,3.0899937E0,5.2423096E0,1.0122874E1,4.5584617E0,5.2090816E0,2.4399996E0,0E0,5.5504956E0,3.0663147E0,4.5000005E-1,1.391304E0,3.2005384E0,5.556085E0,4.654546E0,2.1891308E0,2.092857E0,2.897504E0,3.9921076E0,4.293778E0,8.0149145E0,5.489479E0,6.759907E0,6.2203183E0,8.980204E0,4.0038257E0,4.6991243E0,6.913206E0,1.1522342E1,2.063976E1,0E0,0E0,0E0,0E0,0E0,0E0,0E0,0E0,0E0,0E0,0E0,0E0,0E0,0E0,0E0,0E0,0E0,0E0,0E0,0E0,0E0,0E0,0E0,0E0,0E0,0E0,0E0,0E0,0E0,0E0,0E0,0E0,0E0,0E0,0E0,0E0,0E0,0E0,0E0,0E0,0E0,0E0,0E0,0E0,0E0,0E0,0E0,0E0,0E0,0E0,0E0,0E0,0E0,0E0,0E0,0E0,0E0,0E0,0E0,0E0,0E0,0E0,0E0,0E0,0E0,0E0,0E0,0E0,0E0,0E0,0E0,0E0,0E0,0E0,0E0,0E0,0E0,0E0,0E0,0E0,0E0,0E0,0E0,0E0,0E0,0E0,0E0,0E0,0E0,0E0,0E0,0E0,0E0,0E0,0E0,0E0,0E0,0E0,0E0,0E0,0E0,0E0,0E0,0E0,0E0,0E0,0E0,0E0,0E0,0E0,0E0,0E0,0E0,0E0,0E0,0E0,0E0,0E0,0E0,0E0,0E0,0E0,0E0,0E0,0E0,0E0,0E0,0E0,0E0,0E0,0E0,0E0,0E0,0E0,0E0,0E0,0E0,0E0,0E0,0E0,0E0,0E0,0E0,0E0,0E0,0E0,0E0,0E0,0E0,0E0,0E0,0E0,0E0,0E0,0E0,0E0,0E0,0E0,0E0,0E0,0E0,0E0,0E0,0E0,0E0,0E0,0E0,0E0,0E0,0E0,0E0,0E0,0E0,0E0,0E0,0E0,0E0,0E0,0E0,0E0,0E0,0E0,0E0,0E0,0E0,0E0,0E0,0E0,0E0,0E0,0E0,0E0,0E0,0E0,0E0,0E0,0E0,0E0,0E0,0E0,0E0,0E0,0E0,0E0,0E0,0E0,0E0,0E0,0E0,0E0,0E0,0E0,0E0,0E0,0E0,0E0,0E0,0E0,0E0,0E0,0E0,0E0,0E0,0E0,0E0,0E0,0E0,0E0,0E0,0E0,0E0,0E0,0E0,0E0,0E0,0E0,0E0,0E0,0E0,0E0,0E0,0E0,0E0,0E0,0E0,0E0,0E0,0E0,0E0,0E0,0E0,0E0,0E0,0E0,0E0,0E0,0E0,0E0,0E0,0E0,0E0,0E0,0E0,0E0,0E0,0E0,0E0,0E0,0E0,0E0,0E0,0E0,0E0,0E0,0E0,0E0,0E0,0E0,0E0,0E0,0E0,0E0,0E0,0E0,0E0,0E0,0E0,0E0,0E0,0E0,0E0,0E0,0E0,0E0,0E0,0E0,0E0,0E0,0E0,0E0,0E0,0E0,0E0,0E0,0E0,0E0,0E0,0E0,0E0,0E0,0E0,0E0,0E0,0E0,0E0,0E0,0E0,0E0,0E0,0E0,0E0,0E0,0E0,0E0,0E0,0E0,0E0,0E0,0E0,0E0,0E0,0E0,0E0,0E0],"parents":[2147483647,0,0,1,1,2,2,3,3,4,4,5,5,6,6,7,7,8,8,9,9,10,10,11,11,12,12,13,13,14,14,15,15,16,16,17,17,18,18,19,19,20,20,21,21,22,22,23,23,24,24,25,25,26,26,27,27,28,28,29,29,30,30,31,31,32,32,34,34,35,35,36,36,37,37,38,38,39,39,40,40,41,41,42,42,43,43,44,44,45,45,46,46,47,47,48,48,49,49,50,50,51,51,52,52,53,53,54,54,55,55,56,56,57,57,58,58,59,59,60,60,61,61,62,62,63,63,64,64,65,65,67,67,69,69,70,70,71,71,72,72,73,73,74,74,75,75,76,76,77,77,78,78,79,79,80,80,81,81,82,82,83,83,85,85,86,86,87,87,88,88,89,89,90,90,91,91,92,92,93,93,94,94,95,95,96,96,97,97,98,98,99,99,100,100,101,101,102,102,103,103,104,104,105,105,106,106,107,107,108,108,109,109,110,110,111,111,112,112,113,113,115,115,116,116,117,117,118,118,119,119,120,120,121,121,122,122,123,123,124,124,125,125,126,126,127,127,129,129,130,130,131,131,133,133,134,134,136,136,137,137,138,138,139,139,141,141,142,142,143,143,144,144,145,145,146,146,147,147,148,148,149,149,150,150,151,151,152,152,153,153,154,154,155,155,156,156,157,157,158,158,159,159,160,160,161,161,162,162,164,164,165,165,166,166,167,167,168,168,169,169,170,170,171,171,172,172,173,173,174,174,175,175,176,176,177,177,178,178,179,179,180,180,181,181,182,182,183,183,184,184,185,185,186,186,187,187,188,188,189,189,190,190,191,191,192,192,193,193,194,194,195,195,197,197,198,198,199,199,200,200,201,201,202,202,203,203,204,204,205,205,206,206,207,207,208,208,209,209,210,210,211,211,212,212,213,213,214,214,215,215,217,217,218,218,219,219,220,220,222,222,224,224,225,225,226,226,227,227,228,228,229,229,230,230,231,231,232,232,233,233,234,234,235,235,236,236,237,237,238,238,239,239,240,240,242,242,247,247,248,248,249,249,250,250,253,253,256,256,260,260,261,261,262,262,263,263,264,264,265,265,266,266,267,267,269,269,270,270,271,271,272,272,273,273,274,274,275,275,276,276,277,277,279,279,280,280,281,281,282,282,283,283,284,284,285,285,287,287,288,288,289,289,290,290,291,291,292,292,293,293,294,294,296,296,297,297,299,299,301,301,302,302,303,303,304,304,305,305,306,306,307,307,310,310,312,312,314,314,315,315,316,316,319,319,320,320,321,321,322,322,323,323,324,324,328,328,333,333,335,335,336,336,337,337,338,338,339,339,340,340,342,342,343,343,344,344,345,345,347,347,349,349,350,350,351,351,352,352,353,353,354,354,355,355,356,356,358,358,359,359,360,360,362,362,363,363,364,364,366,366,367,367,368,368,369,369,370,370,373,373,374,374,377,377,378,378,379,379,380,380,381,381,382,382,383,383,384,384,385,385,386,386,387,387,388,388,389,389,390,390,391,391,392,392,393,393,394,394,395,395,396,396,397,397,398,398,399,399,400,400,401,401,402,402,403,403,404,404,405,405,406,406,407,407,409,409,410,410,411,411,413,413,414,414,415,415,416,416,417,417,418,418,420,420,421,421,423,423,424,424,425,425,426,426,427,427,428,428,429,429,430,430,431,431,433,433,434,434,435,435,436,436,437,437,438,438,439,439,440,440,441,441,442,442,443,443,444,444,445,445,446,446,447,447,448,448,449,449,450,450,451,451,452,452,453,453,454,454],"right_children":[2,4,6,8,10,12,14,16,18,20,22,24,26,28,30,32,34,36,38,40,42,44,46,48,50,52,54,56,58,60,62,64,66,-1,68,70,72,74,76,78,80,82,84,86,88,90,92,94,96,98,100,102,104,106,108,110,112,114,116,118,120,122,124,126,128,130,-1,132,-1,134,136,138,140,142,144,146,148,150,152,154,156,158,160,162,-1,164,166,168,170,172,174,176,178,180,182,184,186,188,190,192,194,196,198,200,202,204,206,208,210,212,214,216,218,220,-1,222,224,226,228,230,232,234,236,238,240,242,244,246,-1,248,250,252,-1,254,256,-1,258,260,262,264,-1,266,268,270,272,274,276,278,280,282,284,286,288,290,292,294,296,298,300,302,304,306,308,-1,310,312,314,316,318,320,322,324,326,328,330,332,334,336,338,340,342,344,346,348,350,352,354,356,358,360,362,364,366,368,370,372,-1,374,376,378,380,382,384,386,388,390,392,394,396,398,400,402,404,406,408,410,-1,412,414,416,418,-1,420,-1,422,424,426,428,430,432,434,436,438,440,442,444,446,448,450,452,454,-1,456,-1,-1,-1,-1,458,460,462,464,-1,-1,466,-1,-1,468,-1,-1,-1,470,472,474,476,478,480,482,484,-1,486,488,490,492,494,496,498,500,502,-1,504,506,508,510,512,514,516,-1,518,520,522,524,526,528,530,532,-1,534,536,-1,538,-1,540,542,544,546,548,550,552,-1,-1,554,-1,556,-1,558,560,562,-1,-1,564,566,568,570,572,574,-1,-1,-1,576,-1,-1,-1,-1,578,-1,580,582,584,586,588,590,-1,592,594,596,598,-1,600,-1,602,604,606,608,610,612,614,616,-1,618,620,622,-1,624,626,628,-1,630,632,634,636,638,-1,-1,640,642,-1,-1,644,646,648,650,652,654,656,658,660,662,664,666,668,670,672,674,676,678,680,682,684,686,688,690,692,694,696,698,700,702,704,-1,706,708,710,-1,712,714,716,718,720,722,-1,724,726,-1,728,730,732,734,736,738,740,742,744,-1,746,748,750,752,754,756,758,760,762,764,766,768,770,772,774,776,778,780,782,784,786,788,-1,-1,-1,-1,-1,-1,-1,-1,-1,-1,-1,-1,-1,-1,-1,-1,-1,-1,-1,-1,-1,-1,-1,-1,-1,-1,-1,-1,-1,-1,-1,-1,-1,-1,-1,-1,-1,-1,-1,-1,-1,-1,-1,-1,-1,-1,-1,-1,-1,-1,-1,-1,-1,-1,-1,-1,-1,-1,-1,-1,-1,-1,-1,-1,-1,-1,-1,-1,-1,-1,-1,-1,-1,-1,-1,-1,-1,-1,-1,-1,-1,-1,-1,-1,-1,-1,-1,-1,-1,-1,-1,-1,-1,-1,-1,-1,-1,-1,-1,-1,-1,-1,-1,-1,-1,-1,-1,-1,-1,-1,-1,-1,-1,-1,-1,-1,-1,-1,-1,-1,-1,-1,-1,-1,-1,-1,-1,-1,-1,-1,-1,-1,-1,-1,-1,-1,-1,-1,-1,-1,-1,-1,-1,-1,-1,-1,-1,-1,-1,-1,-1,-1,-1,-1,-1,-1,-1,-1,-1,-1,-1,-1,-1,-1,-1,-1,-1,-1,-1,-1,-1,-1,-1,-1,-1,-1,-1,-1,-1,-1,-1,-1,-1,-1,-1,-1,-1,-1,-1,-1,-1,-1,-1,-1,-1,-1,-1,-1,-1,-1,-1,-1,-1,-1,-1,-1,-1,-1,-1,-1,-1,-1,-1,-1,-1,-1,-1,-1,-1,-1,-1,-1,-1,-1,-1,-1,-1,-1,-1,-1,-1,-1,-1,-1,-1,-1,-1,-1,-1,-1,-1,-1,-1,-1,-1,-1,-1,-1,-1,-1,-1,-1,-1,-1,-1,-1,-1,-1,-1,-1,-1,-1,-1,-1,-1,-1,-1,-1,-1,-1,-1,-1,-1,-1,-1,-1,-1,-1,-1,-1,-1,-1,-1,-1,-1,-1,-1,-1,-1,-1,-1,-1,-1,-1,-1,-1,-1,-1,-1,-1,-1,-1,-1,-1,-1,-1,-1,-1,-1,-1,-1,-1,-1,-1,-1,-1,-1,-1,-1,-1,-1,-1,-1,-1,-1,-1,-1,-1,-1,-1,-1,-1,-1,-1],"split_conditions":[5.273E0,5.2311087E0,5.332719E0,5.0172796E0,5.351858E0,5.273E0,5.351858E0,8.00102E0,5.209486E0,6.650279E0,5.267858E0,5.365976E0,5.3375382E0,8.4546795E0,5.3752785E0,5.3752785E0,4.9904327E0,5.09375E0,6.664409E0,5.327876E0,7.2997975E0,5.267858E0,5.267858E0,6.658011E0,5.4380794E0,5.1119876E0,5.3752785E0,5.3375382E0,5.3375382E0,6.2265368E0,5.3752785E0,5.267858E0,7.6029005E0,1.0136628E-1,5.049856E0,5.209486E0,5.3375382E0,5.398163E0,5.5373344E0,5.267858E0,7.931644E0,6.951772E0,8.046229E0,5.398163E0,5.241747E0,7.5379624E0,5.075174E0,5.3375382E0,5.313206E0,5.420535E0,5.4764633E0,5.267858E0,8.046229E0,6.516193E0,5.2311087E0,7.931644E0,5.3471074E0,8.317766E0,8.549854E0,5.365976E0,5.5451775E0,5.5134287E0,5.420535E0,4.9904327E0,7.1123276E0,5.4293456E0,-1.732868E-1,6.846943E0,-1.732868E-1,5.09375E0,5.214936E0,6.973543E0,6.729824E0,5.3423343E0,7.4792995E0,5.247024E0,5.7838254E0,5.26269E0,5.09375E0,7.207119E0,7.5115247E0,6.6933236E0,7.0201907E0,7.166266E0,-1.732868E-1,5.1298985E0,6.582025E0,5.1532917E0,5.6664267E0,7.3683395E0,5.609472E0,6.3207684E0,5.3033047E0,7.1196356E0,5.3612924E0,5.1298985E0,5.332719E0,5.081404E0,8.317766E0,6.079933E0,5.236442E0,5.062595E0,7.1577353E0,5.4424176E0,5.31812E0,7.7310534E0,6.658011E0,5.463832E0,5.6869755E0,6.496775E0,5.3612924E0,8.670944E0,5.2574954E0,5.313206E0,-1.732868E-1,5.313206E0,5.32301E0,6.5250297E0,5.2311087E0,5.1119876E0,6.2595816E0,6.291569E0,5.3844953E0,8.021256E0,5.616771E0,5.236442E0,5.049856E0,6.274762E0,0E0,5.389072E0,7.355002E0,6.7979403E0,-7.1920514E-2,5.1474943E0,5.0689044E0,5.5785894E-2,7.355002E0,5.1474943E0,5.1474943E0,7.577634E0,2.5186288E-1,7.166266E0,8.573384E0,7.8883343E0,5.209486E0,7.037906E0,5.220356E0,7.3907986E0,6.6476884E0,7.5283318E0,7.4838066E0,5.09375E0,5.273E0,5.2040067E0,5.370638E0,7.21524E0,5.327876E0,5.267858E0,6.7286286E0,7.0273147E0,5.26269E0,7.5827384E0,5.267858E0,-1.732868E-1,5.187386E0,5.123964E0,7.075809E0,5.1298985E0,8.549854E0,5.560682E0,6.383507E0,5.159055E0,5.214936E0,5.3612924E0,5.2522736E0,6.274762E0,8.134761E0,7.5283318E0,7.166266E0,5.332719E0,5.187386E0,6.675823E0,6.910751E0,5.062595E0,7.063904E0,5.2311087E0,6.9902563E0,5.4026775E0,4.983607E0,6.395262E0,5.1298985E0,5.187386E0,6.104793E0,7.562681E0,5.220356E0,5.293305E0,-1.732868E-1,6.559615E0,5.3375382E0,5.3375382E0,8.135054E0,5.164786E0,5.398163E0,7.6029005E0,8.2071295E0,6.0088134E0,5.043425E0,5.043425E0,5.3082676E0,5.398163E0,5.8081427E0,7.355002E0,5.3423343E0,5.641907E0,6.1092477E0,7.331715E0,-1.732868E-1,6.729824E0,9.33565E0,9.103535E0,5.4293456E0,-1.732868E-1,6.54103E0,4.0329346E-1,5.9584246E0,5.313206E0,7.218177E0,7.108244E0,5.09375E0,6.1136823E0,5.602119E0,5.1474943E0,5.7462034E0,5.351858E0,6.317165E0,7.21524E0,5.398163E0,5.411646E0,8.549854E0,5.4595857E0,5.609472E0,-1.732868E-1,6.40688E0,3.0392724E-1,-7.1920514E-2,0E0,-1.732868E-1,5.192957E0,7.179308E0,5.159055E0,6.079933E0,0E0,2.2907269E-1,5.062595E0,-7.1920514E-2,-1.732868E-1,5.1059456E0,-1.732868E-1,2.9466373E-1,-1.732868E-1,5.17615E0,5.192957E0,5.1474943E0,5.17615E0,5.192957E0,5.3033047E0,7.5827384E0,6.802395E0,2.5796163E-1,7.0656133E0,8.922392E0,7.2997975E0,6.461468E0,6.7165947E0,7.779467E0,5.164786E0,6.265301E0,6.5778613E0,-7.1920514E-2,7.0282016E0,5.4722705E0,5.17615E0,5.056246E0,5.123964E0,5.497168E0,7.80751E0,-1.732868E-1,6.6133842E0,5.3082676E0,7.805882E0,7.612831E0,5.8348107E0,5.26269E0,8.134761E0,5.9053617E0,-1.732868E-1,5.123964E0,5.365976E0,-7.1920514E-2,7.166266E0,2.7113172E-1,5.2574954E0,5.3033047E0,5.4026775E0,5.2983174E0,5.267858E0,8.028781E0,7.503841E0,-1.732868E-1,1.8448831E-1,5.236442E0,2.9466373E-1,5.2574954E0,-1.732868E-1,5.2522736E0,5.2574954E0,6.349139E0,1.3990393E-1,-1.732868E-1,7.6690283E0,8.670944E0,6.2672005E0,5.961005E0,6.7286286E0,6.7153835E0,1.8448831E-1,0E0,4.7738564E-1,5.123964E0,7.857609E-2,-1.732868E-1,-1.732868E-1,0E0,5.123964E0,-1.732868E-1,5.488938E0,5.214936E0,5.241747E0,5.4161005E0,6.3438807E0,4.983607E0,-1.732868E-1,5.247024E0,6.526495E0,5.2311087E0,6.291569E0,2.2907269E-1,5.0172796E0,-7.1920514E-2,5.3565865E0,5.2311087E0,5.313206E0,5.241747E0,7.635787E0,7.037906E0,7.355002E0,5.420535E0,2.9392192E-1,5.220356E0,5.1532917E0,5.09375E0,-1.22603655E-1,8.695004E0,5.0238805E0,5.2522736E0,1.2063511E-1,7.9735E0,5.09375E0,7.904704E0,5.09375E0,7.145196E0,-7.1920514E-2,0E0,5.488938E0,6.3902407E0,0E0,-1.732868E-1,7.493317E0,5.0238805E0,7.9186287E0,5.1532917E0,8.119101E0,5.192957E0,6.906755E0,9.019785E0,5.370638E0,5.7137327E0,6.3438807E0,5.31812E0,8.119101E0,5.411646E0,5.293305E0,7.202661E0,7.2765565E0,5.075174E0,7.805882E0,5.5053315E0,5.2983174E0,6.089045E0,5.3936276E0,5.5012584E0,7.2399325E0,5.332719E0,5.3082676E0,5.3936276E0,5.3471074E0,6.7250338E0,5.332719E0,-1.732868E-1,5.3375382E0,8.53405E0,5.3375382E0,-1.732868E-1,6.7381525E0,7.427144E0,5.8318825E0,6.499787E0,5.3844953E0,5.4467373E0,4.4464153E-1,6.675823E0,6.6515718E0,-1.732868E-1,5.293305E0,5.3612924E0,6.58755E0,5.351858E0,5.379897E0,6.7286286E0,5.3375382E0,5.365976E0,7.9233484E0,-7.1920514E-2,8.475121E0,5.2257466E0,5.4553213E0,8.361007E0,5.379897E0,6.156979E0,6.731018E0,7.2765565E0,5.484797E0,5.3565865E0,5.09375E0,6.6280413E0,5.3565865E0,5.463832E0,5.1119876E0,5.4161005E0,5.370638E0,5.872118E0,5.5174527E0,5.6970935E0,6.115892E0,5.575949E0,-1.732868E-1,5.5785894E-2,-1.732868E-1,5.5785894E-2,-7.1920514E-2,3.086448E-1,1.4733186E-1,-7.1920514E-2,1.2925923E-1,0E0,-7.1920514E-2,9.784491E-2,-3.5960257E-2,-1.732868E-1,3.3043897E-1,-7.1920514E-2,-1.732868E-1,5.5785894E-2,5.5785894E-2,2.5290024E-1,1.3990393E-1,0E0,-7.1920514E-2,1.5659536E-1,-7.1920514E-2,1.0136628E-1,-1.732868E-1,-7.1920514E-2,-7.1920514E-2,-1.732868E-1,-7.1920514E-2,5.5785894E-2,-7.1920514E-2,1.3990393E-1,-7.1920514E-2,0E0,2.1590263E-1,-7.1920514E-2,-7.1920514E-2,-7.1920514E-2,0E0,-7.1920514E-2,0E0,1.7131825E-1,-1.732868E-1,3.451001E-1,1.0136628E-1,-7.1920514E-2,0E0,-1.732868E-1,-1.732868E-1,5.5785894E-2,1.0136628E-1,0E0,1.3732654E-1,-1.732868E-1,-1.22603655E-1,7.857609E-2,-1.22603655E-1,1.0136628E-1,1.3990393E-1,-7.1920514E-2,0E0,-7.1920514E-2,2.6377666E-1,-7.1920514E-2,-7.1920514E-2,-1.732868E-1,-7.1920514E-2,0E0,-7.1920514E-2,1.3732654E-1,0E0,5.5785894E-2,-1.732868E-1,-7.1920514E-2,1.732868E-1,-1.732868E-1,2.5290024E-1,-1.732868E-1,1.8800968E-1,-8.66434E-2,-1.732868E-1,3.1319076E-1,-1.22603655E-1,1.0136628E-1,-1.732868E-1,1.3990393E-1,-7.1920514E-2,0E0,5.3501654E-1,-1.732868E-1,-1.732868E-1,0E0,1.8448833E-1,-7.1920514E-2,1.0136628E-1,1.0136628E-1,0E0,1.0136628E-1,-1.732868E-1,0E0,-1.732868E-1,1.3990393E-1,-1.732868E-1,3.157161E-1,0E0,-7.1920514E-2,-7.1920514E-2,-7.1920514E-2,-7.1920514E-2,5.5785894E-2,1.3990393E-1,0E0,-7.1920514E-2,-1.732868E-1,-1.732868E-1,-3.5960257E-2,5.5785894E-2,-7.1920514E-2,0E0,-7.1920514E-2,2.6658577E-1,2.0117974E-1,-7.1920514E-2,-7.1920514E-2,2.4098647E-1,2.7892947E-2,5.5785894E-2,0E0,-7.1920514E-2,0E0,1.2063511E-1,0E0,2.9466373E-1,-1.732868E-1,1.0136628E-1,-1.732868E-1,1.3990393E-1,-1.22603655E-1,2.5290024E-1,2.7465308E-1,3.6172974E-1,-1.732868E-1,-1.732868E-1,3.3043897E-1,-1.732868E-1,4.7738564E-1,2.5290024E-1,-7.1920514E-2,0E0,1.3990393E-1,-1.732868E-1,0E0,-7.1920514E-2,7.857609E-2,1.5204942E-1,0E0,-7.1920514E-2,5.5785894E-2,-1.732868E-1,1.732868E-1,1.0136628E-1,-7.1920514E-2,-1.732868E-1,9.784491E-2,0E0,-1.732868E-1,3.0254602E-1,-8.66434E-2,-5.875045E-2,-1.732868E-1,1.0136628E-1,-7.1920514E-2,5.5785894E-2,1.3732654E-1,-7.1920514E-2,1.2063511E-1,-1.732868E-1,1.14536345E-1,-7.1920514E-2,-7.1920514E-2,0E0,-7.1920514E-2,-7.1920514E-2,0E0,5.5785894E-2,-7.1920514E-2,-7.1920514E-2,0E0,1.0136628E-1,-7.1920514E-2,-7.1920514E-2,1.0136628E-1,1.0136628E-1,-1.732868E-1,-1.732868E-1,0E0,-7.1920514E-2,5.5785894E-2,5.5785894E-2,-1.732868E-1,-1.732868E-1,1.0136628E-1,0E0,-7.1920514E-2,-1.732868E-1,3.6172974E-1,1.0136628E-1,2.0273256E-1,1.3732654E-1,-7.1920514E-2,-7.1920514E-2,-1.22603655E-1,2.2907269E-1,-3.5960257E-2,-8.66434E-2,1.3990393E-1,0E0,-7.1920514E-2,5.5785894E-2,1.3990393E-1,-7.1920514E-2,5.5785894E-2,-1.732868E-1,1.732868E-1,-7.1920514E-2,5.5785894E-2,2.1728383E-1,5.5785894E-2,0E0,1.2063511E-1,5.5785894E-2,-7.1920514E-2,-7.1920514E-2,0E0,0E0,5.5785894E-2,-7.1920514E-2,-7.1920514E-2,-7.1920514E-2,5.5785894E-2,0E0,-7.1920514E-2,-1.732868E-1,-1.732868E-1,-1.732868E-1,2.3397526E-1,-7.1920514E-2,2.7378199E-1,-7.1920514E-2,1.0136628E-1,4.5814538E-1,0E0,5.5785894E-2,-7.1920514E-2,-7.1920514E-2,-7.1920514E-2,-7.1920514E-2,0E0,1.0136628E-1,-1.732868E-1,-1.732868E-1,1.0136628E-1,2.7465308E-1,2.3517145E-1,-1.732868E-1,1.3990393E-1,-1.732868E-1,6.8521E-1,5.5785894E-2,-7.1920514E-2,1.4722884E-2,2.0117974E-1,-7.1920514E-2,9.784491E-2,2.9466373E-1,1.0136628E-1,-7.1920514E-2,5.5785894E-2,0E0,-7.1920514E-2,-7.1920514E-2,1.2063511E-1,0E0,1.732868E-1,5.5785894E-2,0E0,3.1319076E-1,-1.732868E-1,0E0,-7.1920514E-2,1.0136628E-1,-7.1920514E-2,0E0,-1.732868E-1,1.3990393E-1,6.0688466E-2,-7.1920514E-2,0E0,1.0136628E-1,-7.1920514E-2,-7.1920514E-2,7.857609E-2,1.732868E-1,-7.1920514E-2,-7.1920514E-2,6.7701256E-1,5.5785894E-2,0E0,1.2063511E-1,0E0,-1.22603655E-1,-7.1920514E-2,-7.1920514E-2,1.0136628E-1,0E0,-7.1920514E-2,-1.732868E-1,0E0,0E0,0E0,-7.1920514E-2,1.0136628E-1,0E0,-7.1920514E-2,5.5785894E-2,0E0,5.5785894E-2,0E0,0E0,-7.1920514E-2,0E0,5.5785894E-2],"split_indices":[1,0,4,0,2,5,1,5,3,4,0,1,3,3,3,3,1,3,2,4,4,3,3,3,1,4,5,1,1,2,5,3,2,0,1,0,4,3,4,2,3,5,5,4,5,0,4,1,0,1,2,0,5,3,4,3,4,0,3,1,4,1,1,1,4,3,0,2,0,4,1,5,2,3,5,1,4,2,3,3,0,5,4,5,0,4,2,4,4,0,4,0,5,2,1,4,1,5,3,3,0,0,1,2,3,2,3,5,1,4,4,2,3,1,0,0,0,5,3,0,2,3,2,3,1,3,1,5,0,2,2,2,0,0,3,0,2,0,3,5,0,4,4,4,1,3,0,3,5,5,3,4,4,2,4,0,2,0,5,5,2,4,0,0,4,3,2,4,3,4,4,1,1,2,1,0,3,3,5,1,4,0,2,0,3,5,2,1,4,3,4,3,3,2,4,1,0,2,5,2,0,0,2,2,2,1,4,4,2,5,1,2,2,5,5,5,0,2,5,3,5,0,0,0,2,2,5,0,2,1,1,3,1,5,3,1,0,0,3,1,3,0,2,0,0,0,0,2,2,2,3,0,0,0,0,0,1,0,0,0,3,0,1,3,0,3,4,4,0,4,4,4,4,5,3,0,3,5,0,2,3,3,2,3,5,5,0,0,5,0,0,5,1,3,5,0,1,3,0,4,0,0,3,3,2,0,4,5,0,0,0,0,0,0,0,0,2,0,0,2,2,5,3,0,0,0,0,0,1,0,0,0,0,1,0,2,1,1,2,3,4,0,4,0,4,3,0,0,0,1,0,1,5,3,3,2,0,0,0,4,4,0,3,3,3,0,0,4,2,4,3,0,0,1,5,0,0,1,3,0,4,2,3,0,5,5,0,3,1,2,0,0,0,0,4,0,1,2,5,5,5,2,0,3,3,5,0,1,0,3,5,0,0,3,0,4,2,4,5,0,0,0,0,3,3,5,3,1,5,3,5,5,0,5,0,1,5,1,1,0,0,1,1,2,0,0,3,0,2,1,5,5,2,4,5,0,0,0,0,0,0,0,0,0,0,0,0,0,0,0,0,0,0,0,0,0,0,0,0,0,0,0,0,0,0,0,0,0,0,0,0,0,0,0,0,0,0,0,0,0,0,0,0,0,0,0,0,0,0,0,0,0,0,0,0,0,0,0,0,0,0,0,0,0,0,0,0,0,0,0,0,0,0,0,0,0,0,0,0,0,0,0,0,0,0,0,0,0,0,0,0,0,0,0,0,0,0,0,0,0,0,0,0,0,0,0,0,0,0,0,0,0,0,0,0,0,0,0,0,0,0,0,0,0,0,0,0,0,0,0,0,0,0,0,0,0,0,0,0,0,0,0,0,0,0,0,0,0,0,0,0,0,0,0,0,0,0,0,0,0,0,0,0,0,0,0,0,0,0,0,0,0,0,0,0,0,0,0,0,0,0,0,0,0,0,0,0,0,0,0,0,0,0,0,0,0,0,0,0,0,0,0,0,0,0,0,0,0,0,0,0,0,0,0,0,0,0,0,0,0,0,0,0,0,0,0,0,0,0,0,0,0,0,0,0,0,0,0,0,0,0,0,0,0,0,0,0,0,0,0,0,0,0,0,0,0,0,0,0,0,0,0,0,0,0,0,0,0,0,0,0,0,0,0,0,0,0,0,0,0,0,0,0,0,0,0,0,0,0,0,0,0,0,0,0,0,0,0,0,0,0,0,0,0,0,0,0,0,0,0,0,0,0,0,0,0,0,0,0,0,0,0,0,0,0,0,0,0,0],"split_type":[0,0,0,0,0,0,0,0,0,0,0,0,0,0,0,0,0,0,0,0,0,0,0,0,0,0,0,0,0,0,0,0,0,0,0,0,0,0,0,0,0,0,0,0,0,0,0,0,0,0,0,0,0,0,0,0,0,0,0,0,0,0,0,0,0,0,0,0,0,0,0,0,0,0,0,0,0,0,0,0,0,0,0,0,0,0,0,0,0,0,0,0,0,0,0,0,0,0,0,0,0,0,0,0,0,0,0,0,0,0,0,0,0,0,0,0,0,0,0,0,0,0,0,0,0,0,0,0,0,0,0,0,0,0,0,0,0,0,0,0,0,0,0,0,0,0,0,0,0,0,0,0,0,0,0,0,0,0,0,0,0,0,0,0,0,0,0,0,0,0,0,0,0,0,0,0,0,0,0,0,0,0,0,0,0,0,0,0,0,0,0,0,0,0,0,0,0,0,0,0,0,0,0,0,0,0,0,0,0,0,0,0,0,0,0,0,0,0,0,0,0,0,0,0,0,0,0,0,0,0,0,0,0,0,0,0,0,0,0,0,0,0,0,0,0,0,0,0,0,0,0,0,0,0,0,0,0,0,0,0,0,0,0,0,0,0,0,0,0,0,0,0,0,0,0,0,0,0,0,0,0,0,0,0,0,0,0,0,0,0,0,0,0,0,0,0,0,0,0,0,0,0,0,0,0,0,0,0,0,0,0,0,0,0,0,0,0,0,0,0,0,0,0,0,0,0,0,0,0,0,0,0,0,0,0,0,0,0,0,0,0,0,0,0,0,0,0,0,0,0,0,0,0,0,0,0,0,0,0,0,0,0,0,0,0,0,0,0,0,0,0,0,0,0,0,0,0,0,0,0,0,0,0,0,0,0,0,0,0,0,0,0,0,0,0,0,0,0,0,0,0,0,0,0,0,0,0,0,0,0,0,0,0,0,0,0,0,0,0,0,0,0,0,0,0,0,0,0,0,0,0,0,0,0,0,0,0,0,0,0,0,0,0,0,0,0,0,0,0,0,0,0,0,0,0,0,0,0,0,0,0,0,0,0,0,0,0,0,0,0,0,0,0,0,0,0,0,0,0,0,0,0,0,0,0,0,0,0,0,0,0,0,0,0,0,0,0,0,0,0,0,0,0,0,0,0,0,0,0,0,0,0,0,0,0,0,0,0,0,0,0,0,0,0,0,0,0,0,0,0,0,0,0,0,0,0,0,0,0,0,0,0,0,0,0,0,0,0,0,0,0,0,0,0,0,0,0,0,0,0,0,0,0,0,0,0,0,0,0,0,0,0,0,0,0,0,0,0,0,0,0,0,0,0,0,0,0,0,0,0,0,0,0,0,0,0,0,0,0,0,0,0,0,0,0,0,0,0,0,0,0,0,0,0,0,0,0,0,0,0,0,0,0,0,0,0,0,0,0,0,0,0,0,0,0,0,0,0,0,0,0,0,0,0,0,0,0,0,0,0,0,0,0,0,0,0,0,0,0,0,0,0,0,0,0,0,0,0,0,0,0,0,0,0,0,0,0,0,0,0,0,0,0,0,0,0,0,0,0,0,0,0,0,0,0,0,0,0,0,0,0,0,0,0,0,0,0,0,0,0,0,0,0,0,0,0,0,0,0,0,0,0,0,0,0,0,0,0,0,0,0,0,0,0,0,0,0,0,0,0,0,0,0,0,0,0,0,0,0,0,0,0,0,0,0,0,0,0,0,0,0,0,0,0,0,0,0,0,0,0,0,0,0,0,0,0,0,0,0,0,0,0,0,0,0,0,0,0,0],"sum_hessian":[8.2454E4,8.226E3,7.4228E4,2.049E3,6.177E3,1.7462E4,5.6766E4,1.5E2,1.899E3,3.132E3,3.045E3,2.977E3,1.4485E4,9.85E3,4.6916E4,1.4E2,1E1,1.03E2,1.796E3,3.011E3,1.21E2,8.57E2,2.188E3,5.43E2,2.434E3,4.983E3,9.502E3,9.661E3,1.89E2,1.1796E4,3.512E4,3.4E1,1.06E2,5E0,5E0,2.9E1,7.4E1,9.73E2,8.23E2,7.94E2,2.217E3,6.6E1,5.5E1,6.4E1,7.93E2,2.04E2,1.984E3,1.72E2,3.71E2,4.84E2,1.95E3,3.21E2,4.662E3,4.648E3,4.854E3,7.424E3,2.237E3,1.47E2,4.2E1,8.164E3,3.632E3,2.029E3,3.3091E4,1.2E1,2.2E1,9.5E1,1.1E1,4E0,1E0,2.5E1,4E0,3.5E1,3.9E1,2.91E2,6.82E2,6.16E2,2.07E2,5.87E2,2.07E2,2.09E3,1.27E2,3.7E1,2.9E1,4.9E1,6E0,4.7E1,1.7E1,1.9E1,7.74E2,1.66E2,3.8E1,2.3E1,1.961E3,1.1E2,6.2E1,6.3E1,3.08E2,3.76E2,1.08E2,8.95E2,1.055E3,1.1E1,3.1E2,4.22E3,4.42E2,2.191E3,2.457E3,1.343E3,3.511E3,7.243E3,1.81E2,1.21E2,2.116E3,1.41E2,6E0,7E0,3.5E1,4.13E2,7.751E3,2.463E3,1.169E3,7.72E2,1.257E3,8.424E3,2.4667E4,9E0,3E0,2.1E1,1E0,1.9E1,7.6E1,3E0,1E0,6E0,1.9E1,1E0,3E0,1.7E1,1.8E1,2.7E1,1.2E1,1.63E2,1.28E2,5.64E2,1.18E2,5.84E2,3.2E1,9.8E1,1.09E2,5.42E2,4.5E1,7E0,2E2,1.883E3,2.07E2,1.05E2,2.2E1,2.1E1,1.6E1,2.1E1,8E0,3.7E1,1.2E1,3E0,4.4E1,5E0,1.2E1,9E0,1E1,4.89E2,2.85E2,1.59E2,7E0,3.5E1,3E0,4E0,1.9E1,1.29E2,1.832E3,9.6E1,1.4E1,5.5E1,7E0,1.6E1,4.7E1,1.7E2,1.38E2,3.7E1,3.39E2,1E2,8E0,8.29E2,6.6E1,4.3E1,1.012E3,2E0,9E0,3E2,1E1,1.401E3,2.819E3,3.86E2,5.6E1,2.125E3,6.6E1,2.74E2,2.183E3,4.85E2,8.58E2,1.992E3,1.519E3,6.038E3,1.205E3,2.3E1,1.58E2,1.18E2,3E0,9.2E1,2.024E3,8.3E1,5.8E1,1E0,6E0,2E0,3.3E1,8.8E1,3.25E2,1.265E3,6.486E3,2.5E1,2.438E3,2.8E1,1.141E3,3.6E1,7.36E2,2.96E2,9.61E2,8.004E3,4.2E2,1.0544E4,1.4123E4,7E0,2E0,2E0,1E0,1E0,2E1,9E0,1E1,6.9E1,7E0,2E0,1E0,3E0,3E0,1.1E1,8E0,2E0,1E0,6E0,1.1E1,6E0,1.2E1,1.8E1,9E0,1.27E2,3.6E1,1.26E2,2E0,5.3E2,3.4E1,7.8E1,4E1,4.26E2,1.58E2,2.3E1,9E0,9.1E1,7E0,5.4E1,5.5E1,5E2,4.2E1,3.6E1,9E0,6E0,1E0,1E2,1E2,6.32E2,1.251E3,5.7E1,1.5E2,8.9E1,1.6E1,1.9E1,3E0,1.8E1,3E0,4E0,1.2E1,5E0,1.6E1,6E0,2E0,1.2E1,2.5E1,1E1,2E0,8E0,3.6E1,3E0,2E0,7E0,5E0,5E0,4E0,9E0,1E0,4.52E2,3.7E1,1.37E2,1.48E2,3.6E1,1.23E2,6E0,1E0,1E0,3.4E1,2E0,1E0,2E0,2E0,1.8E1,1E0,9.9E1,3E1,1.511E3,3.21E2,8.5E1,1.1E1,6E0,8E0,3.9E1,1.6E1,6E0,1E0,2E0,1.4E1,2E1,2.7E1,1.03E2,6.7E1,1.13E2,2.5E1,3E1,7E0,4E0,3.35E2,1.5E1,8.5E1,2E0,6E0,4.4E1,7.85E2,6E0,6E1,3.6E1,7E0,5.84E2,4.28E2,1E0,1E0,1.87E2,1.13E2,1E0,9E0,8.79E2,5.22E2,2.732E3,8.7E1,7E0,3.79E2,1E1,4.6E1,2.114E3,1.1E1,3.2E1,3.4E1,2.62E2,1.2E1,2.2E1,2.161E3,9.5E1,3.9E2,4.7E1,8.11E2,2.16E2,1.776E3,1.34E2,1.385E3,5.452E3,5.86E2,4.9E2,7.15E2,1.8E1,5E0,1.49E2,9E0,1.1E2,8E0,8E1,1.2E1,2.012E3,1.2E1,6.4E1,1.9E1,1.7E1,4.1E1,4E0,2E0,2.4E1,9E0,1.8E1,7E1,2.1E2,1.15E2,9.8E2,2.85E2,7.4E1,6.412E3,2.4E1,1E0,1.594E3,8.44E2,4E0,2.4E1,8.16E2,3.25E2,1.4E1,2.2E1,2E1,7.16E2,1.8E2,1.16E2,1.45E2,8.16E2,4.169E3,3.835E3,2.69E2,1.51E2,3.604E3,6.94E3,7.086E3,7.037E3,1E0,1E0,1E0,8E0,8E0,2E0,2E0,6.7E1,2E0,5E0,1E0,2E0,4E0,4E0,5E0,6E0,3E0,3E0,3E0,9E0,1.1E1,7E0,5E0,4E0,7E1,5.7E1,1.3E1,2.3E1,7.7E1,4.9E1,4.45E2,8.5E1,2.9E1,5E0,5.9E1,1.9E1,1E1,3E1,2.71E2,1.55E2,8.4E1,7.4E1,1.5E1,8E0,7E0,2E0,4.7E1,4.4E1,2.2E1,3.2E1,2.6E1,2.9E1,3.3E1,4.67E2,4E0,3.8E1,4E0,3.2E1,6E0,3E0,5E0,1E0,2.6E1,7.4E1,1.8E1,8.2E1,5.32E2,1E2,1.014E3,2.37E2,5.3E1,4E0,1.29E2,2.1E1,2.6E1,6.3E1,1.5E1,1E0,1E0,2E0,1.2E1,6E0,1E0,3E0,4E0,1E0,7E0,9E0,5E0,1E0,1E0,1E0,9E0,3E0,8E0,1.7E1,5E0,5E0,5E0,3.1E1,1E0,1E0,2E0,3E0,3E0,2E0,1E0,3E0,3.66E2,8.6E1,3.6E1,1E0,3E1,1.07E2,1.31E2,1.7E1,2E1,1.6E1,6.7E1,5.6E1,5E0,2.9E1,6E0,1.2E1,5.2E1,4.7E1,1.2E1,1.8E1,9.54E2,5.57E2,8.6E1,2.35E2,2.2E1,6.3E1,1E0,1E1,5E0,3E0,3.3E1,6E0,1.1E1,5E0,1E0,5E0,1E0,1E0,1.9E1,1E0,5E0,2.2E1,6.7E1,3.6E1,1.5E1,5.2E1,8.3E1,3E1,1E1,1.5E1,2.9E1,1E0,2E0,5E0,1.1E1,3.24E2,5E0,1E1,8E0,7.7E1,4E0,2E0,8E0,3.6E1,5.6E1,7.29E2,5.6E1,4E0,8E0,2.8E1,5E0,2E0,1.45E2,4.39E2,3.19E2,1.09E2,1.15E2,7.2E1,1.4E1,9.9E1,7.06E2,1.73E2,3E0,5.19E2,2.691E3,4.1E1,4E0,8.3E1,6E0,1E0,6.6E1,3.13E2,7E0,3E0,4.1E1,5E0,2.068E3,4.6E1,1E1,1E0,1.1E1,2.1E1,4E0,3E1,2.48E2,1.4E1,4E0,8E0,2E0,2E1,1.82E3,3.41E2,7.5E1,2E1,2.5E1,3.65E2,4E1,7E0,3.86E2,4.25E2,6E0,2.1E2,1.7E3,7.6E1,1.1E1,1.23E2,6.14E2,7.71E2,5.381E3,7.1E1,5.43E2,4.3E1,1.84E2,3.06E2,1.26E2,5.89E2,3E0,1.5E1,3E0,2E0,1.39E2,1E1,1E1,1E2,7E0,1E0,1.5E1,6.5E1,1.631E3,3.81E2,1.1E1,1E0,6E1,4E0,1.1E1,8E0,1.3E1,4E0,5E0,3.6E1,1E0,1E0,7E0,1.7E1,8E0,1E1,5.8E1,1.2E1,1.5E1,1.95E2,9.4E1,2.1E1,5.3E1,9.27E2,2.15E2,7E1,4.9E1,2.5E1,1.89E2,6.223E3,2.3E1,1E0,1.516E3,7.8E1,2.9E1,8.15E2,1E0,3E0,2.2E1,2E0,1.11E2,7.05E2,2.85E2,4E1,1E1,4E0,1.9E1,3E0,1.9E1,1E0,3.2E1,6.84E2,6E0,1.74E2,4.2E1,7.4E1,1.05E2,4E1,1.45E2,6.71E2,6.7E1,4.102E3,1.853E3,1.982E3,7.4E1,1.95E2,1.26E2,2.5E1,7.26E2,2.878E3,3.249E3,3.691E3,5.194E3,1.892E3,2.795E3,4.242E3],"tree_param":{"num_deleted":"0","num_feature":"6","num_nodes":"789","size_leaf_vector":"1"}},{"base_weights":[-3.9548844E-2,-9.8744534E-2,-3.398039E-2,-1.5427136E-1,-7.705882E-2,-7.694422E-2,-2.6702456E-2,-7.368421E-1,-1.4858012E-1,-1.0818713E-1,-4.1014798E-2,-1.5377933E-1,-6.7881644E-2,-5.2725084E-2,-1.7041465E-2,-2.34375E-1,2.5E-1,2.3809524E-1,-1.6125655E-1,-1.1634036E-1,1.6049382E-1,-9.128631E-2,1.1197244E-2,2.2857143E-1,-1.656222E-1,-3.0476874E-2,-8.281989E-2,-8.3058104E-2,-2.5983827E-2,-3.6458008E-2,-7.0293103E-3,-1.25E-1,1.6666667E-1,-2.1052632E-1,4.2222223E-1,-1.0603113E-1,-2.2536807E-1,-1.03477165E-1,-2.2962964E-1,3.2786883E-2,5.2380955E-1,2.3178808E-2,-1.2942478E-1,-1.7073171E-1,3.2723773E-2,-5.5555556E-2,5E-1,-1.1884754E-1,-3.017544E-1,-5.769231E-1,-2.5325615E-2,3.6842105E-1,-8.652318E-2,-1.7518248E-1,-7.4622884E-2,-4.57033E-2,2.7037773E-2,-2.2280471E-2,-7.213547E-2,-2.5119072E-2,1.0645757E-2,7.1428575E-2,-2.0833333E-1,-0E0,6.1290324E-1,-1.17179744E-1,4.090909E-1,-2.3892774E-1,2.3076923E-1,-1.0782241E-1,3.478261E-1,-2.6070037E-1,3.5714287E-1,4.375E-1,-1.0869565E-1,-4E-1,7.647059E-1,4.5945945E-1,-3.7593983E-2,-1.0375E-1,-3.2380953E-1,-3.188406E-1,1.8181818E-2,6.666667E-1,2.3414634E-2,-4.1666666E-1,5.714286E-1,7.2727275E-1,1.25E-1,-1.4543115E-1,2.4561404E-1,-4.8387095E-2,-3.705357E-1,-8.333333E-1,-0E0,-1.9555555E-1,-1.023622E-2,-0E0,5.5263156E-1,-1.5434606E-2,-1.018795E-1,3.6231883E-2,-2.2810219E-1,-9.392828E-2,-3.7925698E-2,-3.945765E-2,-2.5252524E-1,-3.777336E-2,7.019868E-2,-2.4777357E-2,2.4761905E-1,-1.16731515E-2,-9.5924E-2,-1.8766755E-2,-1.0311958E-1,-2.1376872E-2,3.0163128E-2,3.6363637E-1,-1.875E-1,-5E-1,2.0833333E-1,2.2916667E-1,4E-1,-2.2801302E-1,-6.847361E-2,6.666667E-1,-1.25E-1,-2.4821852E-1,2.3529412E-1,6.363636E-1,-6.25E-2,3.9215688E-2,-1.1793945E-1,-1.6666667E-1,5E-1,-6.8421054E-1,-1.8636364E-1,2.1875E-1,-2.857143E-1,6.1538464E-1,-2.5E-1,8.82353E-2,-6.1538464E-1,-1.875E-1,1.25E-1,2.2916667E-1,3.3333334E-1,-3.75E-1,6.666667E-1,-1.9548872E-1,1.1940298E-1,-4.6153846E-1,-8.530184E-2,-2.6804122E-1,-2.2222222E-1,-7.8571427E-1,-1.9642857E-1,2.195122E-1,-5.3333336E-1,1.9642857E-1,-1.25E-1,2.015504E-1,-2.2296545E-3,-0E0,-2.0833333E-1,-0E0,2E-1,2.1428572E-1,4E-1,-1.6666667E-1,1.6666667E-1,-6.1381076E-2,-2.2997417E-1,2.2727273E-1,8.510638E-2,-6.315789E-1,2.0454545E-1,-1.6666667E-1,-4.528302E-1,-2.5E-1,-2.3333333E-1,1.875E-1,-5E-1,-1.2755102E-1,-6.333333E-1,1.6815554E-2,-9.090909E-2,-5.833333E-1,7.777778E-1,7.407407E-1,8.3333336E-2,1.744186E-1,-6.570842E-2,-1.4167356E-1,-7.256097E-2,6E-1,-3.2258064E-2,-5.081967E-1,-1.9262294E-1,-3.9948452E-2,-1.18856125E-1,-2.1532847E-1,-1.687581E-2,-2.3175965E-1,-3.2375235E-2,-3.4567901E-1,1.6216215E-1,-2.1052632E-1,-1.5677491E-2,5.331412E-2,2.601626E-1,-4.8484847E-2,-2.8828217E-3,-3.529412E-1,3.5955057E-1,7.450331E-3,-3.0769232E-1,-1.2730715E-1,-3.822763E-2,5.3846157E-1,-1.9789385E-2,-1.16444446E-1,4E-1,2.3116042E-4,-7.920792E-2,6.5217394E-1,2.8688947E-2,-2.5E-1,6.25E-1,-2.1875E-1,1.6666667E-1,-0E0,7.2727275E-1,2.1875E-1,-2.5666666E-1,-3.0769232E-1,-4.923077E-2,2.2727273E-1,-0E0,-1.875E-1,4E-1,-2.3884198E-1,-7.8571427E-1,-8.3333336E-2,2.0833333E-1,-3.3333334E-1,2.2222222E-1,2.5E-1,-2E-1,3.3333334E-1,-6.0869563E-2,-5.625E-1,-1.1464968E-1,2.5E-1,-1.6666667E-1,-1.25E-1,5.882353E-1,1.25E-1,-8.7096775E-1,-3.043478E-1,1.2048192E-2,-2E-1,1.6666667E-1,2.25E-1,-2.5E-1,-1.6666667E-1,1.25E-1,-2.1052632E-1,4.375E-1,-7.5E-1,1.25E-1,-1.25E-1,6E-1,-5.714286E-1,1.25E-1,3.3333334E-1,2.34375E-1,-2.5E-1,5E-1,4.5714286E-1,-0E0,-6.060606E-1,2.857143E-1,7.253886E-2,-1.3859649E-1,-2.3255814E-2,-4.5454547E-1,1.25E-1,-2.3076923E-1,-2.1875E-1,-8.163265E-2,-1.6666667E-1,2.820513E-1,-6.4285713E-1,1.25E-1,3.0555555E-1,-3.181818E-1,2E-1,-2.4752475E-2,1.6666667E-1,-4E-1,1.25E-1,-1.25E-1,-1.25E-1,1.875E-1,-1.6666667E-1,2.5E-1,2.5210084E-2,-1.9480519E-1,-2.9022083E-1,4.225352E-2,-1.6666667E-1,5E-1,1.25E-1,-7.222222E-1,-1.6E-1,6.5E-1,6.521739E-2,-6.666667E-1,-5.5263156E-1,-1.9565217E-1,1.25E-1,-1.6666667E-1,-2E-1,1.25E-1,-7.650273E-2,-7.8571427E-1,-7.5E-1,1.6666667E-1,-1.3812155E-1,3.3081833E-2,-1.3523132E-1,2.3376623E-1,1.25E-1,-7.2727275E-1,2.1428572E-1,3.3333334E-1,8.076923E-1,-1.25E-1,-1.875E-1,4.4444445E-1,1.1737089E-1,4.347826E-1,-1.1829436E-1,8.8709675E-2,-1.2517713E-1,-2.5838926E-1,-4.4937737E-2,-1.0808926E-1,-2.5E-1,8.333333E-1,-8.695652E-2,6E-1,-1.0526316E-1,-6.744186E-1,-6.51341E-2,-3.377193E-1,-1.4919356E-1,1.13528855E-2,-6.1442006E-2,-1.7073171E-1,-1.6867469E-1,-6.5384614E-1,-2.2319475E-2,4.4444445E-1,-6.306306E-2,-3.821138E-1,1.3380282E-1,-4.017193E-2,-4.8913044E-1,-1.5492958E-1,-1.6666667E-1,2.2857143E-1,1.4634146E-1,-4.054054E-1,6.4285713E-1,-2.6136363E-2,6.636501E-2,-2.2222222E-1,4.3333334E-1,-2.0588236E-1,-2.8282827E-1,-4.41369E-2,2.112676E-2,-7.3529415E-2,1.6666667E-1,-5.3333336E-1,-1.6666667E-1,4.861111E-1,-8.628128E-3,3.8E-1,-3.6486486E-1,6E-1,-2.1551725E-2,-1.569697E-1,-6.3091484E-3,-1.8905473E-1,7.777778E-1,-0E0,5.402299E-2,-2.4623495E-2,-1.2343471E-1,2.1875E-1,6.086956E-1,-2.5E-1,-4.4848483E-2,2.8016437E-2,-2.415027E-2,-2.0240481E-1,-0E0,7.1428573E-1,3.1519815E-2,-2.1238938E-1,1.25E-1,-1.6666667E-1,2.1428572E-1,-1.25E-1,6.25E-2,-1.6666667E-1,-1.25E-1,2.25E-1,-1.6964285E-1,-5.3113554E-2,-2.1428572E-2,-1.8055555E-1,2.8017242E-2,-2.1028038E-2,-1.25E-1,6.25E-2,-1.25E-1,1.875E-1,-5.6902986E-2,-1.4423077E-1,-0E0,-2.2916667E-1,1.6666667E-1,-1.7857143E-1,-0E0,-1.25E-1,-1.6666667E-1,1.25E-1,1.71875E-1,2.0833334E-2,-3.4210525E-2,7.1428575E-2,-1.923077E-1,6.25E-2,-2.5849335E-2,-6.25E-2,-1.25E-1,1.6666667E-1,1.875E-1,4.1666668E-2,2E-1,-1.875E-1,-0E0,-2.25E-1,-9.615385E-2,-1.4285714E-2,3.9473683E-2,-7.4074075E-2,-1.6666667E-1,1.25E-1,9.375E-2,-1.4583333E-1,-1.25E-1,1.3333334E-1,-2.2222222E-1,-6.25E-2,1.875E-1,-0E0,-2.0833333E-1,1.25E-1,-2.7777778E-2,2.1428572E-1,-8.3333336E-2,3.2608695E-2,-1.25E-1,1.6666667E-1,1.4516129E-1,-1E-1,1.25E-1,-2.0114943E-2,6.25E-2,-1.75E-1,2E-1,-1.6666667E-1,-1.6393442E-2,7.638889E-2,-9.2857145E-2,-2.6447106E-2,-1.125E-1,8.3333336E-2,-1.8E-1,-5.645161E-2,4.032258E-2,-1.18421055E-1,4.032258E-2,1.6666667E-1,-2.2222222E-1,-4.1666668E-2,1.0958904E-1,6.9444445E-3,-1.25E-1,1E-1,6.0344826E-2,-1.875E-1,-1.6748367E-2,2.6649747E-2,1.25E-1,-1.875E-1,-1.25E-1,1.6666667E-1,-1.1013215E-3,1.4583333E-1,2.8735632E-3,-1.13970585E-1,-6.60066E-2,-2E-1,1.16071425E-1,-5.6818184E-2,-1.0526316E-1,6.25E-2,4.5454547E-2,2.1875E-1,-2.0588236E-1,1.25E-1,4.5454547E-2,-1E-1,-0E0,2.03125E-1,-5.5555556E-2,1.125E-1,1.25E-1,-1.875E-1,1.25E-1,-1.4159292E-1,-6.9444445E-3,-1.8181819E-1,-3.4768213E-2,5.3030305E-2,-0E0,-2.2916667E-1,-2.173913E-1,-4.1666668E-2,2.4038462E-2,-5.7692308E-2,4.468599E-2,3.295979E-3,-4.1275796E-2,1E-1,-7.8947365E-2,1.0169491E-1,-2.2222222E-1,-0E0,1.25E-1,-0E0,-0E0,2.1875E-1,-6.25E-2,2.0833333E-1,1.75E-1,2.2058824E-2,1.402439E-1,-1.25E-1,-2.5143677E-2,-1.25E-1,-6.8965517E-3,6.25E-2,-4.042639E-2,-1.8285714E-2,8.333334E-3,-7.249071E-2,1.7E-2,-2.1698814E-2,-7.261411E-3,-3.6988456E-2,1.25E-1,-1.6666667E-1,2.2727273E-1,-0E0,-7.2115384E-2,1.953125E-2,1.9444445E-1,-1.25E-1,-1.25E-1,2.0833333E-1,-9.210526E-2,-2.2E-1,-0E0,-1.1805555E-1,-9.625E-2,-0E0,-2.8409092E-2,-1.0526316E-1,2E-2,-1.9650655E-2,-1.22340426E-1,-1.2104584E-2,-5.007446E-2,-1.9002376E-2,-8.173077E-2,-1.369863E-2,1.25E-1,-1.8E-1,3.0339805E-2,-9.134616E-3,1.904762E-1,-1.4285715E-1,-2.8301887E-2,2.0833333E-1,1.04166664E-1,-1.16071425E-1,1.4361702E-1,1.1554622E-2,-6.588855E-4,-1.7383618E-2,1.25E-1,-1.3793103E-1,-5.1020407E-3,-1.0869565E-1,9.375E-2,-2.0833334E-2,1.0576923E-1,-7.8125E-2,6.818182E-2,-1.2890625E-1,-0E0,1.875E-1,2.8653296E-3,-4.2349726E-2,3.6902286E-2,5.0236406E-3,2.7777778E-2,-1.1486486E-1,6.967213E-2,1.8333334E-1,1.1363637E-1,-1.25E-1,-0E0,-1.2068965E-1,-2.0014212E-2,-5.174544E-3,1.5598886E-2,-1.821319E-3,-2.2759857E-2,4.1666668E-2,-1.875E-1,6.25E-2,-7.8125E-2,1.6666667E-1,1.8548387E-1,7.1428575E-2,3.5106383E-2,-1.1621621E-2,-0E0,1.4393939E-1,-4.5918368E-2,-1.7307693E-1,-0E0,1.875E-1,-2.586207E-2,5.5555556E-2,7.03125E-2,-4.1383572E-2,-1.3888889E-2,3.3E-2,-2.6627218E-2,-1.5151516E-1,2.2058824E-1,-1.25E-1,-1.875E-1,1.25E-1,1.25E-1,8.960574E-3,-1.458616E-3,-1.2011504E-2,-1.19791664E-1,-2.6844071E-2,-1.25E-1,1.7045455E-1,5E-2,-1.875E-1,-2.5025025E-4,-2.7990798E-2,-3.411306E-3,2.1071116E-2,-1.5590809E-2,3.6585364E-2,-4.6487603E-2,-1.71875E-1,1.25E-1,-1.25E-1,2.0588236E-1,5E-2,2.2194821E-2,4.9737236E-3,-8.4415585E-2,1.3513514E-2],"categories":[],"categories_nodes":[],"categories_segments":[],"categories_sizes":[],"default_left":[0,0,0,0,0,0,0,0,0,0,0,0,0,0,0,0,0,0,0,0,0,0,0,0,0,0,0,0,0,0,0,0,0,0,0,0,0,0,0,0,0,0,0,0,0,0,0,0,0,0,0,0,0,0,0,0,0,0,0,0,0,0,0,0,0,0,0,0,0,0,0,0,0,0,0,0,0,0,0,0,0,0,0,0,0,0,0,0,0,0,0,0,0,0,0,0,0,0,0,0,0,0,0,0,0,0,0,0,0,0,0,0,0,0,0,0,0,0,0,0,0,0,0,0,0,0,0,0,0,0,0,0,0,0,0,0,0,0,0,0,0,0,0,0,0,0,0,0,0,0,0,0,0,0,0,0,0,0,0,0,0,0,0,0,0,0,0,0,0,0,0,0,0,0,0,0,0,0,0,0,0,0,0,0,0,0,0,0,0,0,0,0,0,0,0,0,0,0,0,0,0,0,0,0,0,0,0,0,0,0,0,0,0,0,0,0,0,0,0,0,0,0,0,0,0,0,0,0,0,0,0,0,0,0,0,0,0,0,0,0,0,0,0,0,0,0,0,0,0,0,0,0,0,0,0,0,0,0,0,0,0,0,0,0,0,0,0,0,0,0,0,0,0,0,0,0,0,0,0,0,0,0,0,0,0,0,0,0,0,0,0,0,0,0,0,0,0,0,0,0,0,0,0,0,0,0,0,0,0,0,0,0,0,0,0,0,0,0,0,0,0,0,0,0,0,0,0,0,0,0,0,0,0,0,0,0,0,0,0,0,0,0,0,0,0,0,0,0,0,0,0,0,0,0,0,0,0,0,0,0,0,0,0,0,0,0,0,0,0,0,0,0,0,0,0,0,0,0,0,0,0,0,0,0,0,0,0,0,0,0,0,0,0,0,0,0,0,0,0,0,0,0,0,0,0,0,0,0,0,0,0,0,0,0,0,0,0,0,0,0,0,0,0,0,0,0,0,0,0,0,0,0,0,0,0,0,0,0,0,0,0,0,0,0,0,0,0,0,0,0,0,0,0,0,0,0,0,0,0,0,0,0,0,0,0,0,0,0,0,0,0,0,0,0,0,0,0,0,0,0,0,0,0,0,0,0,0,0,0,0,0,0,0,0,0,0,0,0,0,0,0,0,0,0,0,0,0,0,0,0,0,0,0,0,0,0,0,0,0,0,0,0,0,0,0,0,0,0,0,0,0,0,0,0,0,0,0,0,0,0,0,0,0,0,0,0,0,0,0,0,0,0,0,0,0,0,0,0,0,0,0,0,0,0,0,0,0,0,0,0,0,0,0,0,0,0,0,0,0,0,0,0,0,0,0,0,0,0,0,0,0,0,0,0,0,0,0,0,0,0,0,0,0,0,0,0,0,0,0,0,0,0,0,0,0,0,0,0,0,0,0,0,0,0,0,0,0,0,0,0,0,0,0,0,0,0,0,0,0,0,0,0,0,0,0,0,0,0,0,0,0,0,0,0,0,0,0,0,0,0,0,0,0,0,0,0,0,0,0,0,0,0,0,0,0,0,0,0,0,0,0,0,0,0,0,0,0,0,0,0,0,0,0,0,0,0,0,0,0],"id":1,"left_children":[1,3,5,7,9,11,13,15,17,19,21,23,25,27,29,-1,31,33,35,37,39,41,43,45,47,49,51,53,55,57,59,-1,-1,61,63,65,67,69,71,73,75,77,79,81,83,85,87,89,91,93,95,97,99,101,103,105,107,109,111,113,115,117,-1,119,121,123,125,127,129,131,133,135,137,139,141,143,145,147,149,151,153,155,157,159,161,163,165,167,169,171,173,175,177,179,181,183,185,187,189,191,193,195,197,199,201,203,205,207,209,211,213,215,217,219,221,223,225,227,-1,229,-1,-1,231,233,235,237,239,241,243,245,247,249,251,253,255,257,259,-1,261,263,265,267,269,-1,-1,-1,271,273,275,277,279,281,283,285,-1,287,289,291,293,-1,-1,295,297,299,-1,301,-1,-1,303,305,-1,307,309,-1,311,313,315,317,319,321,-1,-1,323,325,327,329,331,333,335,337,339,341,343,345,347,349,351,353,355,357,359,361,363,365,367,369,371,373,375,377,379,381,383,385,387,389,391,393,395,397,399,401,403,405,407,409,411,413,415,-1,-1,417,419,-1,421,423,425,-1,427,-1,429,431,433,435,-1,437,-1,439,-1,441,443,445,447,449,-1,-1,451,453,455,457,459,-1,-1,-1,461,-1,-1,463,465,467,-1,-1,469,471,-1,473,-1,475,477,479,481,483,485,487,489,491,493,-1,-1,-1,495,-1,497,499,-1,501,503,505,507,-1,509,-1,-1,-1,-1,-1,511,513,515,517,519,521,523,-1,525,527,529,531,533,535,537,-1,-1,-1,-1,539,541,543,-1,545,547,549,551,-1,553,-1,555,557,-1,-1,559,561,563,565,567,569,571,573,575,577,579,581,583,585,587,589,591,593,595,597,599,601,603,605,607,609,611,613,615,617,619,-1,621,623,625,627,629,631,633,635,637,639,641,643,645,-1,647,649,651,653,655,657,659,661,663,665,667,669,671,673,675,677,-1,679,681,683,685,687,689,691,693,695,697,-1,-1,-1,-1,-1,-1,-1,-1,-1,-1,-1,-1,-1,-1,-1,-1,-1,-1,-1,-1,-1,-1,-1,-1,-1,-1,-1,-1,-1,-1,-1,-1,-1,-1,-1,-1,-1,-1,-1,-1,-1,-1,-1,-1,-1,-1,-1,-1,-1,-1,-1,-1,-1,-1,-1,-1,-1,-1,-1,-1,-1,-1,-1,-1,-1,-1,-1,-1,-1,-1,-1,-1,-1,-1,-1,-1,-1,-1,-1,-1,-1,-1,-1,-1,-1,-1,-1,-1,-1,-1,-1,-1,-1,-1,-1,-1,-1,-1,-1,-1,-1,-1,-1,-1,-1,-1,-1,-1,-1,-1,-1,-1,-1,-1,-1,-1,-1,-1,-1,-1,-1,-1,-1,-1,-1,-1,-1,-1,-1,-1,-1,-1,-1,-1,-1,-1,-1,-1,-1,-1,-1,-1,-1,-1,-1,-1,-1,-1,-1,-1,-1,-1,-1,-1,-1,-1,-1,-1,-1,-1,-1,-1,-1,-1,-1,-1,-1,-1,-1,-1,-1,-1,-1,-1,-1,-1,-1,-1,-1,-1,-1,-1,-1,-1,-1,-1,-1,-1,-1,-1,-1,-1,-1,-1,-1,-1,-1,-1,-1,-1,-1,-1,-1,-1,-1,-1,-1,-1,-1,-1,-1,-1,-1,-1,-1,-1,-1,-1,-1,-1,-1,-1,-1,-1,-1,-1,-1,-1,-1,-1,-1,-1,-1,-1,-1,-1,-1,-1,-1,-1,-1,-1,-1,-1,-1,-1,-1,-1,-1,-1,-1,-1,-1,-1,-1,-1,-1,-1,-1,-1,-1,-1,-1,-1,-1,-1,-1,-1,-1,-1,-1,-1,-1,-1,-1,-1,-1,-1,-1,-1,-1,-1,-1,-1,-1,-1],"loss_changes":[2.7176163E1,8.524254E0,2.3564293E1,6.4884567E0,5.7177105E0,7.5913315E0,1.6202366E1,3.9967108E0,9.704468E0,6.0121994E0,6.208622E0,5.249737E0,5.4549026E0,1.4151478E1,9.137195E0,0E0,1.5833334E0,5.292899E0,6.7386208E0,3.8467255E0,3.7410586E0,5.2634573E0,4.5524106E0,2.726984E0,7.0766773E0,7.8361053E0,1.1694336E1,6.33963E0,9.698786E0,8.086939E0,9.916294E0,0E0,0E0,3.3959904E0,3.6229382E0,5.9516344E0,5.5165596E0,4.718462E0,5.015605E0,3.5404046E0,4.979272E0,8.024499E0,4.478074E0,3.447309E0,6.1160097E0,4.313493E0,1.443182E0,8.10641E0,4.9487476E0,3.8461542E0,7.0977936E0,3.8684216E0,7.555977E0,7.672035E0,5.303463E0,8.723474E0,7.037879E0,7.719013E0,6.5388737E0,7.592345E0,9.804981E0,3.633117E0,0E0,6.666667E0,1.6381721E0,5.420437E0,3.1098487E0,3.838665E0,3.13243E0,3.5227776E0,1.8840578E0,7.963457E0,4.9107146E0,2.110577E0,4.644305E0,1.95E0,8.0882454E-1,6.647523E0,6.6172147E0,5.241062E0,3.0706596E0,3.7890787E0,6.224095E0,2.476191E0,4.6828184E0,2.0833337E0,9.1428566E-1,1.2467575E-1,1.375E0,5.507128E0,5.992738E0,9.274695E0,3.6826382E0,8.1666756E-1,3.75E0,6.6176643E0,5.5446835E0,9.527779E0,3.2928848E0,1.1760919E1,6.6317673E0,5.3478727E0,5.347883E0,6.599457E0,9.645817E0,8.932414E0,7.704735E0,3.8367286E0,4.829389E0,5.8865714E0,7.18517E0,7.276571E0,5.903425E0,8.087532E0,7.7829914E0,7.4239817E0,8.918866E0,1.9204545E0,0E0,4.9583335E0,0E0,0E0,2.618182E0,9.927421E0,3.2117286E0,2.4242425E0,2.925E0,4.055893E0,3.308824E0,2.9898992E0,3.8875E0,4.524126E0,3.1720238E0,1.4166667E0,1.8823528E0,5.851654E0,5.1537476E0,0E0,3.9619048E0,3.4269233E0,1.5833334E0,3.6398995E0,2.326923E0,0E0,0E0,0E0,1.6333334E0,1.6607144E0,2.395834E0,5.167293E0,5.403838E0,4.384948E0,6.4200478E0,4.417819E0,0E0,2.9340658E0,4.2908163E0,2.4602876E0,2.0190477E0,0E0,0E0,7.070296E0,4.0905905E0,2.1333334E0,0E0,1E0,0E0,0E0,1.95E0,1.4166667E0,0E0,4.52227E0,6.359375E0,0E0,4.992908E0,2.3099418E0,7.249091E0,7.6956525E0,3.9728813E0,1.5833334E0,0E0,0E0,2.2E0,6.5251203E0,5.05E0,4.8006053E0,9.212645E0,2.2348485E0,3.1746387E-2,2.6467237E0,3.9444444E0,3.7810874E0,7.9195886E0,4.615551E0,3.2141552E0,3.1833339E0,4.3405333E0,4.0145674E0,9.00511E0,8.699753E0,9.987968E0,5.4953423E0,5.81347E0,5.88577E0,8.209362E0,4.357071E0,2.188932E0,7.9875793E0,6.167366E0,5.005987E0,1.0015974E1,5.5355005E0,1.0004016E1,3.4823532E0,6.008271E0,7.2392282E0,4.2667356E0,6.6250496E0,5.539919E0,3.3504276E0,5.049936E0,7.904767E0,4.221739E0,5.4197893E0,1.095633E1,9.3167686E-1,6.643634E0,1.5833334E0,2.5178576E0,0E0,0E0,1.8333334E0,2.7818184E0,0E0,5.451868E0,4.722955E0,3.6665587E0,0E0,7.5E-1,0E0,1.95E0,3.016121E0,1.4404764E0,6.154762E0,0E0,1.6666666E-1,0E0,3.0833335E0,0E0,3.395833E0,3.0671463E0,2.879808E0,3.3217201E0,1.5833334E0,0E0,0E0,1.0343137E0,5.325E0,7.838726E-1,2.7162924E0,3.7793748E0,0E0,0E0,0E0,1.5833334E0,0E0,0E0,4.366228E0,1.7041669E0,6.1111116E-1,0E0,0E0,4.5000005E-1,2.3809526E0,0E0,3.5873022E0,0E0,3.974638E0,2E0,3.937327E0,4.0632186E0,2.8287888E0,3.9619048E0,6.2312684E0,4.314807E0,6.6934114E0,3.1770096E0,0E0,0E0,0E0,4.743079E0,0E0,1.7038877E0,1.4920635E0,0E0,3.9718418E0,3.0727274E0,3.7189655E0,4.490261E0,0E0,1.95E0,0E0,0E0,0E0,0E0,0E0,1.5833334E0,3.9364784E0,8.299692E0,4.021797E0,8.181682E0,3.2850878E0,1.9886365E0,0E0,2.640523E0,2.1236367E0,2.1125002E0,5.1876817E0,2.416667E0,1.9319992E0,4.08509E0,0E0,0E0,0E0,0E0,3.33434E0,1.4404764E0,1.80797E0,0E0,3.9508076E0,4.9915404E0,9.0515E0,7.4496565E0,0E0,1.2929292E0,0E0,1.6666666E-1,1.4134617E0,0E0,0E0,2.6388893E0,3.5539632E0,5.706786E0,4.8669147E0,4.6587324E0,4.01202E0,2.7544594E0,8.737213E0,4.514292E0,1.5833334E0,7.57576E-1,3.8479831E0,2.3444448E0,7.4561405E0,2.380806E0,6.920498E0,3.6406116E0,4.7467585E0,6.533459E0,8.865377E0,4.92218E0,4.469404E0,2.344615E0,4.6726103E0,9.142857E0,5.083716E0,8.266844E0,1.0934534E1,6.6668043E0,5.9718876E0,2.6640089E0,0E0,1.6297618E0,5.3382974E0,5.671645E0,9.6428585E-1,4.7419205E0,4.9817367E0,5.033033E0,3.9710407E0,6.8315506E0,5.5980496E0,4.5000763E0,5.161932E0,6.307107E0,0E0,2.733333E0,2.3958335E0,3.4791985E0,6.54668E0,3.7193942E0,4.2632484E0,4.5000005E-1,9.286399E0,6.2392883E0,6.4848123E0,6.8542924E0,2.846405E0,3.75E0,7.036188E0,5.8440676E0,6.3351173E0,0E0,2.205534E0,1.95E0,4.855527E0,6.2766256E0,7.2928915E0,3.8551502E0,1E0,1.0151262E0,6.3970003E0,3.7899837E0,0E0,0E0,0E0,0E0,0E0,0E0,0E0,0E0,0E0,0E0,0E0,0E0,0E0,0E0,0E0,0E0,0E0,0E0,0E0,0E0,0E0,0E0,0E0,0E0,0E0,0E0,0E0,0E0,0E0,0E0,0E0,0E0,0E0,0E0,0E0,0E0,0E0,0E0,0E0,0E0,0E0,0E0,0E0,0E0,0E0,0E0,0E0,0E0,0E0,0E0,0E0,0E0,0E0,0E0,0E0,0E0,0E0,0E0,0E0,0E0,0E0,0E0,0E0,0E0,0E0,0E0,0E0,0E0,0E0,0E0,0E0,0E0,0E0,0E0,0E0,0E0,0E0,0E0,0E0,0E0,0E0,0E0,0E0,0E0,0E0,0E0,0E0,0E0,0E0,0E0,0E0,0E0,0E0,0E0,0E0,0E0,0E0,0E0,0E0,0E0,0E0,0E0,0E0,0E0,0E0,0E0,0E0,0E0,0E0,0E0,0E0,0E0,0E0,0E0,0E0,0E0,0E0,0E0,0E0,0E0,0E0,0E0,0E0,0E0,0E0,0E0,0E0,0E0,0E0,0E0,0E0,0E0,0E0,0E0,0E0,0E0,0E0,0E0,0E0,0E0,0E0,0E0,0E0,0E0,0E0,0E0,0E0,0E0,0E0,0E0,0E0,0E0,0E0,0E0,0E0,0E0,0E0,0E0,0E0,0E0,0E0,0E0,0E0,0E0,0E0,0E0,0E0,0E0,0E0,0E0,0E0,0E0,0E0,0E0,0E0,0E0,0E0,0E0,0E0,0E0,0E0,0E0,0E0,0E0,0E0,0E0,0E0,0E0,0E0,0E0,0E0,0E0,0E0,0E0,0E0,0E0,0E0,0E0,0E0,0E0,0E0,0E0,0E0,0E0,0E0,0E0,0E0,0E0,0E0,0E0,0E0,0E0,0E0,0E0,0E0,0E0,0E0,0E0,0E0,0E0,0E0,0E0,0E0,0E0,0E0,0E0,0E0,0E0,0E0,0E0,0E0,0E0,0E0,0E0,0E0,0E0,0E0,0E0,0E0,0E0,0E0,0E0,0E0,0E0,0E0,0E0,0E0,0E0,0E0,0E0,0E0,0E0,0E0,0E0,0E0,0E0,0E0,0E0,0E0,0E0,0E0,0E0,0E0,0E0,0E0,0E0,0E0,0E0,0E0,0E0,0E0,0E0,0E0,0E0,0E0,0E0,0E0,0E0,0E0,0E0,0E0,0E0,0E0,0E0,0E0,0E0],"parents":[2147483647,0,0,1,1,2,2,3,3,4,4,5,5,6,6,7,7,8,8,9,9,10,10,11,11,12,12,13,13,14,14,16,16,17,17,18,18,19,19,20,20,21,21,22,22,23,23,24,24,25,25,26,26,27,27,28,28,29,29,30,30,33,33,34,34,35,35,36,36,37,37,38,38,39,39,40,40,41,41,42,42,43,43,44,44,45,45,46,46,47,47,48,48,49,49,50,50,51,51,52,52,53,53,54,54,55,55,56,56,57,57,58,58,59,59,60,60,61,61,63,63,64,64,65,65,66,66,67,67,68,68,69,69,70,70,71,71,72,72,73,73,74,74,75,75,76,76,77,77,78,78,79,79,80,80,81,81,82,82,83,83,84,84,85,85,86,86,87,87,88,88,89,89,90,90,91,91,92,92,93,93,94,94,95,95,96,96,97,97,98,98,99,99,100,100,101,101,102,102,103,103,104,104,105,105,106,106,107,107,108,108,109,109,110,110,111,111,112,112,113,113,114,114,115,115,116,116,117,117,119,119,122,122,123,123,124,124,125,125,126,126,127,127,128,128,129,129,130,130,131,131,132,132,133,133,134,134,135,135,136,136,138,138,139,139,140,140,141,141,142,142,146,146,147,147,148,148,149,149,150,150,151,151,152,152,153,153,155,155,156,156,157,157,158,158,161,161,162,162,163,163,165,165,168,168,169,169,171,171,172,172,174,174,175,175,176,176,177,177,178,178,179,179,182,182,183,183,184,184,185,185,186,186,187,187,188,188,189,189,190,190,191,191,192,192,193,193,194,194,195,195,196,196,197,197,198,198,199,199,200,200,201,201,202,202,203,203,204,204,205,205,206,206,207,207,208,208,209,209,210,210,211,211,212,212,213,213,214,214,215,215,216,216,217,217,218,218,219,219,220,220,221,221,222,222,223,223,224,224,225,225,226,226,227,227,228,228,231,231,232,232,234,234,235,235,236,236,238,238,240,240,241,241,242,242,243,243,245,245,247,247,249,249,250,250,251,251,252,252,253,253,256,256,257,257,258,258,259,259,260,260,264,264,267,267,268,268,269,269,272,272,273,273,275,275,277,277,278,278,279,279,280,280,281,281,282,282,283,283,284,284,285,285,286,286,290,290,292,292,293,293,295,295,296,296,297,297,298,298,300,300,306,306,307,307,308,308,309,309,310,310,311,311,312,312,314,314,315,315,316,316,317,317,318,318,319,319,320,320,325,325,326,326,327,327,329,329,330,330,331,331,332,332,334,334,336,336,337,337,340,340,341,341,342,342,343,343,344,344,345,345,346,346,347,347,348,348,349,349,350,350,351,351,352,352,353,353,354,354,355,355,356,356,357,357,358,358,359,359,360,360,361,361,362,362,363,363,364,364,365,365,366,366,367,367,368,368,369,369,370,370,372,372,373,373,374,374,375,375,376,376,377,377,378,378,379,379,380,380,381,381,382,382,383,383,384,384,386,386,387,387,388,388,389,389,390,390,391,391,392,392,393,393,394,394,395,395,396,396,397,397,398,398,399,399,400,400,401,401,403,403,404,404,405,405,406,406,407,407,408,408,409,409,410,410,411,411,412,412],"right_children":[2,4,6,8,10,12,14,16,18,20,22,24,26,28,30,-1,32,34,36,38,40,42,44,46,48,50,52,54,56,58,60,-1,-1,62,64,66,68,70,72,74,76,78,80,82,84,86,88,90,92,94,96,98,100,102,104,106,108,110,112,114,116,118,-1,120,122,124,126,128,130,132,134,136,138,140,142,144,146,148,150,152,154,156,158,160,162,164,166,168,170,172,174,176,178,180,182,184,186,188,190,192,194,196,198,200,202,204,206,208,210,212,214,216,218,220,222,224,226,228,-1,230,-1,-1,232,234,236,238,240,242,244,246,248,250,252,254,256,258,260,-1,262,264,266,268,270,-1,-1,-1,272,274,276,278,280,282,284,286,-1,288,290,292,294,-1,-1,296,298,300,-1,302,-1,-1,304,306,-1,308,310,-1,312,314,316,318,320,322,-1,-1,324,326,328,330,332,334,336,338,340,342,344,346,348,350,352,354,356,358,360,362,364,366,368,370,372,374,376,378,380,382,384,386,388,390,392,394,396,398,400,402,404,406,408,410,412,414,416,-1,-1,418,420,-1,422,424,426,-1,428,-1,430,432,434,436,-1,438,-1,440,-1,442,444,446,448,450,-1,-1,452,454,456,458,460,-1,-1,-1,462,-1,-1,464,466,468,-1,-1,470,472,-1,474,-1,476,478,480,482,484,486,488,490,492,494,-1,-1,-1,496,-1,498,500,-1,502,504,506,508,-1,510,-1,-1,-1,-1,-1,512,514,516,518,520,522,524,-1,526,528,530,532,534,536,538,-1,-1,-1,-1,540,542,544,-1,546,548,550,552,-1,554,-1,556,558,-1,-1,560,562,564,566,568,570,572,574,576,578,580,582,584,586,588,590,592,594,596,598,600,602,604,606,608,610,612,614,616,618,620,-1,622,624,626,628,630,632,634,636,638,640,642,644,646,-1,648,650,652,654,656,658,660,662,664,666,668,670,672,674,676,678,-1,680,682,684,686,688,690,692,694,696,698,-1,-1,-1,-1,-1,-1,-1,-1,-1,-1,-1,-1,-1,-1,-1,-1,-1,-1,-1,-1,-1,-1,-1,-1,-1,-1,-1,-1,-1,-1,-1,-1,-1,-1,-1,-1,-1,-1,-1,-1,-1,-1,-1,-1,-1,-1,-1,-1,-1,-1,-1,-1,-1,-1,-1,-1,-1,-1,-1,-1,-1,-1,-1,-1,-1,-1,-1,-1,-1,-1,-1,-1,-1,-1,-1,-1,-1,-1,-1,-1,-1,-1,-1,-1,-1,-1,-1,-1,-1,-1,-1,-1,-1,-1,-1,-1,-1,-1,-1,-1,-1,-1,-1,-1,-1,-1,-1,-1,-1,-1,-1,-1,-1,-1,-1,-1,-1,-1,-1,-1,-1,-1,-1,-1,-1,-1,-1,-1,-1,-1,-1,-1,-1,-1,-1,-1,-1,-1,-1,-1,-1,-1,-1,-1,-1,-1,-1,-1,-1,-1,-1,-1,-1,-1,-1,-1,-1,-1,-1,-1,-1,-1,-1,-1,-1,-1,-1,-1,-1,-1,-1,-1,-1,-1,-1,-1,-1,-1,-1,-1,-1,-1,-1,-1,-1,-1,-1,-1,-1,-1,-1,-1,-1,-1,-1,-1,-1,-1,-1,-1,-1,-1,-1,-1,-1,-1,-1,-1,-1,-1,-1,-1,-1,-1,-1,-1,-1,-1,-1,-1,-1,-1,-1,-1,-1,-1,-1,-1,-1,-1,-1,-1,-1,-1,-1,-1,-1,-1,-1,-1,-1,-1,-1,-1,-1,-1,-1,-1,-1,-1,-1,-1,-1,-1,-1,-1,-1,-1,-1,-1,-1,-1,-1,-1,-1,-1,-1,-1,-1,-1,-1,-1,-1,-1,-1,-1,-1,-1,-1,-1,-1,-1,-1,-1,-1,-1],"split_conditions":[5.26269E0,5.2311087E0,5.3752785E0,5.0689044E0,5.3612924E0,5.192957E0,5.365976E0,7.355002E0,5.187386E0,6.6871085E0,6.689599E0,5.192957E0,5.3844953E0,5.4424176E0,5.4161005E0,-1.299651E-1,5.0238805E0,5.123964E0,6.664409E0,8.109225E0,5.5053315E0,5.379897E0,5.2832036E0,5.123964E0,6.5117455E0,5.043425E0,5.043425E0,5.2832036E0,5.4722705E0,6.9603477E0,5.4553213E0,-1.299651E-1,1.6822025E-1,6.4216223E0,5.1474943E0,6.6253924E0,8.53405E0,8.076826E0,7.9233484E0,6.5250297E0,6.675823E0,5.2574954E0,7.4115562E0,5.2832036E0,5.075174E0,7.6629376E0,5.1532917E0,6.3117347E0,5.379897E0,5.3375382E0,5.241747E0,6.3438807E0,5.365976E0,6.49224E0,6.89467E0,8.135054E0,6.7286286E0,6.1944056E0,5.4161005E0,5.4424176E0,5.42495E0,7.426549E0,-1.299651E-1,5.4930615E0,6.7381525E0,5.398163E0,5.198497E0,5.247024E0,5.1474943E0,5.2040067E0,5.1059456E0,5.2983174E0,5.170484E0,5.3375382E0,5.3752785E0,5.267858E0,7.577634E0,5.1532917E0,5.313206E0,5.398163E0,7.562681E0,6.4723463E0,7.2399325E0,7.828038E0,5.389072E0,6.7979403E0,5.09375E0,7.3238306E0,5.164786E0,5.411646E0,6.4361506E0,5.313206E0,5.09375E0,5.2522736E0,6.3044486E0,8.027802E0,6.378426E0,6.510258E0,6.46925E0,6.4907236E0,5.313206E0,5.209486E0,5.4380794E0,5.7300997E0,5.293305E0,5.1119876E0,7.5283318E0,5.5373344E0,7.3951077E0,5.398163E0,5.2522736E0,8.896998E0,6.729824E0,5.056246E0,8.284757E0,7.017506E0,5.267858E0,5.09375E0,-1.299651E-1,6.973543E0,1.0492796E-1,2.1792427E-1,6.729824E0,5.2574954E0,5.0172796E0,6.6476884E0,5.209486E0,5.236442E0,7.904704E0,5.062595E0,9.33565E0,5.123964E0,5.209486E0,5.379897E0,5.198497E0,5.198497E0,5.241747E0,1.4468798E-1,5.220356E0,5.2522736E0,5.2522736E0,5.2522736E0,7.6029005E0,-5.3940386E-2,4.2402035E-1,3.2675377E-1,7.648263E0,6.6280413E0,5.2522736E0,6.6280413E0,6.632002E0,7.0157123E0,5.6347895E0,5.4595857E0,-1.5530667E-1,6.7286286E0,6.7286286E0,6.3207684E0,5.894403E0,2.637925E-1,-1.299651E-1,5.652489E0,5.049856E0,5.09375E0,-1.299651E-1,5.062595E0,5.7264596E-2,1.9621976E-1,7.3907986E0,6.7286286E0,3.361237E-1,6.9884133E0,7.3530817E0,7.376602E-2,5.3844953E0,5.267858E0,5.1298985E0,7.284135E0,5.164786E0,6.4567695E0,-1.5530667E-1,1.0136628E-1,8.905037E0,5.236442E0,9.333265E0,6.35437E0,5.3752785E0,5.31812E0,7.0509896E0,8.4546795E0,6.8416157E0,6.4361506E0,7.635787E0,7.779467E0,5.3375382E0,5.1474943E0,5.3375382E0,6.584791E0,5.3565865E0,5.4293456E0,5.8435445E0,5.288267E0,8.759668E0,6.559615E0,5.480639E0,5.4553213E0,5.288267E0,5.5529594E0,5.549076E0,7.0783415E0,5.866468E0,5.09375E0,5.7300997E0,5.420535E0,5.463832E0,6.063785E0,5.411646E0,5.2832036E0,5.5947113E0,7.0783415E0,5.4553213E0,8.864605E0,8.896998E0,5.7462034E0,5.961005E0,5.3936276E0,8.695004E0,5.09375E0,7.986845E0,-1.299651E-1,6.4629614E-2,6.7286286E0,6.768493E0,1.5788406E-1,6.35437E0,5.961005E0,5.5451775E0,1.8080759E-1,5.09375E0,-1.5530667E-1,6.089045E0,6.115892E0,5.3471074E0,5.4510384E0,7.602471E-2,5.0172796E0,6.866327E-2,5.164786E0,-1.2058683E-1,6.352629E0,7.233455E0,6.9527287E0,7.828038E0,5.327876E0,-1.299651E-1,-1.5530667E-1,6.5889263E0,6.768493E0,6.2672005E0,7.0166097E0,5.247024E0,-1.00942805E-1,4.7960606E-1,1.5573013E-1,5.313206E0,-1.0278316E-1,1.1934641E-1,6.906755E0,5.123964E0,5.3375382E0,6.6390306E-2,-1.9862837E-1,7.770223E0,5.2574954E0,4.233535E-1,6.703188E0,1.5934032E-1,7.1196356E0,5.1059456E0,5.2574954E0,5.241747E0,6.3207684E0,5.3936276E0,5.26269E0,6.25575E0,7.8883343E0,5.525453E0,1.0136628E-1,-1.5530667E-1,-1.299651E-1,5.236442E0,-1.09118566E-1,5.609472E0,5.273E0,1.7980129E-2,7.5115247E0,5.236442E0,8.475121E0,5.556828E0,1.7839898E-1,5.3936276E0,2.4782923E-1,-1.5530667E-1,-1.9862837E-1,1.4465272E-1,-2.0344558E-1,5.1357985E0,5.4026775E0,6.7286286E0,7.17549E0,5.09375E0,7.233455E0,5.529429E0,3.7921637E-1,8.549854E0,5.3471074E0,6.7165947E0,6.729824E0,6.559615E0,5.3936276E0,7.636752E0,4.6795052E-1,-1.732868E-1,-1.5162595E-1,1.0136628E-1,5.3565865E0,6.3801227E0,5.3471074E0,2.3806275E-1,5.3033047E0,6.50279E0,8.550628E0,6.6424866E0,7.602471E-2,6.329721E0,1.6558543E-1,6.689599E0,5.241747E0,-2.0826277E-1,-1.0689649E-1,6.729824E0,5.164786E0,5.365976E0,7.5543346E0,6.6253924E0,6.7165947E0,5.278115E0,6.25575E0,5.497168E0,6.291569E0,6.46925E0,6.5132303E0,5.278115E0,7.3951077E0,7.108244E0,7.218177E0,8.00102E0,5.3565865E0,5.4510384E0,6.261492E0,5.379897E0,6.744059E0,6.973543E0,5.327876E0,7.648263E0,6.5117455E0,6.329721E0,5.3565865E0,5.4026775E0,5.17615E0,5.327876E0,-1.6429673E-1,5.3565865E0,5.4930615E0,5.32301E0,6.329721E0,5.3423343E0,6.4473057E0,5.602119E0,7.6270576E0,5.398163E0,6.3733196E0,5.733341E0,5.4553213E0,7.5827384E0,9.784491E-2,7.528869E0,6.966967E0,6.265301E0,5.365976E0,7.2399325E0,5.3936276E0,5.370638E0,5.267858E0,5.42495E0,5.4595857E0,5.389072E0,5.4071717E0,7.1785455E0,5.164786E0,5.5683446E0,5.2832036E0,2.2907269E-1,5.4380794E0,6.562444E0,5.497168E0,5.7525725E0,5.655992E0,7.493317E0,6.526495E0,7.731492E0,5.652489E0,6.8936563E0,1.4889398E-1,-1.299651E-1,4.183942E-2,-1.299651E-1,4.33217E-2,-9.733622E-2,-2.5589654E-1,1.8967518E-1,-1.299651E-1,-5.3940386E-2,-5.3940386E-2,-1.5530667E-1,1.7980129E-2,-5.3940386E-2,-5.3940386E-2,1.1934641E-1,-1.5530667E-1,2.4705282E-1,-5.3940386E-2,-1.299651E-1,-1.7980129E-2,-1.5530667E-1,1.0136628E-1,-1.299651E-1,0E0,-1.5530667E-1,-1.5530667E-1,1.5788406E-1,1.3990393E-1,0E0,-2.6970193E-2,7.857609E-2,-7.1920514E-2,5.5785894E-2,-5.3940386E-2,-5.3940386E-2,-1.299651E-1,4.3364048E-1,1.0136628E-1,1.7980129E-2,2.628979E-1,-1.732868E-1,0E0,-1.299651E-1,-1.299651E-1,-1.4299408E-2,5.5785894E-2,-7.1920514E-2,-1.4263588E-1,2.6618832E-1,2.9772168E-1,-1.299651E-1,-2.1940887E-1,5.854386E-2,-1.299651E-1,-1.5530667E-1,2.7821478E-1,0E0,-8.586699E-2,9.66382E-3,-1.2670785E-2,1.8155201E-1,-8.586699E-2,4.5873076E-2,-2.8598815E-2,2.3791641E-1,1.6558543E-1,-1.1361359E-1,5.5785894E-2,-5.3940386E-2,1.3990393E-1,-7.1920514E-2,2.0700507E-1,-1.5530667E-1,-5.3940386E-2,1.732868E-1,-7.1920514E-2,-5.3940386E-2,-1.5530667E-1,7.376602E-2,-1.299651E-1,-6.293045E-2,1.3821974E-2,-1.0462353E-1,1.7980129E-2,1.1980316E-1,-1.5530667E-1,-1.5530667E-1,1.329307E-1,4.183942E-2,-1.8723327E-1,3.8530275E-1,5.5785894E-2,-1.5530667E-1,-1.3946474E-2,4.183942E-2,1.77391E-1,-5.3940386E-2,-1.299651E-1,1.8574384E-1,0E0,1.5788406E-1,8.990064E-3,-5.3940386E-2,-5.3940386E-2,-1.5530667E-1,8.741981E-2,-5.3940386E-2,-1.00942805E-1,7.602471E-2,1.7980129E-2,2.2071269E-1,-1.299651E-1,2.926332E-1,1.1948204E-1,-8.94085E-2,-6.866327E-2,1.5788406E-1,-1.1361359E-1,7.376602E-2,7.376602E-2,-1.299651E-1,2.2071269E-1,-1.299651E-1,-5.3940386E-2,-1.5530667E-1,-5.3940386E-2,1.7980129E-2,8.793211E-2,-1.5530667E-1,-1.5530667E-1,-1.5530667E-1,1.7980129E-2,-7.1920514E-2,5.5785894E-2,0E0,-5.3940386E-2,7.376602E-2,-7.1920514E-2,7.376602E-2,-7.1920514E-2,1.0136628E-1,2.926332E-1,0E0,6.831166E-2,1.5788406E-1,-2.8598815E-2,3.1159762E-1,3.3043897E-1,5.5785894E-2,1.1366187E-1,-1.5530667E-1,-5.3940386E-2,-1.5530667E-1,-3.4866184E-3,1.0136628E-1,-5.3940386E-2,-2.8598815E-2,0E0,-5.3940386E-2,0E0,-5.3940386E-2,0E0,-5.3940386E-2,3.6455372E-1,-1.0462353E-1,3.0872697E-1,0E0,-5.3940386E-2,1.7980129E-2,1.8800968E-1,-1.5530667E-1,-1.5530667E-1,2.926332E-1,-1.0462353E-1,-1.5530667E-1,0E0,-8.586699E-2,-5.3940386E-2,2.0168275E-3,-5.3940386E-2,-7.1920514E-2,1.7980129E-2,-5.3940386E-2,-1.5530667E-1,0E0,-7.1920514E-2,-5.3940386E-2,-7.1920514E-2,-5.3940386E-2,1.5788406E-1,-1.1361359E-1,4.183942E-2,0E0,2.2361343E-1,-1.22603655E-1,-5.3940386E-2,1.3990393E-1,4.183942E-2,-5.3940386E-2,2.3388276E-1,1.7980129E-2,0E0,-5.3940386E-2,7.376602E-2,-1.299651E-1,-1.2670785E-2,-7.1920514E-2,9.910759E-2,0E0,1.3990393E-1,-7.1920514E-2,5.068314E-2,-7.1920514E-2,-5.875045E-2,3.465736E-1,0E0,-5.3940386E-2,1.9395024E-2,0E0,4.07065E-2,-7.1920514E-2,1.3732654E-1,2.0273256E-1,7.250334E-2,-7.1920514E-2,0E0,-1.299651E-1,-5.3940386E-2,0E0,3.6141872E-2,0E0,-5.3940386E-2,7.376602E-2,-8.586699E-2,2.3895377E-1,-5.3940386E-2,7.9314387E-1,2.3895377E-1,1.8878609E-1,4.8812658E-2,0E0,0E0,1.2962517E-1,-5.3940386E-2,-1.5530667E-1,0E0,5.5785894E-2,-5.3940386E-2,5.5785894E-2,5.5785894E-2,-7.1920514E-2,-1.3946474E-2,4.183942E-2,-5.3940386E-2,-1.732868E-1,2.5290024E-1,-7.1920514E-2,-1.732868E-1,3.1319076E-1,1.8878609E-1,0E0,0E0,0E0,-1.5530667E-1,-5.3940386E-2,-1.732868E-1,2.9466373E-1,6.995197E-2,-1.732868E-1,0E0,-5.3940386E-2,0E0,1.7980129E-2,-1.3946474E-2,5.5785894E-2,-7.1920514E-2,-8.586699E-2,6.597643E-1,-1.732868E-1,3.3043897E-1,5.068314E-2,4.183942E-2,0E0,-7.1920514E-2,4.183942E-2],"split_indices":[1,0,5,3,2,5,3,2,3,4,0,0,2,2,0,0,3,3,2,0,3,3,3,5,2,4,4,4,4,5,4,0,0,4,1,2,5,0,5,5,5,4,5,4,4,3,4,2,1,5,3,3,1,0,5,0,5,1,3,4,2,5,0,4,5,3,1,1,0,4,1,3,1,2,3,2,5,4,3,3,2,5,5,3,2,2,0,3,0,2,3,0,4,2,1,0,3,0,0,3,5,2,5,5,0,4,5,2,0,1,0,5,4,2,5,0,1,0,0,5,0,0,2,4,0,2,0,1,2,0,5,1,4,4,4,4,2,0,1,0,0,0,5,0,0,0,5,0,0,0,5,5,3,3,0,0,0,5,2,0,0,4,1,0,0,0,0,0,3,2,0,0,3,0,0,1,4,3,4,1,0,0,1,2,0,0,2,0,1,3,0,3,3,3,4,3,3,1,2,5,0,0,0,2,2,1,1,4,2,0,2,0,1,3,3,1,3,0,2,0,0,2,5,0,3,3,3,2,2,0,0,2,5,0,5,3,5,0,0,0,5,4,3,5,0,0,0,0,0,3,3,0,3,4,0,0,3,5,5,3,1,0,0,0,3,0,0,5,3,2,0,0,5,1,0,2,0,2,1,1,0,5,3,0,3,5,2,0,0,0,3,0,4,3,0,0,1,5,4,0,1,0,0,0,0,0,0,2,1,3,4,3,1,0,3,1,3,3,2,1,2,0,0,0,0,5,0,4,0,5,0,0,3,0,0,0,0,0,0,0,3,0,4,3,2,3,0,3,0,0,0,5,4,0,0,5,5,3,4,5,2,4,5,0,5,2,5,1,0,4,3,0,4,2,1,0,3,2,2,5,1,2,3,4,4,0,2,2,3,2,5,3,1,0,4,2,0,4,0,4,5,2,0,0,0,0,4,3,1,0,5,5,0,0,0,0,0,0,0,0,0,0,0,0,0,0,0,0,0,0,0,0,0,0,0,0,0,0,0,0,0,0,0,0,0,0,0,0,0,0,0,0,0,0,0,0,0,0,0,0,0,0,0,0,0,0,0,0,0,0,0,0,0,0,0,0,0,0,0,0,0,0,0,0,0,0,0,0,0,0,0,0,0,0,0,0,0,0,0,0,0,0,0,0,0,0,0,0,0,0,0,0,0,0,0,0,0,0,0,0,0,0,0,0,0,0,0,0,0,0,0,0,0,0,0,0,0,0,0,0,0,0,0,0,0,0,0,0,0,0,0,0,0,0,0,0,0,0,0,0,0,0,0,0,0,0,0,0,0,0,0,0,0,0,0,0,0,0,0,0,0,0,0,0,0,0,0,0,0,0,0,0,0,0,0,0,0,0,0,0,0,0,0,0,0,0,0,0,0,0,0,0,0,0,0,0,0,0,0,0,0,0,0,0,0,0,0,0,0,0,0,0,0,0,0,0,0,0,0,0,0,0,0,0,0,0,0,0,0,0,0,0,0,0,0,0,0,0,0,0,0,0,0,0,0,0,0,0,0,0,0,0,0,0,0,0,0,0,0,0,0,0,0,0,0,0,0,0,0,0,0,0,0,0,0,0,0,0,0],"split_type":[0,0,0,0,0,0,0,0,0,0,0,0,0,0,0,0,0,0,0,0,0,0,0,0,0,0,0,0,0,0,0,0,0,0,0,0,0,0,0,0,0,0,0,0,0,0,0,0,0,0,0,0,0,0,0,0,0,0,0,0,0,0,0,0,0,0,0,0,0,0,0,0,0,0,0,0,0,0,0,0,0,0,0,0,0,0,0,0,0,0,0,0,0,0,0,0,0,0,0,0,0,0,0,0,0,0,0,0,0,0,0,0,0,0,0,0,0,0,0,0,0,0,0,0,0,0,0,0,0,0,0,0,0,0,0,0,0,0,0,0,0,0,0,0,0,0,0,0,0,0,0,0,0,0,0,0,0,0,0,0,0,0,0,0,0,0,0,0,0,0,0,0,0,0,0,0,0,0,0,0,0,0,0,0,0,0,0,0,0,0,0,0,0,0,0,0,0,0,0,0,0,0,0,0,0,0,0,0,0,0,0,0,0,0,0,0,0,0,0,0,0,0,0,0,0,0,0,0,0,0,0,0,0,0,0,0,0,0,0,0,0,0,0,0,0,0,0,0,0,0,0,0,0,0,0,0,0,0,0,0,0,0,0,0,0,0,0,0,0,0,0,0,0,0,0,0,0,0,0,0,0,0,0,0,0,0,0,0,0,0,0,0,0,0,0,0,0,0,0,0,0,0,0,0,0,0,0,0,0,0,0,0,0,0,0,0,0,0,0,0,0,0,0,0,0,0,0,0,0,0,0,0,0,0,0,0,0,0,0,0,0,0,0,0,0,0,0,0,0,0,0,0,0,0,0,0,0,0,0,0,0,0,0,0,0,0,0,0,0,0,0,0,0,0,0,0,0,0,0,0,0,0,0,0,0,0,0,0,0,0,0,0,0,0,0,0,0,0,0,0,0,0,0,0,0,0,0,0,0,0,0,0,0,0,0,0,0,0,0,0,0,0,0,0,0,0,0,0,0,0,0,0,0,0,0,0,0,0,0,0,0,0,0,0,0,0,0,0,0,0,0,0,0,0,0,0,0,0,0,0,0,0,0,0,0,0,0,0,0,0,0,0,0,0,0,0,0,0,0,0,0,0,0,0,0,0,0,0,0,0,0,0,0,0,0,0,0,0,0,0,0,0,0,0,0,0,0,0,0,0,0,0,0,0,0,0,0,0,0,0,0,0,0,0,0,0,0,0,0,0,0,0,0,0,0,0,0,0,0,0,0,0,0,0,0,0,0,0,0,0,0,0,0,0,0,0,0,0,0,0,0,0,0,0,0,0,0,0,0,0,0,0,0,0,0,0,0,0,0,0,0,0,0,0,0,0,0,0,0,0,0,0,0,0,0,0,0,0,0,0,0,0,0,0,0,0,0,0,0,0,0,0,0,0,0,0,0,0,0,0,0,0,0,0,0,0,0,0,0,0,0,0,0,0,0,0,0,0,0,0,0,0,0,0,0,0,0,0,0,0,0,0,0,0,0,0,0,0,0,0,0,0,0,0,0,0,0,0,0,0,0,0,0,0,0,0,0,0,0,0,0,0,0,0,0,0,0,0,0,0,0,0,0,0,0,0,0,0,0],"sum_hessian":[8.2454E4,7.088E3,7.5366E4,1.989E3,5.099E3,1.0916E4,6.445E4,1.8E1,1.971E3,2.735E3,2.364E3,1.15E3,9.766E3,1.7448E4,4.7002E4,1.5E1,3E0,6.2E1,1.909E3,2.655E3,8E1,1.204E3,1.16E3,3.4E1,1.116E3,2.788E3,6.978E3,8.174E3,9.274E3,1.599E4,3.1012E4,1E0,2E0,1.8E1,4.4E1,1.027E3,8.82E2,2.386E3,2.69E2,6E1,2E1,3.01E2,9.03E2,1.22E2,1.038E3,1.7E1,1.7E1,8.32E2,2.84E2,2.5E1,2.763E3,5.6E1,6.922E3,6.84E2,7.49E3,6.76E3,2.514E3,1.1444E4,4.546E3,1.5326E4,1.5686E4,1.3E1,5E0,1.4E1,3E1,1.006E3,2.1E1,8.57E2,2.5E1,2.364E3,2.2E1,2.56E2,1.3E1,1.5E1,4.5E1,4E0,1.6E1,3.6E1,2.65E2,7.99E2,1.04E2,6.8E1,5.4E1,1.4E1,1.024E3,1.1E1,6E0,1E1,7E0,7.76E2,5.6E1,6.1E1,2.23E2,1.7E1,8E0,2.24E2,2.539E3,1.9E1,3.7E1,1.23E3,5.692E3,1.37E2,5.47E2,4.907E3,2.583E3,6.563E3,1.97E2,1.005E3,1.509E3,1.134E4,1.04E2,1.284E3,3.262E3,1.4173E4,1.153E3,5.94E3,9.746E3,1E1,3E0,9E0,5E0,1.1E1,1.9E1,3.06E2,7E2,1.4E1,7E0,8.41E2,1.6E1,1E1,1.5E1,1.52E2,2.212E3,5E0,1.7E1,3.7E1,2.19E2,7E0,6E0,1.2E1,3E0,3.3E1,1.2E1,3E0,1E0,1.1E1,5E0,7E0,2.9E1,1.32E2,1.33E2,3.8E1,7.61E2,9.6E1,8E0,1.3E1,5.5E1,4E1,1.4E1,1.3E1,1E0,1.28E2,8.96E2,6E0,5E0,2E0,4E0,6E0,4E0,5E0,2E0,3.9E2,3.86E2,1E1,4.6E1,1.8E1,4.3E1,6.5E1,1.58E2,3E0,1.4E1,3E0,5E0,1.95E2,2.9E1,1.902E3,6.37E2,1.1E1,8E0,2.6E1,1.1E1,2.57E2,9.73E2,2.413E3,3.279E3,1.4E1,1.23E2,6E1,4.87E2,1.551E3,3.356E3,2.73E2,2.31E3,2.32E2,6.331E3,1.61E2,3.6E1,1.13E2,8.92E2,1.387E3,1.22E2,5.444E3,5.896E3,1.6E1,8.8E1,1.207E3,7.7E1,2.112E3,1.15E3,2.5E1,1.4148E4,1.124E3,2.9E1,4.325E3,1.615E3,2.2E1,9.724E3,3E0,7E0,7E0,2E0,9E0,1E1,7E0,2.99E2,5.1E1,6.49E2,1E1,4E0,3E0,4E0,8.28E2,1.3E1,1.1E1,5E0,2E0,8E0,1.1E1,4E0,3.8E1,1.14E2,1.5E1,2.197E3,3E0,2E0,1E0,1.6E1,7E0,3E1,1.37E2,8.2E1,4E0,2E0,9E0,3E0,2E0,1E0,1.8E1,1.5E1,1.1E1,1E0,1E0,4E0,6E0,1E0,1.4E1,1.5E1,1.23E2,9E0,3.4E1,9.9E1,3.2E1,6E0,1.92E2,5.69E2,4.2E1,5.4E1,1E0,1.2E1,7E0,4.8E1,2E0,3.8E1,1.3E1,1E0,1.07E2,2.1E1,8.9E1,8.07E2,2E0,4E0,1E0,1E0,1E0,3E0,2E0,3E0,2.37E2,1.53E2,3.16E2,7E1,2.9E1,1.7E1,1E0,1.7E1,2.4E1,1.9E1,4.5E1,2E1,1.13E2,4.5E1,1E0,2E0,4E0,1E0,1.82E2,1.3E1,2.7E1,2E0,1.8E2,1.722E3,5.61E2,7.6E1,1E0,1E1,6E0,2E0,2.5E1,1E0,3E0,8E0,2.12E2,4.5E1,7.26E2,2.47E2,2.116E3,2.97E2,1.846E3,1.433E3,3E0,1.1E1,1.14E2,9E0,1.8E1,4.2E1,2.6E2,2.27E2,4.95E2,1.056E3,1.594E3,1.762E3,2.48E2,2.5E1,2.284E3,2.6E1,1.1E2,1.22E2,2.83E2,6.048E3,9.1E1,7E1,2E0,3.4E1,4E1,7.3E1,1.3E1,8.79E2,1.325E3,6.2E1,8.9E1,3.3E1,9.8E1,5.346E3,4.401E3,1.495E3,2E0,1.4E1,1.7E1,7.1E1,1.158E3,4.9E1,7.3E1,4E0,4.63E2,1.649E3,9.5E2,2E2,1.7E1,8E0,8.69E2,1.3279E4,1.117E3,7E0,2.2E1,7E0,1.649E3,2.676E3,1.117E3,4.98E2,2E0,2E1,9.612E3,1.12E2,1E0,2E0,6E0,1E0,7E0,2E0,1E0,9E0,2.7E1,2.72E2,3.4E1,1.7E1,1.15E2,5.34E2,1E0,3E0,1E0,3E0,8.03E2,2.5E1,2E0,1.1E1,5E0,6E0,1E0,1E0,2E0,9E0,1.5E1,2.3E1,9.4E1,2E1,1.2E1,3E0,2.03E3,1.67E2,1E0,2E0,1.1E1,5E0,4E0,3E0,1E0,2.9E1,1.03E2,3.4E1,5.6E1,2.6E1,2E0,1E0,7E0,1.1E1,1E0,1.4E1,8E0,3E0,3E0,1E0,5E0,1E0,8E0,6E0,1.01E2,2.2E1,1E0,8E0,3E1,4E0,1.3E1,8.6E1,3E0,2.9E1,4E0,2E0,1.21E2,7.1E1,6.9E1,5E2,1.9E1,2.3E1,2.4E1,3E1,3E1,1.8E1,3E1,8E0,8E0,5E0,7.2E1,3.5E1,1.7E1,4E0,8.6E1,3E0,6.11E2,1.96E2,1E0,3E0,1E0,2E0,2.26E2,1.1E1,8.6E1,6.7E1,3.02E2,1.4E1,2.7E1,4.3E1,1.8E1,1.1E1,1E1,7E0,1.6E1,1E0,1E1,1.4E1,4E0,1.5E1,2.6E1,1.9E1,1E0,1.9E1,1E0,1.12E2,3.5E1,1E1,1.5E2,3.2E1,2E0,1.1E1,2.2E1,5E0,5.1E1,1.29E2,2.06E2,1.516E3,5.32E2,2.9E1,1.8E1,5.8E1,8E0,2E0,1E0,1E0,2E0,2.3E1,3E0,5E0,9E0,2.03E2,4E1,5E0,6.95E2,3.1E1,1.44E2,1.03E2,1.242E3,8.74E2,2.9E1,2.68E2,4.99E2,1.347E3,4.81E2,9.52E2,1E0,2E0,1E1,1E0,5.1E1,6.3E1,8E0,1E0,1.3E1,5E0,1.8E1,2.4E1,2.25E2,3.5E1,1.99E2,2.8E1,4.39E2,5.6E1,5.99E2,4.57E2,4.6E1,1.548E3,1.342E3,4.2E2,1.03E2,1.45E2,1E0,2.4E1,2.05E2,2.079E3,2E1,6E0,1.05E2,5E0,1.1E1,1.11E2,4.6E1,2.37E2,2.655E3,3.393E3,5E0,8.6E1,4.8E1,2.2E1,2.3E1,1.1E1,2.5E1,1.5E1,1E1,6.3E1,2E0,1.1E1,6.97E2,1.82E2,4.8E2,8.45E2,2.6E1,3.6E1,6E1,2.9E1,1E1,2.3E1,4.1E1,5.7E1,2.11E3,3.236E3,1.794E3,2.607E3,1.394E3,1.01E2,1.1E1,3E0,1.5E1,2E0,3E1,4.1E1,2.34E2,9.24E2,1.7E1,3.2E1,4.8E1,2.5E1,1E0,3E0,3.47E2,1.16E2,3.1E1,1.618E3,7.01E2,2.49E2,1.68E2,3.2E1,1.6E1,1E0,3E0,5E0,3.3E1,8.36E2,7.369E3,5.91E3,4.7E1,1.07E3,1E0,2.1E1,4E0,3E0,9.98E2,6.51E2,1.538E3,1.138E3,9.13E2,2.04E2,4.83E2,1.5E1,1E0,1E0,1.6E1,4E0,1.621E3,7.991E3,7.6E1,3.6E1],"tree_param":{"num_deleted":"0","num_feature":"6","num_nodes":"699","size_leaf_vector":"1"}},{"base_weights":[-3.182342E-2,-8.143917E-2,-2.6323944E-2,-1.3770492E-1,-5.7705596E-2,-1.6755319E-1,-2.4144346E-2,-3.3774835E-1,-1.2445415E-1,-8.25886E-2,-2.5943397E-2,-5.835544E-2,-2.2207446E-1,-5.3927224E-2,-1.7702648E-2,-3.9716312E-1,4.5454547E-1,-1.15823075E-1,-3.1632653E-1,-5.225225E-2,-1.14484504E-1,1.5286624E-1,-3.768844E-2,2.6666668E-1,-1.021021E-1,2.2857143E-1,-2.4373259E-1,-8.6413905E-2,-2.3088455E-2,-2.707082E-2,-3.907857E-3,-3.359375E-1,-2.3214285E-1,-3.3333334E-1,6.666667E-1,-7.533632E-2,-1.5755329E-1,-4E-1,2.1428572E-1,-6.3949846E-2,2.112676E-1,-2.8643215E-1,-8.966016E-2,-3.478261E-1,2.3703703E-1,-6.0902666E-2,4E-2,3.5714287E-1,-1.875E-1,-9.9502485E-3,-2.4060151E-1,2.0833333E-1,1E-1,-2.3088023E-1,-5.769231E-1,-1.8740849E-1,-7.418555E-2,-1.9396552E-1,-1.6928094E-2,1.6528925E-1,-2.7722495E-2,-1.9964542E-2,1.4464633E-2,-6.764706E-1,-2.1052632E-1,-0E0,-1.25E-1,2.1875E-1,-1.25E-1,1.2587413E-1,-1.0483042E-1,1.5384616E-1,-1.773399E-1,-1.9607843E-1,-6.857143E-1,2.0833333E-1,-2.2222222E-1,-1.9704433E-1,-4.4508256E-2,3.6363637E-1,-2.9411766E-1,6.25E-1,-3.2291666E-1,-2.2950819E-2,-1.4211886E-1,-2.25E-1,7.1428575E-2,-4.4444445E-1,2.8346458E-1,1.5267175E-1,-7.723815E-2,1.03960395E-1,-1.3605443E-1,-0E0,5.555556E-1,-3.5714287E-1,8.125E-2,-1.5151516E-2,-4.5588234E-1,-1.3636364E-1,6.666667E-1,-2.5868055E-1,-9.322034E-2,-2.3076923E-1,-2.1428572E-1,7.462686E-2,-2.509091E-1,2.3404256E-1,-7.67583E-2,9.090909E-3,-3.7398374E-1,-3.471596E-2,2.245509E-2,2.1551724E-1,-2.0833333E-1,-1.6788363E-2,-3.8122848E-2,1.8925386E-2,-4.1303568E-2,4.8851624E-2,-1.7768666E-2,-7.2727275E-1,1.25E-1,-3.2E-1,1.904762E-1,-5.714286E-1,1.6058394E-1,-9.272919E-2,-5.6E-1,-6E-2,8.125E-1,-1.8235877E-1,5.714286E-1,1.7391305E-1,-4.827586E-1,-7.878788E-1,1.6666667E-1,-5.714286E-1,1.6666667E-1,-9.146342E-2,-6.25E-1,-8.188824E-2,6.460674E-2,-1.6666667E-1,4.1509435E-1,-8E-1,3.75E-1,-0E0,2.0833333E-1,-4.037267E-1,9.375E-2,-3.691275E-2,5.3333336E-1,-1.8153365E-1,4.411765E-2,3.6363637E-1,-1.875E-1,-6.25E-1,1.25E-1,3.1451613E-1,-1.875E-1,-3.2E-1,2.6168224E-1,-2.275449E-1,-6.0920287E-2,8.396947E-2,7.5E-1,-5.925926E-2,-2.3076923E-1,-3.3333334E-1,2E-1,6.1538464E-1,-1.25E-1,-4.5454547E-2,-6.666667E-1,-1.1666667E-1,1.980198E-1,6.779661E-2,-6.25E-1,-5.9615386E-1,-0E0,5E-1,-3.529412E-1,-1.25E-1,2.1875E-1,-2.4464285E-1,-7.058824E-1,-2.4096386E-1,2.5E-1,-6.666667E-1,5E-1,-3.4375E-1,2.038835E-1,-8.0882356E-2,-3.060241E-1,-2.2727273E-1,6.1538464E-1,-2.0560747E-1,-7.1627386E-2,-2.5454545E-1,2.6785713E-1,4.1666666E-1,-4.5535713E-1,2.0444445E-2,-5.3442027E-2,2.5E-1,1.7811704E-2,2.4778761E-1,-1.875E-1,-3.8742393E-2,-8.103338E-3,-2.3281597E-2,-6.465386E-2,1.598746E-1,8.413181E-3,1.7105263E-1,-4.5222465E-2,1.4619883E-2,9.256953E-2,5.0141912E-2,-3.2728788E-2,-2.857143E-1,-8.148148E-1,1.3333334E-1,-4.262295E-1,-5E-1,4.375E-1,-0E0,-2E-1,4.390244E-1,4.1237112E-2,-1.09030835E-1,2.6190478E-1,-8.333333E-1,1.25E-1,-2.1428572E-1,6.818182E-2,-0E0,2.3214285E-1,-2.1928665E-1,-7.114624E-2,-1.25E-1,2.0833333E-1,2E-1,-0E0,-2.3076923E-1,-1.1764706E-1,1.25E-1,-8.4375E-1,-0E0,-2E-1,-2.5842696E-1,1.0526316E-1,-8.8461536E-1,-1.3333334E-1,-7.324219E-2,-6.666667E-1,2.08E-1,-1.2931035E-2,2.3076923E-1,2.4390244E-1,-2.1875E-1,-3.3333334E-1,-1.6666667E-1,2.0833333E-1,-1.25E-1,1.25E-1,-3.5135135E-1,-2.3214285E-1,5E-1,-4E-1,4.149378E-3,-2.0869565E-1,1.25E-1,2.1875E-1,1.923077E-1,-1.9706841E-1,-3.030303E-1,1.5384616E-1,5E-1,-1.25E-1,-0E0,-2.0833333E-1,3.5344827E-1,-2.2222222E-1,5.714286E-1,-6.315789E-1,-1.6E-1,3.8554215E-1,-1.5E-1,-6.0714287E-1,9.6491225E-2,-7.3426574E-2,4.3227665E-2,3.8297874E-1,2.25E-1,-0E0,-9.3023255E-2,5.714286E-1,-5.555556E-1,2.5E-1,3.3333334E-1,2.2916667E-1,2.3529412E-1,-2.0833333E-1,-7.5E-1,1.25E-1,4.375E-1,-3.1111112E-1,1.3186814E-1,7.2727275E-1,3.4615386E-1,-1.4705883E-1,-2.0833333E-1,-0E0,-7.3170733E-1,-8.3333336E-2,-3.75E-1,3E-1,1.875E-1,-0E0,-5.3333336E-1,1.6666667E-1,-4.7058824E-1,-2.2156863E-1,1.25E-1,-8.125E-1,4.1666666E-1,-3.472222E-1,7.8571427E-1,-8.695652E-2,-2.1428572E-1,-0E0,2E-1,-1.25E-1,-0E0,-6.111111E-1,2.5773194E-1,-5.714286E-1,-1.9827586E-1,5.714286E-1,-3.454039E-1,-5.263158E-2,7.1428575E-2,-6.666667E-1,8.333333E-1,1.1111111E-1,4.2105263E-1,-2.6530612E-1,-2.5833333E-1,-6.736243E-2,3.5714287E-1,-4.5238096E-1,-1.3333334E-1,4.047619E-1,2.2222222E-1,-1.875E-1,-8E-1,-3.9795917E-1,1.3939394E-1,-2.8894473E-2,2.2413793E-1,-5.8371738E-2,-1.1111111E-1,2.3214285E-1,-6.0344826E-2,3.461063E-2,7.575758E-2,4.7916666E-1,2.200957E-2,-5.506948E-2,-3.8383838E-2,1.1842981E-2,-2.7894737E-2,1.3761468E-1,-5.9008654E-2,-2.4019608E-1,1.8709677E-1,-7E-1,-1.1606597E-2,7.355865E-2,9.1603056E-2,6.363636E-1,-5.4299254E-2,3.4441806E-2,7.202216E-2,-1.6533066E-2,-1.6666667E-1,1.0398614E-1,7.653061E-2,-2.820513E-1,-6.945036E-2,2.4479805E-3,-2E-1,1.6666667E-1,-9.375E-2,-2.375E-1,1.1111111E-1,-7.1428575E-2,1.6666667E-1,-1.18644066E-1,-1.875E-1,-0E0,1.875E-1,-1E-1,-1.25E-1,1.25E-1,1.3513513E-1,-1E-1,-5.147059E-2,4.296875E-2,-1.0670732E-1,-1.9347038E-2,1.375E-1,-0E0,1.25E-1,-2.3529412E-1,-1.6666667E-1,1.25E-1,5.7142857E-2,-1.25E-1,1.25E-1,-1.25E-1,-6.84629E-2,-1.4322917E-2,-3.827751E-2,7.777778E-2,-1.25E-1,5.357143E-2,-1.15384616E-1,2E-1,-2.2321428E-1,-1E-1,-1.25E-1,1.25E-1,-8.3333336E-2,1.1111111E-1,1.388889E-1,-8.474576E-3,-1E-1,-2.3863636E-1,-2E-1,4.5454547E-2,-1.71737E-2,-2.0833333E-1,1.25E-1,-1.9642857E-1,-4.2857144E-2,8.791209E-2,7.2115384E-2,-2.4861878E-2,1.25E-1,-1.25E-2,-0E0,-1.25E-1,-1.3942307E-1,-5.927835E-2,1.4705883E-1,-1.25E-1,-2.1428572E-1,-0E0,5.357143E-2,-7.869249E-3,1.0526316E-1,-8.2474224E-2,7.1428575E-2,-1.25E-1,1.6666667E-1,-1.3888889E-2,-1.3725491E-1,-4.1223403E-2,-1.3043478E-1,4.5454547E-2,-9.433962E-3,8.6538464E-2,1.6666667E-1,-1.25E-1,-1.25E-1,1.25E-1,1.0526316E-1,1.1363637E-2,-2.0833333E-1,1.875E-1,2.0833333E-1,-1.25E-1,-0E0,-2.3076923E-1,2E-1,-9.52381E-2,-1.25E-1,1.25E-1,5.6179776E-3,-1.1057692E-1,1.25E-1,-1.6666667E-1,5.050505E-2,-1.40625E-1,-1.6666667E-1,-1.7405063E-2,2.6041666E-2,-2.3148147E-2,-1.3888889E-2,1.5833333E-1,-1.25E-1,1.25E-1,-8.695652E-3,-1.3333334E-1,-0E0,2E-1,-1.7857143E-1,-0E0,1.6666667E-1,-1.25E-1,1.875E-1,4.1666668E-2,-5.5555556E-2,1.6666667E-1,-6.25E-2,-2.0588236E-1,-1.875E-1,1.923077E-1,-1.4516129E-1,6.666667E-2,-1.25E-1,4.360465E-2,2.25E-1,-1.25E-1,-0E0,1.6071428E-1,-2.1428572E-1,8.928572E-3,-1.25E-1,1.25E-1,-7.5E-2,-2.109375E-1,7.1428575E-2,-1.25E-1,6.25E-2,-2E-1,-1E-1,2.0833333E-1,1.25E-1,-1.25E-1,1.25E-1,-1.6071428E-1,-1.3888889E-2,-1.6911764E-1,2.2058824E-2,-6.0796645E-2,-2.3214285E-1,-0E0,2.1428572E-1,-4.1666668E-2,1.6666667E-1,-9.642857E-2,-1.25E-1,2.3076923E-1,-1.875E-1,1.25E-2,1.25E-1,-1.25E-1,1.875E-1,-6.25E-2,-1.764706E-1,1.25E-1,3.8194444E-2,1.3461539E-1,-2.0833333E-1,1.25E-1,-8.219178E-2,5.6818184E-3,-1.25E-1,1.625E-1,-0E0,-9.422492E-2,-1.3333334E-1,2.9069768E-2,-7.5E-2,2E-1,-2.1875E-1,1.25E-1,2.34375E-1,-0E0,1.5E-1,-1E-1,-1.25E-1,1.25E-1,-1.875E-1,-5.8108106E-2,-7.6754384E-2,1.4285715E-1,-1.7327206E-2,3.6458332E-2,1.75E-1,-1E-1,-1.6666667E-1,-1.5625E-2,1.4285715E-1,-1.6666667E-1,-1.6666667E-1,1.1875E-1,-0E0,-2.3076923E-1,-1.25E-2,-1.2025317E-1,9.162304E-3,6.964286E-2,-5.689001E-3,-2.0833333E-1,8.173077E-2,-1.4285715E-1,-2.1059113E-2,-3.8743883E-3,2.2727273E-2,-2.0833333E-1,-2.258567E-2,7.1428575E-2,4.753521E-2,4.9085985E-3,-1.0227273E-1,7.777778E-2,1.5625E-1,-5.5555556E-2,7.0454545E-2,-2.1367522E-3,-5.485232E-2,-1.1095891E-2,3.4431137E-2,-1.1130853E-2,-4.180298E-3,7.0828963E-3,-5.0034337E-3,-2.3592716E-2,-6.896552E-2,4.431438E-2,4.3010753E-2,-1.5607537E-2,-1.9318181E-1,-4.3715846E-2,8.026316E-2,-6.198347E-3,-2.2222222E-1,1.25E-1,2.5736599E-3,-3.6572054E-2,-2.4891775E-2,3.125E-2,5.625E-2,-2.8846154E-2,2.1428572E-1,5.5555556E-2,-1.2913997E-2,-1.122449E-1,4.84375E-2,-7.320644E-4,-1.3541667E-1,2.1462264E-2,-1.8716577E-2,1.4571428E-2,1.1666667E-1,-6.818182E-2,2.9323135E-2,-2.138158E-2,1.1660978E-2,8.3333336E-2,-2.1929825E-2,-1.9318181E-1,-2.9498525E-2,-7.5604836E-4,8.72925E-3,-1.9503547E-2],"categories":[],"categories_nodes":[],"categories_segments":[],"categories_sizes":[],"default_left":[0,0,0,0,0,0,0,0,0,0,0,0,0,0,0,0,0,0,0,0,0,0,0,0,0,0,0,0,0,0,0,0,0,0,0,0,0,0,0,0,0,0,0,0,0,0,0,0,0,0,0,0,0,0,0,0,0,0,0,0,0,0,0,0,0,0,0,0,0,0,0,0,0,0,0,0,0,0,0,0,0,0,0,0,0,0,0,0,0,0,0,0,0,0,0,0,0,0,0,0,0,0,0,0,0,0,0,0,0,0,0,0,0,0,0,0,0,0,0,0,0,0,0,0,0,0,0,0,0,0,0,0,0,0,0,0,0,0,0,0,0,0,0,0,0,0,0,0,0,0,0,0,0,0,0,0,0,0,0,0,0,0,0,0,0,0,0,0,0,0,0,0,0,0,0,0,0,0,0,0,0,0,0,0,0,0,0,0,0,0,0,0,0,0,0,0,0,0,0,0,0,0,0,0,0,0,0,0,0,0,0,0,0,0,0,0,0,0,0,0,0,0,0,0,0,0,0,0,0,0,0,0,0,0,0,0,0,0,0,0,0,0,0,0,0,0,0,0,0,0,0,0,0,0,0,0,0,0,0,0,0,0,0,0,0,0,0,0,0,0,0,0,0,0,0,0,0,0,0,0,0,0,0,0,0,0,0,0,0,0,0,0,0,0,0,0,0,0,0,0,0,0,0,0,0,0,0,0,0,0,0,0,0,0,0,0,0,0,0,0,0,0,0,0,0,0,0,0,0,0,0,0,0,0,0,0,0,0,0,0,0,0,0,0,0,0,0,0,0,0,0,0,0,0,0,0,0,0,0,0,0,0,0,0,0,0,0,0,0,0,0,0,0,0,0,0,0,0,0,0,0,0,0,0,0,0,0,0,0,0,0,0,0,0,0,0,0,0,0,0,0,0,0,0,0,0,0,0,0,0,0,0,0,0,0,0,0,0,0,0,0,0,0,0,0,0,0,0,0,0,0,0,0,0,0,0,0,0,0,0,0,0,0,0,0,0,0,0,0,0,0,0,0,0,0,0,0,0,0,0,0,0,0,0,0,0,0,0,0,0,0,0,0,0,0,0,0,0,0,0,0,0,0,0,0,0,0,0,0,0,0,0,0,0,0,0,0,0,0,0,0,0,0,0,0,0,0,0,0,0,0,0,0,0,0,0,0,0,0,0,0,0,0,0,0,0,0,0,0,0,0,0,0,0,0,0,0,0,0,0,0,0,0,0,0,0,0,0,0,0,0,0,0,0,0,0,0,0,0,0,0,0,0,0,0,0,0,0,0,0,0,0,0,0,0,0,0,0,0,0,0,0,0,0,0,0,0,0,0,0,0,0,0,0,0,0,0,0,0,0,0,0,0,0,0,0,0,0,0,0,0,0,0,0,0,0,0,0,0,0,0,0,0,0,0,0,0,0,0,0,0,0,0,0,0,0,0,0,0,0,0,0,0,0,0,0,0,0,0,0,0,0,0,0,0,0,0,0,0,0,0,0,0,0,0,0,0,0,0,0,0],"id":2,"left_children":[1,3,5,7,9,11,13,15,17,19,21,23,25,27,29,31,33,35,37,39,41,43,45,47,49,51,53,55,57,59,61,63,-1,65,67,69,71,73,75,77,79,81,83,85,87,89,91,93,-1,95,97,-1,99,101,103,105,107,109,111,113,115,117,119,121,123,-1,-1,-1,-1,125,127,129,131,133,135,-1,137,139,141,143,145,147,149,151,153,-1,155,157,159,161,163,165,167,169,171,173,175,177,179,181,183,185,187,-1,189,191,193,195,197,199,201,203,205,207,-1,209,211,213,215,217,219,221,-1,223,225,227,229,231,233,235,237,239,241,243,245,247,-1,249,-1,251,253,255,257,-1,259,261,263,265,-1,267,269,271,273,275,277,279,-1,281,-1,283,-1,285,287,289,291,293,295,297,-1,299,-1,301,-1,303,305,307,309,311,313,315,317,319,321,-1,-1,323,325,327,329,331,333,335,337,339,341,343,345,347,349,351,353,355,357,359,361,363,365,367,-1,369,371,373,375,377,379,381,383,385,387,389,391,393,395,397,399,401,403,405,-1,407,409,411,413,415,417,-1,419,421,-1,423,425,-1,-1,-1,427,-1,429,-1,431,433,-1,435,437,439,441,443,445,447,449,-1,451,-1,453,-1,-1,-1,-1,455,-1,457,459,461,463,465,-1,467,469,471,473,475,-1,477,-1,479,481,483,485,487,489,491,493,495,497,499,501,-1,503,505,507,509,511,513,-1,515,-1,517,-1,519,521,523,525,527,529,-1,531,533,535,537,539,-1,541,543,-1,545,547,-1,549,551,553,555,557,-1,559,-1,-1,561,563,565,567,569,571,573,575,577,579,581,583,585,587,589,591,593,595,597,599,-1,-1,601,603,605,607,609,611,613,-1,615,617,619,621,623,625,627,629,631,633,635,637,639,641,643,645,647,649,651,653,655,657,659,661,663,665,667,669,-1,-1,-1,-1,-1,-1,-1,-1,-1,-1,-1,-1,-1,-1,-1,-1,-1,-1,-1,-1,-1,-1,-1,-1,-1,-1,-1,-1,-1,-1,-1,-1,-1,-1,-1,-1,-1,-1,-1,-1,-1,-1,-1,-1,-1,-1,-1,-1,-1,-1,-1,-1,-1,-1,-1,-1,-1,-1,-1,-1,-1,-1,-1,-1,-1,-1,-1,-1,-1,-1,-1,-1,-1,-1,-1,-1,-1,-1,-1,-1,-1,-1,-1,-1,-1,-1,-1,-1,-1,-1,-1,-1,-1,-1,-1,-1,-1,-1,-1,-1,-1,-1,-1,-1,-1,-1,-1,-1,-1,-1,-1,-1,-1,-1,-1,-1,-1,-1,-1,-1,-1,-1,-1,-1,-1,-1,-1,-1,-1,-1,-1,-1,-1,-1,-1,-1,-1,-1,-1,-1,-1,-1,-1,-1,-1,-1,-1,-1,-1,-1,-1,-1,-1,-1,-1,-1,-1,-1,-1,-1,-1,-1,-1,-1,-1,-1,-1,-1,-1,-1,-1,-1,-1,-1,-1,-1,-1,-1,-1,-1,-1,-1,-1,-1,-1,-1,-1,-1,-1,-1,-1,-1,-1,-1,-1,-1,-1,-1,-1,-1,-1,-1,-1,-1,-1,-1,-1,-1,-1,-1,-1,-1,-1,-1,-1,-1,-1,-1,-1,-1,-1,-1,-1,-1,-1,-1,-1,-1,-1,-1,-1,-1,-1,-1,-1,-1,-1,-1,-1,-1,-1,-1,-1,-1,-1,-1,-1,-1,-1,-1,-1,-1,-1,-1,-1,-1,-1,-1,-1,-1,-1,-1,-1,-1,-1,-1,-1,-1,-1,-1,-1,-1,-1,-1,-1,-1,-1,-1],"loss_changes":[2.2496567E1,1.0978287E1,2.284534E1,6.425747E0,4.572338E0,6.7027016E0,1.402383E1,7.2886963E0,3.7557487E0,3.1338978E0,5.3484855E0,5.387652E0,7.395336E0,1.3021038E1,7.767252E0,4.275608E0,2.0606062E0,3.6932526E0,4.436735E0,5.145952E0,6.7227974E0,6.699004E0,4.3091393E0,4.4071426E0,4.247677E0,2.6380959E0,2.9414825E0,7.803627E0,7.017988E0,4.491707E0,7.17177E0,5.3240376E0,0E0,1.6666666E-1,2.625E0,6.630186E0,6.675585E0,4.8179283E0,3.9682546E0,4.118401E0,5.574301E0,6.8192005E0,4.836528E0,5.3888197E0,4.397317E0,6.4277735E0,6.2074246E0,2.97619E0,0E0,6.3934927E0,6.4482565E0,0E0,4.109091E0,2.6279907E0,3.0659351E0,1.1383436E1,4.49679E0,8.483895E0,4.5115747E0,6.2488127E0,4.056278E0,1.07667265E1,1.2567977E1,2.3957205E0,4.2313786E0,0E0,0E0,0E0,0E0,3.552827E0,5.3074665E0,9.204039E0,3.9185467E0,5.4934883E0,5.361038E0,0E0,3.1746032E0,9.115179E0,5.686944E0,3.1926808E0,6.054412E0,1.041667E0,6.502653E0,4.757436E0,5.689534E0,0E0,3.633117E0,1.8472222E0,4.311404E0,6.833667E0,4.1777782E0,5.1546555E0,8.829909E0,4.5333333E0,2.0128212E0,4.021646E0,3.7208128E0,3.3810349E0,4.3484173E0,3.2085562E0,2.625E0,3.4432564E0,6.0438538E0,0E0,4.857143E0,7.3165345E0,5.1293144E0,8.408051E0,3.6888313E0,7.572403E0,8.103296E0,4.583204E0,2.1129308E0,3.8001223E0,0E0,3.316032E0,7.197487E0,6.8099713E0,6.9790916E0,8.208665E0,5.9479995E0,1.0428085E0,0E0,3.668635E0,3.8005953E0,9.1428566E-1,4.53454E0,5.5148363E0,4.785E0,5.167403E0,1.5089293E0,4.1282043E0,2.3809526E0,2.5043478E0,4.553597E0,2.796402E0,0E0,9.1428566E-1,0E0,5.413975E0,4.9878216E0,5.19933E0,3.9608386E0,0E0,4.383872E0,5.8333397E-2,4.3750005E0,1E0,0E0,4.0994625E0,6.61875E0,4.204914E0,1.9833331E0,3.7489128E0,5.2271357E0,1.5454545E0,0E0,1.041667E0,0E0,2.669694E0,0E0,7.304662E0,5.6502476E0,4.8247232E0,3.0446877E0,4.7710395E0,1.3500004E0,2.9279194E0,0E0,1.6944445E0,0E0,1.9038467E0,0E0,5.062389E0,2.416667E0,6.601389E0,3.4402034E0,3.5794926E0,1.041667E0,3.5537834E0,2.025E0,7.5E-1,3.4823532E0,0E0,0E0,2.8153E0,2.5919113E0,5.944612E0,6.5667706E0,1.1428576E0,2.2E0,2.9409723E0,4.44746E0,1.0527782E1,4.122917E0,2.9350653E0,2.7649565E0,8.11761E0,4.2738247E0,6.8173165E0,3.1297622E0,7.2777777E0,1.897192E0,6.606472E0,4.545184E0,9.904762E0,2.582027E0,4.461569E0,0E0,4.891292E0,7.5285172E0,8.707311E0,6.484617E0,7.598008E0,5.5815163E0,5.560959E0,5.950056E0,5.5054255E0,7.1470013E0,9.287402E0,6.1966767E0,3.9619048E0,1.2490749E0,2.0825398E0,3.5395012E0,7.5E-1,4.4875E0,1E0,0E0,3.7083712E0,3.166853E0,9.097812E0,3.1690478E0,3.0588236E0,2.7083335E0,0E0,4.124026E0,1E0,0E0,6.675621E0,7.974445E0,0E0,0E0,0E0,2.142857E0,0E0,5.7339363E0,0E0,3.4017944E-1,1E0,0E0,4.8339577E0,4.781247E0,4.993019E-1,3.2969697E0,3.4821386E0,2.476191E0,6.8733187E0,6.0781856E0,0E0,3.1109757E0,0E0,1.6666666E-1,0E0,0E0,0E0,0E0,3.3564167E0,0E0,1.8823528E0,2.7428575E0,3.615188E0,8.916428E0,9.4642854E-1,0E0,3.094017E0,6.862379E0,3.594203E0,3.844703E0,2E0,0E0,1E0,0E0,2.3961802E0,5.9722223E0,2.3809526E0,3.4979758E0,5.6076193E0,8.662651E0,7.0680213E0,2.1785717E0,8.0415E0,3.1826143E0,2.8816776E0,5.195272E0,0E0,1E0,3.2895184E0,9.1428566E-1,7.936511E-1,1.5833334E0,9.166666E-1,0E0,3.5032682E0,0E0,5.2941227E-1,0E0,6.8798084E0,7.1627235E0,2.5338616E0,2.7818184E0,2.67033E0,4.4432774E0,0E0,1E0,1.7300301E0,1.9880952E0,2.325E0,4.066667E0,0E0,1E0,2.0190477E0,0E0,4.320261E0,3.4370937E0,0E0,1.5089293E0,3.2261908E0,3.0670633E0,2.9340658E0,2.126087E0,0E0,1E0,0E0,0E0,3E0,2.2483664E0,2.7757182E0,2.3809526E0,3.3527937E0,2.092857E0,3.9054794E0,4.6901674E0,4.028571E0,2.625E0,1.5625E0,2.488889E0,1.6315789E0,2.948676E0,5.022995E0,2.196968E0,3.9142861E0,3.4672623E0,6.0190473E0,3.4773812E0,0E0,0E0,1.476923E0,2.8080711E0,4.7087083E0,3.9117022E0,4.9296136E0,3.6082582E0,4.0151515E0,0E0,3.6384106E0,3.765005E0,7.6585855E0,5.0486116E0,8.29852E0,6.8145514E0,5.3582215E0,3.5399137E0,5.9705534E0,5.408885E0,5.034628E0,6.962385E0,8.806979E0,2.711111E0,9.658805E0,8.9717045E0,3.6430712E0,1.8210688E0,7.6811714E0,5.013294E0,9.236202E0,8.71575E0,6.9787893E0,5.830181E0,7.5059385E0,7.3698325E0,7.5677195E0,6.406029E0,0E0,0E0,0E0,0E0,0E0,0E0,0E0,0E0,0E0,0E0,0E0,0E0,0E0,0E0,0E0,0E0,0E0,0E0,0E0,0E0,0E0,0E0,0E0,0E0,0E0,0E0,0E0,0E0,0E0,0E0,0E0,0E0,0E0,0E0,0E0,0E0,0E0,0E0,0E0,0E0,0E0,0E0,0E0,0E0,0E0,0E0,0E0,0E0,0E0,0E0,0E0,0E0,0E0,0E0,0E0,0E0,0E0,0E0,0E0,0E0,0E0,0E0,0E0,0E0,0E0,0E0,0E0,0E0,0E0,0E0,0E0,0E0,0E0,0E0,0E0,0E0,0E0,0E0,0E0,0E0,0E0,0E0,0E0,0E0,0E0,0E0,0E0,0E0,0E0,0E0,0E0,0E0,0E0,0E0,0E0,0E0,0E0,0E0,0E0,0E0,0E0,0E0,0E0,0E0,0E0,0E0,0E0,0E0,0E0,0E0,0E0,0E0,0E0,0E0,0E0,0E0,0E0,0E0,0E0,0E0,0E0,0E0,0E0,0E0,0E0,0E0,0E0,0E0,0E0,0E0,0E0,0E0,0E0,0E0,0E0,0E0,0E0,0E0,0E0,0E0,0E0,0E0,0E0,0E0,0E0,0E0,0E0,0E0,0E0,0E0,0E0,0E0,0E0,0E0,0E0,0E0,0E0,0E0,0E0,0E0,0E0,0E0,0E0,0E0,0E0,0E0,0E0,0E0,0E0,0E0,0E0,0E0,0E0,0E0,0E0,0E0,0E0,0E0,0E0,0E0,0E0,0E0,0E0,0E0,0E0,0E0,0E0,0E0,0E0,0E0,0E0,0E0,0E0,0E0,0E0,0E0,0E0,0E0,0E0,0E0,0E0,0E0,0E0,0E0,0E0,0E0,0E0,0E0,0E0,0E0,0E0,0E0,0E0,0E0,0E0,0E0,0E0,0E0,0E0,0E0,0E0,0E0,0E0,0E0,0E0,0E0,0E0,0E0,0E0,0E0,0E0,0E0,0E0,0E0,0E0,0E0,0E0,0E0,0E0,0E0,0E0,0E0,0E0,0E0,0E0,0E0,0E0,0E0,0E0,0E0,0E0,0E0,0E0,0E0,0E0,0E0,0E0,0E0,0E0,0E0,0E0,0E0,0E0,0E0,0E0,0E0,0E0,0E0,0E0,0E0,0E0,0E0,0E0,0E0,0E0,0E0,0E0,0E0],"parents":[2147483647,0,0,1,1,2,2,3,3,4,4,5,5,6,6,7,7,8,8,9,9,10,10,11,11,12,12,13,13,14,14,15,15,16,16,17,17,18,18,19,19,20,20,21,21,22,22,23,23,24,24,25,25,26,26,27,27,28,28,29,29,30,30,31,31,33,33,34,34,35,35,36,36,37,37,38,38,39,39,40,40,41,41,42,42,43,43,44,44,45,45,46,46,47,47,49,49,50,50,52,52,53,53,54,54,55,55,56,56,57,57,58,58,59,59,60,60,61,61,62,62,63,63,64,64,69,69,70,70,71,71,72,72,73,73,74,74,76,76,77,77,78,78,79,79,80,80,81,81,82,82,83,83,84,84,86,86,87,87,88,88,89,89,90,90,91,91,92,92,93,93,94,94,95,95,96,96,97,97,98,98,99,99,100,100,101,101,102,102,104,104,105,105,106,106,107,107,108,108,109,109,110,110,111,111,112,112,113,113,115,115,116,116,117,117,118,118,119,119,120,120,121,121,123,123,124,124,125,125,126,126,127,127,128,128,129,129,130,130,131,131,132,132,133,133,134,134,135,135,137,137,139,139,140,140,141,141,142,142,144,144,145,145,146,146,147,147,149,149,150,150,151,151,152,152,153,153,154,154,155,155,157,157,159,159,161,161,162,162,163,163,164,164,165,165,166,166,167,167,169,169,171,171,173,173,174,174,175,175,176,176,177,177,178,178,179,179,180,180,181,181,182,182,185,185,186,186,187,187,188,188,189,189,190,190,191,191,192,192,193,193,194,194,195,195,196,196,197,197,198,198,199,199,200,200,201,201,202,202,203,203,204,204,205,205,206,206,207,207,209,209,210,210,211,211,212,212,213,213,214,214,215,215,216,216,217,217,218,218,219,219,220,220,221,221,222,222,223,223,224,224,225,225,226,226,227,227,229,229,230,230,231,231,232,232,233,233,234,234,236,236,237,237,239,239,240,240,244,244,246,246,248,248,249,249,251,251,252,252,253,253,254,254,255,255,256,256,257,257,258,258,260,260,262,262,267,267,269,269,270,270,271,271,272,272,273,273,275,275,276,276,277,277,278,278,279,279,281,281,283,283,284,284,285,285,286,286,287,287,288,288,289,289,290,290,291,291,292,292,293,293,294,294,296,296,297,297,298,298,299,299,300,300,301,301,303,303,305,305,307,307,308,308,309,309,310,310,311,311,312,312,314,314,315,315,316,316,317,317,318,318,320,320,321,321,323,323,324,